<?xml version="1.0"?>
<opencv_storage>
<my_svm type_id="opencv-ml-svm">
  <svm_type>C_SVC</svm_type>
  <kernel><type>RBF</type>
    <gamma>6.2500000000000000e-02</gamma></kernel>
  <C>1.</C>
  <term_criteria><epsilon>1.0000000474974513e-03</epsilon>
    <iterations>1000</iterations></term_criteria>
  <var_all>1764</var_all>
  <var_count>1764</var_count>
  <class_count>2</class_count>
  <class_labels type_id="opencv-matrix">
    <rows>1</rows>
    <cols>2</cols>
    <dt>i</dt>
    <data>
      -2 1</data></class_labels>
  <sv_total>151</sv_total>
  <support_vectors>
    <_>
      2.10256591e-01 4.90947207e-03 2.21969397e-03 0. 3.03465098e-01
      1.01093717e-01 2.92172888e-04 1.77447405e-02 2.20095515e-01
      3.03465098e-01 4.94532734e-02 1.72642886e-03 8.39013755e-02
      3.03465098e-01 1.07012153e-01 3.75650823e-04 3.61034311e-02
      3.03465098e-01 3.03465098e-01 4.79094163e-02 3.32954116e-02
      7.70529360e-02 3.03465098e-01 3.92964780e-02 0. 5.78105263e-03
      3.03465098e-01 2.57988453e-01 1.71424560e-02 2.58964337e-02
      4.06174846e-02 3.03465098e-01 0. 0. 0. 2.33861357e-01
      3.52375925e-01 2.27106601e-01 0. 2.47524768e-01 3.52375925e-01
      4.27261479e-02 1.49984044e-04 2.37660147e-02 3.52375925e-01
      2.64363885e-01 8.23005140e-02 0. 1.65016521e-02 3.52375925e-01 0.
      0. 0. 2.55679488e-01 2.27140918e-01 0. 0. 1.65016521e-02
      3.52375925e-01 0. 0. 0. 2.27140918e-01 4.89503890e-02 0. 0.
      1.10011024e-03 9.92045403e-02 0. 0. 0. 4.89503890e-02
      3.28455240e-01 0. 0. 0. 4.40638065e-01 0. 0. 0. 3.28455240e-01
      4.40638065e-01 0. 0. 0. 4.40638065e-01 0. 0. 0. 4.40638065e-01
      1.31059317e-02 0. 0. 0. 0. 0. 0. 0. 1.31059317e-02 3.76931094e-02
      0. 0. 0. 0. 0. 0. 0. 3.76931094e-02 5.71511209e-01 0. 0. 0.
      5.71511209e-01 0. 0. 0. 5.71511209e-01 0. 0. 0. 0. 9.80404168e-02
      0. 0. 0. 0. 4.90202084e-02 0. 0. 0. 0. 0. 0. 0. 4.90202084e-02 0.
      0. 0. 0. 0. 0. 0. 0. 0. 4.89280047e-03 0. 0. 0. 1.18116885e-02 0.
      0. 0. 4.89280047e-03 1.28532916e-01 0. 0. 0. 1.35284200e-01 0. 0.
      0. 1.28532916e-01 7.48317316e-02 0. 0. 0. 2.32443094e-01 0. 0. 0.
      7.48317316e-02 5.40936828e-01 0. 0. 0. 5.40936828e-01 0. 0. 0.
      5.40936828e-01 7.28887394e-02 0. 0. 0. 7.60374516e-02 0. 0. 0.
      7.28887394e-02 7.43196532e-02 0. 0. 0. 1.49159223e-01 0. 0. 0.
      7.43196532e-02 3.97141874e-01 0. 0. 0. 3.97141874e-01 0. 0. 0.
      3.97141874e-01 3.97141874e-01 0. 0. 0. 3.97141874e-01 0. 0. 0.
      3.97141874e-01 3.24505836e-01 0. 0. 0. 3.24505836e-01 0. 0. 0.
      3.24505836e-01 3.24505836e-01 0. 0. 0. 3.24505836e-01 0. 0. 0.
      3.24505836e-01 2.41733998e-01 0. 0. 0. 3.24505836e-01 0. 0. 0.
      2.41733998e-01 1.67607442e-01 0. 0. 0. 2.94234812e-01 0. 0. 0.
      1.67607442e-01 3.98310035e-01 8.78066197e-02 6.10226132e-02
      2.32832089e-01 3.98310035e-01 2.64950972e-02 0. 6.42637489e-03
      3.98310035e-01 3.70815814e-01 3.14180702e-02 4.74620350e-02
      1.05832756e-01 3.98310035e-01 0. 0. 0. 3.29923272e-01
      1.10417962e-01 0. 0. 1.55221401e-02 8.90060216e-02 0.
      2.33010352e-02 1.10589033e-02 1.10417962e-01 2.16752645e-02 0. 0.
      7.05551822e-03 5.79061499e-03 0. 0. 0. 2.16752645e-02
      4.03692096e-01 0. 0. 0. 4.03692096e-01 0. 0. 0. 4.03692096e-01
      1.31025225e-01 0. 0. 0. 2.45300323e-01 0. 0. 0. 1.31025225e-01
      1.39011741e-02 0. 0. 0. 0. 0. 0. 0. 1.39011741e-02 3.52990150e-01
      0. 0. 0. 4.03692096e-01 0. 0. 0. 3.52990150e-01 0. 0. 0. 0. 0. 0.
      0. 0. 0. 0. 0. 0. 0. 0. 0. 0. 0. 0. 3.35476011e-01 0. 0. 0.
      4.24470246e-01 0. 0. 0. 3.35476011e-01 4.24470246e-01
      3.98599058e-02 1.70247436e-01 6.50354251e-02 4.24470246e-01
      5.48176542e-02 1.10290177e-01 0. 4.24470246e-01 0. 0. 0. 0. 0. 0.
      0. 0. 0. 0. 0. 0. 0. 0. 0. 0. 0. 0. 3.89583439e-01 1.44050360e-01
      3.89583439e-01 1.74533442e-01 3.89583439e-01 7.28792772e-02
      1.46629199e-01 0. 3.89583439e-01 2.52768904e-01 6.54774383e-02
      1.47633985e-01 5.84642179e-02 3.89583439e-01 4.85861860e-03
      9.77528095e-03 0. 2.56310642e-01 8.61116871e-02 0. 0. 0.
      2.05205083e-01 0. 0. 0. 8.61116871e-02 4.14757580e-01 0. 0. 0.
      4.14757580e-01 0. 0. 0. 4.14757580e-01 1.98491290e-01 0. 0. 0.
      2.59936750e-01 0. 0. 0. 1.98491290e-01 2.85409749e-01 0. 0. 0.
      3.36991757e-01 0. 0. 0. 2.85409749e-01 3.90877336e-01 0. 0. 0.
      3.90877336e-01 0. 0. 0. 3.90877336e-01 3.90877336e-01 0. 0. 0.
      3.90877336e-01 0. 0. 0. 3.90877336e-01 6.02536947e-02 0. 0. 0.
      5.57375588e-02 0. 0. 0. 6.02536947e-02 1.26954839e-01 0. 0. 0.
      1.91785425e-01 0. 0. 0. 1.26954839e-01 3.12636554e-01 0. 0. 0.
      3.12636554e-01 0. 0. 0. 3.12636554e-01 1.53703481e-01 0. 0. 0.
      2.78132975e-01 0. 0. 0. 1.53703481e-01 3.12636554e-01 0. 0. 0.
      3.12636554e-01 0. 0. 0. 3.12636554e-01 3.06657434e-01 0. 0. 0.
      3.12636554e-01 0. 0. 0. 3.06657434e-01 1.95805132e-01 0. 0. 0.
      3.26100796e-01 0. 4.19961400e-02 1.99317858e-02 1.95805132e-01
      1.82648793e-01 0. 0. 0. 3.26100796e-01 0. 0. 0. 1.82648793e-01
      3.26100796e-01 0. 0. 0. 3.26100796e-01 0. 1.90891549e-02
      9.05990321e-03 3.26100796e-01 3.26100796e-01 0. 0. 0.
      3.26100796e-01 0. 0. 0. 3.26100796e-01 2.44448602e-01 0. 0. 0.
      3.45661432e-01 0. 0. 0. 2.44448602e-01 1.73892796e-01 0. 0. 0.
      3.45661432e-01 0. 0. 0. 1.73892796e-01 3.45661432e-01 0. 0. 0.
      3.45661432e-01 0. 0. 0. 3.45661432e-01 2.23235056e-01 0. 0. 0.
      3.45661432e-01 0. 0. 0. 2.23235056e-01 2.50546128e-01 0. 0. 0.
      3.37639719e-01 0. 0. 0. 2.50546128e-01 3.37639719e-01
      6.92455769e-02 1.87611207e-01 6.85264990e-02 3.37639719e-01
      5.77602461e-02 1.16210528e-01 0. 3.37639719e-01 1.16770305e-01 0.
      0. 0. 2.19000548e-01 0. 0. 0. 1.16770305e-01 2.71966338e-01
      5.38576730e-02 9.20345560e-02 3.11484095e-02 3.37639719e-01
      2.62546577e-02 5.28229624e-02 0. 2.72998959e-01 2.84661263e-01
      1.90041319e-01 2.84661263e-01 1.39657766e-01 2.84661263e-01
      5.83163798e-02 1.17329426e-01 0. 2.84661263e-01 1.37164414e-01
      8.63824263e-02 1.28393874e-01 4.67817634e-02 2.74883777e-01
      3.88775859e-03 7.82196224e-03 0. 1.38883337e-01 2.84661263e-01
      1.47809908e-01 1.92519903e-01 6.34808093e-02 2.84661263e-01
      2.65074465e-02 5.33315577e-02 0. 2.84661263e-01 1.73447087e-01
      6.71863258e-02 6.67897463e-02 2.12644394e-02 2.84661263e-01
      1.76716316e-03 3.55543732e-03 0. 1.73843756e-01 2.94100255e-01 0.
      0. 0. 2.94100255e-01 0. 0. 0. 2.94100255e-01 2.94100255e-01 0. 0.
      0. 2.94100255e-01 0. 0. 0. 2.94100255e-01 2.57013172e-01 0. 0. 0.
      2.94100255e-01 0. 0. 0. 2.57013172e-01 2.94100255e-01 0. 0. 0.
      2.94100255e-01 0. 0. 0. 2.94100255e-01 1.41027465e-01 0. 0. 0.
      2.51117319e-01 0. 0. 0. 1.41027465e-01 1.84212789e-01 0. 0. 0.
      3.23775262e-01 0. 0. 0. 1.84212789e-01 3.46650690e-01 0. 0. 0.
      3.46650690e-01 0. 0. 0. 3.46650690e-01 3.46650690e-01 0. 0. 0.
      3.46650690e-01 0. 0. 0. 3.46650690e-01 2.95902848e-01 0. 0. 0.
      3.03374857e-01 0. 0. 0. 2.95902848e-01 2.52266735e-01 0. 0. 0.
      3.03374857e-01 0. 0. 0. 2.52266735e-01 3.03374857e-01 0. 0. 0.
      3.03374857e-01 0. 0. 0. 3.03374857e-01 2.66792864e-01 0. 0. 0.
      3.03374857e-01 0. 0. 0. 2.66792864e-01 3.70600075e-01 0. 0. 0.
      3.70600075e-01 0. 0. 0. 3.70600075e-01 3.70600075e-01 0. 0. 0.
      3.70600075e-01 0. 0. 0. 3.70600075e-01 4.26960923e-02 0. 0. 0.
      8.06620643e-02 0. 0. 0. 4.26960923e-02 1.75843418e-01 0. 0. 0.
      3.16601664e-01 0. 0. 0. 1.75843418e-01 3.90122741e-01 0. 0. 0.
      3.90122741e-01 0. 0. 0. 3.90122741e-01 3.90122741e-01 0. 0. 0.
      3.90122741e-01 0. 0. 0. 3.90122741e-01 1.09501824e-01 0. 0. 0.
      2.24766120e-01 0. 0. 0. 1.09501824e-01 5.34732491e-02 0. 0. 0.
      5.20403944e-02 0. 0. 0. 5.34732491e-02 3.59917104e-01 0. 0. 0.
      4.15193468e-01 0. 0. 0. 3.59917104e-01 4.15193468e-01 0. 0. 0.
      4.15193468e-01 0. 0. 0. 4.15193468e-01 4.88620363e-02 0. 0. 0.
      5.07613495e-02 0. 0. 0. 4.88620363e-02 9.34682041e-02 0. 0. 0.
      1.49682775e-01 0. 0. 0. 9.34682041e-02 3.77734274e-01 0. 0. 0.
      3.77734274e-01 0. 0. 0. 3.77734274e-01 3.77734274e-01 0. 0. 0.
      3.77734274e-01 0. 0. 0. 3.77734274e-01 1.28975630e-01 0. 0. 0.
      1.18804216e-01 0. 0. 0. 1.28975630e-01 1.76815838e-01 0. 0. 0.
      1.73826650e-01 0. 0. 0. 1.76815838e-01 1.44991174e-01 0. 0. 0.
      3.18096459e-01 2.83815060e-02 0. 0. 2.16924220e-01 2.89785832e-01
      0. 0. 0. 3.18096459e-01 1.22986533e-01 0. 0. 3.18096459e-01
      1.22964546e-01 0. 0. 0. 3.18096459e-01 3.64905074e-02 0. 0.
      2.81217247e-01 3.18096459e-01 0. 0. 0. 3.18096459e-01
      1.58125520e-01 0. 0. 3.18096459e-01 3.67809862e-01 0. 0. 0.
      3.67809862e-01 1.30046964e-01 0. 0. 3.67809862e-01 1.47804871e-01
      0. 0. 0. 3.11205119e-01 0. 0. 0. 1.47804871e-01 3.56982231e-01 0.
      0. 0. 3.67809862e-01 1.67203218e-01 0. 0. 3.67809862e-01
      1.80255454e-02 0. 0. 0. 8.00516456e-02 0. 0. 0. 1.80255454e-02
      3.93701762e-01 0. 0. 0. 3.93701762e-01 0. 0. 0. 3.93701762e-01
      3.93701762e-01 0. 0. 0. 3.93701762e-01 0. 0. 0. 3.93701762e-01
      9.01853442e-02 0. 0. 0. 1.55870214e-01 0. 0. 0. 9.01853442e-02
      7.01441616e-02 0. 0. 0. 1.25130102e-01 0. 0. 0. 7.01441616e-02
      1.68988004e-01 0. 0. 0. 3.73106003e-01 0. 0. 0. 1.68988004e-01
      4.46144640e-01 0. 0. 0. 4.46144640e-01 0. 0. 0. 4.46144640e-01
      4.51015197e-02 0. 0. 0. 8.61013979e-02 0. 0. 0. 4.51015197e-02
      1.95439935e-01 0. 0. 0. 3.37951243e-01 0. 0. 0. 1.95439935e-01
      5.21232545e-01 0. 0. 0. 5.21232545e-01 0. 0. 0. 5.21232545e-01 0.
      0. 0. 0. 0. 0. 0. 0. 0. 1.74418718e-01 0. 0. 0. 3.44819576e-01 0.
      0. 0. 1.74418718e-01 0. 0. 0. 0. 0. 0. 0. 0. 0. 4.30019274e-02 0.
      0. 0. 4.88151051e-02 0. 0. 0. 4.30019274e-02 9.46042389e-02 0. 0.
      0. 1.03588112e-01 0. 0. 0. 9.46042389e-02 3.34115505e-01 0. 0. 0.
      4.29456621e-01 0. 0. 0. 3.34115505e-01 4.29456621e-01 0. 0. 0.
      4.29456621e-01 0. 0. 0. 4.29456621e-01 2.39781123e-02 0. 0. 0.
      3.12582776e-02 0. 0. 0. 2.39781123e-02 1.61514238e-01 0. 0. 0.
      3.50920916e-01 0. 0. 0. 1.61514238e-01 2.81722486e-01 0. 0. 0.
      4.06128496e-01 0. 0. 0. 2.81722486e-01 4.06128496e-01 0. 0. 0.
      4.06128496e-01 0. 0. 0. 4.06128496e-01 1.73148617e-01
      2.29137242e-02 6.28986508e-02 0. 2.61597246e-01 2.75960984e-03 0.
      0. 1.92880377e-01 2.98194230e-01 3.45863029e-02 1.01164043e-01 0.
      2.98194230e-01 1.19583094e-02 0. 0. 2.98194230e-01 2.98194230e-01
      3.45863029e-02 1.01164043e-01 0. 2.98194230e-01 0. 0. 0.
      2.98194230e-01 2.98194230e-01 5.57448566e-02 1.74715683e-01 0.
      2.98194230e-01 0. 0. 0. 2.98194230e-01 3.95936102e-01
      3.30870859e-02 1.03208356e-01 0. 3.95936102e-01 2.52545457e-02 0.
      0. 3.95936102e-01 3.50974454e-03 0. 0. 0. 4.87582721e-02 0. 0. 0.
      3.50974454e-03 3.95936102e-01 5.69851734e-02 1.89886555e-01 0.
      3.95936102e-01 0. 0. 0. 3.95936102e-01 0. 0. 0. 0. 3.68984453e-02
      0. 0. 0. 0. 0. 0. 0. 0. 0. 0. 0. 0. 0. 0. 0. 0. 0. 0. 0. 0. 0. 0.
      0. 0. 0. 0. 0. 0. 0. 0. 0. 0. 0. 0. 0. 0. 0. 0. 0. 0. 0. 0. 0. 0.
      0. 0. 0. 0. 0. 0. 0. 0. 0. 0. 0. 0. 0. 0. 0. 0. 0. 0.
      8.23258311e-02 0. 0. 0. 0. 5.73728561e-01 0. 0. 0. 5.73728561e-01
      0. 0. 0. 5.73728561e-01 0. 0. 0. 0. 0. 0. 0. 0. 0. 0. 0. 0. 0. 0.
      0. 0. 0. 0. 5.55436432e-01 0. 0. 0. 5.55436432e-01 0. 0. 0.
      5.55436432e-01 7.17214346e-02 0. 0. 0. 2.42149919e-01 0. 0. 0.
      7.17214346e-02 2.97765195e-01 0. 0. 0. 4.17613745e-01 0. 0. 0.
      2.97765195e-01 4.17613745e-01 0. 0. 0. 4.17613745e-01 0. 0. 0.
      4.17613745e-01 1.35604227e-02 0. 0. 0. 0. 0. 0. 0. 1.35604227e-02
      2.98329312e-02 0. 0. 0. 3.44597310e-01 0. 0. 0. 2.98329312e-02
      1.43572628e-01 0. 0. 0. 3.00334394e-01 7.89257884e-03
      4.39265883e-03 1.33508798e-02 1.45790279e-01 3.32473725e-01 0. 0.
      0. 3.32473725e-01 1.01476004e-02 5.64770401e-03 2.93719321e-02
      3.32473725e-01 1.98142022e-01 0. 0. 0. 3.32473725e-01
      3.42011750e-02 1.90348551e-02 2.93719321e-02 2.03020856e-01
      3.32473725e-01 0. 0. 0. 3.32473725e-01 4.39729393e-02
      2.44733840e-02 6.46182597e-02 3.32473725e-01 3.52687091e-01
      1.02087241e-02 3.18440199e-02 0. 3.52687091e-01 2.28157477e-03
      1.26982317e-03 1.08880745e-02 3.52687091e-01 2.32982174e-01
      1.75822675e-02 5.85878044e-02 0. 3.13888222e-01 0. 0. 0.
      2.32982174e-01 3.52687091e-01 0. 0. 0. 3.52687091e-01
      9.88682453e-03 5.50256763e-03 2.39537656e-02 3.52687091e-01
      7.15255365e-02 0. 0. 0. 1.64745122e-01 0. 0. 0. 7.15255365e-02
      5.42566717e-01 9.07401443e-02 3.18496138e-01 0. 5.42566717e-01 0.
      0. 0. 5.42566717e-01 0. 0. 0. 0. 4.20978554e-02 0. 0. 0. 0. 0. 0.
      0. 0. 0. 0. 0. 0. 0. 0. 0. 0. 0. 0. 0. 0. 0. 0. 0. 0. 0. 0. 0. 0.
      0. 0. 0. 0. 0. 0. 0. 0. 0. 0. 0. 0. 0. 0. 0. 0. 0. 0. 0. 0. 0. 0.
      0. 0. 0. 0. 0. 0. 0. 0. 0. 0. 0. 0. 5.72364517e-02 0. 0. 0. 0.
      3.91189724e-01 0. 0. 0. 3.91189724e-01 0. 0. 0. 3.91189724e-01
      1.47134081e-01 0. 0. 0. 2.90947199e-01 0. 0. 0. 1.47134081e-01
      3.55493277e-01 0. 0. 0. 3.91189724e-01 0. 0. 0. 3.55493277e-01
      4.14464772e-01 0. 0. 0. 4.14464772e-01 0. 0. 0. 4.14464772e-01
      4.90778238e-02 0. 0. 0. 1.91923425e-01 0. 0. 0. 4.90778238e-02
      3.59391689e-01 0. 0. 0. 4.14464772e-01 0. 0. 0. 3.59391689e-01
      2.39594448e-02 0. 0. 0. 8.72379169e-02 0. 0. 0. 2.39594448e-02 0.
      0. 0. 0. 0. 0. 0. 0. 0. 0. 0. 0. 0. 9.95024860e-01 0. 0. 0. 0. 0.
      0. 0. 0. 0. 0. 0. 0. 0. 0. 0. 0. 0. 0. 0. 0. 0. 0. 2.74760753e-01
      0. 0. 0. 4.32826430e-01 7.83132240e-02 4.35856655e-02
      4.07924131e-02 2.81536609e-01 4.53142643e-01 0. 0. 0.
      4.53142643e-01 1.00688435e-01 5.60387075e-02 8.97433087e-02
      4.53142643e-01 0. 0. 0. 0. 0. 0. 0. 0. 0. 3.32351848e-02 0. 0. 0.
      6.42318949e-02 0. 0. 0. 3.32351848e-02 4.16265935e-01 0. 0. 0.
      4.16265935e-01 1.77762136e-02 9.89344902e-03 2.61221528e-02
      4.16265935e-01 1.39032260e-01 0. 0. 0. 2.49709606e-01 0. 0. 0.
      1.39032260e-01 1.94306955e-01 0. 0. 0. 3.92011255e-01 0. 0. 0.
      1.94306955e-01 1.51127636e-01 0. 0. 0. 3.14700305e-01 0. 0. 0.
      1.51127636e-01 0. 0. 0. 0. 0. 0. 0. 0. 0. 0. 0. 0. 0. 0. 0. 0. 0.
      0. 0. 0. 0. 0. 9.95024860e-01 0. 0. 0. 0. 0. 0. 0. 0. 0. 0. 0. 0.
      0. 0. 0. 0. 0. 0. 0. 0. 0. 0. 0. 0. 0. 0. 0. 0. 0. 0. 0. 0. 0. 0.
      0. 0. 0. 0. 0. 0. 4.05646920e-01 0. 0. 0. 8.11293840e-01 0. 0. 0.
      4.05646920e-01</_>
    <_>
      4.07416642e-01 0. 0. 0. 4.07416642e-01 0. 0. 0. 4.07416642e-01 0.
      0. 0. 0. 0. 0. 0. 0. 0. 4.07416642e-01 0. 0. 0. 4.07416642e-01 0.
      0. 0. 4.07416642e-01 0. 0. 0. 0. 0. 0. 0. 0. 0. 0. 0. 0. 0. 0. 0.
      0. 0. 0. 0. 0. 0. 0. 0. 0. 0. 0. 0. 0. 0. 0. 0. 0. 0. 0. 0. 0. 0.
      0. 0. 0. 0. 0. 0. 0. 0. 0. 0. 0. 0. 0. 0. 0. 0. 0. 0. 0. 0. 0. 0.
      0. 0. 0. 0. 0. 0. 0. 0. 0. 0. 0. 0. 0. 0. 0. 0. 0. 0. 0. 0. 0. 0.
      0. 0. 0. 0. 0. 0. 0. 0. 0. 0. 0. 0. 0. 0. 0. 0. 0. 0. 0. 0. 0. 0.
      0. 0. 0. 0. 0. 5.75688422e-01 0. 0. 0. 5.75688422e-01 0. 0. 0.
      5.75688422e-01 0. 0. 0. 0. 0. 0. 0. 0. 0. 0. 0. 0. 0. 0. 0. 0. 0.
      0. 4.07416642e-01 0. 0. 0. 4.07416642e-01 0. 0. 0. 4.07416642e-01
      4.07416642e-01 0. 0. 0. 4.07416642e-01 0. 0. 0. 4.07416642e-01 0.
      0. 0. 0. 0. 0. 0. 0. 0. 0. 0. 0. 0. 0. 0. 0. 0. 0. 4.64049727e-01
      0. 0. 0. 4.64049727e-01 0. 0. 0. 4.64049727e-01 2.58840114e-01 0.
      0. 0. 4.64049727e-01 0. 0. 0. 2.58840114e-01 0. 0. 0. 0. 0. 0. 0.
      0. 0. 0. 0. 0. 0. 0. 0. 0. 0. 0. 5.08094907e-01 0. 0. 0.
      5.08094907e-01 0. 0. 0. 5.08094907e-01 1.67717323e-01 0. 0. 0.
      4.05198872e-01 0. 0. 0. 1.67717323e-01 7.04615593e-01 0. 0. 0. 0.
      0. 0. 0. 7.04615593e-01 0. 0. 0. 0. 0. 0. 0. 0. 0. 0. 0. 0. 0. 0.
      0. 0. 0. 0. 0. 0. 0. 0. 0. 0. 0. 0. 0. 0. 0. 0. 0. 1.48260230e-02
      0. 0. 0. 0. 1.89023405e-01 0. 0. 0. 3.39292079e-01 0. 0. 0.
      1.89023405e-01 9.70720947e-02 0. 0. 0. 2.45816156e-01 0. 0. 0.
      9.70720947e-02 4.92952436e-01 0. 0. 0. 4.92952436e-01 0. 0. 0.
      4.92952436e-01 2.20494404e-01 0. 0. 0. 3.82171959e-01 0. 0. 0.
      2.20494404e-01 1.46996276e-02 0. 0. 0. 5.18833324e-02 0. 0. 0.
      1.46996276e-02 4.80133355e-01 0. 0. 0. 4.80133355e-01 0. 0. 0.
      4.80133355e-01 5.76965883e-02 0. 0. 0. 2.24827781e-01 0. 0. 0.
      5.76965883e-02 0. 0. 0. 0. 0. 0. 0. 0. 0. 4.57245439e-01 0. 0. 0.
      4.57245439e-01 0. 0. 0. 4.57245439e-01 0. 0. 0. 0. 0. 0. 0. 0. 0.
      2.82080799e-01 0. 0. 0. 4.57245439e-01 0. 0. 0. 2.82080799e-01
      3.54955286e-01 0. 0. 0. 3.54955286e-01 0. 0. 0. 3.54955286e-01
      3.43469977e-01 0. 0. 0. 3.54955286e-01 0. 0. 0. 3.43469977e-01
      1.95611715e-01 0. 0. 0. 3.52420241e-01 0. 0. 0. 1.95611715e-01
      1.00847602e-01 0. 0. 0. 1.88332364e-01 0. 0. 0. 1.00847602e-01
      3.22863132e-01 0. 0. 0. 3.34888518e-01 0. 0. 0. 3.22863132e-01
      3.34888518e-01 0. 0. 0. 3.34888518e-01 0. 0. 0. 3.34888518e-01
      8.61695558e-02 0. 0. 0. 1.77762881e-01 0. 0. 0. 8.61695558e-02
      3.00808161e-01 0. 0. 0. 3.34888518e-01 0. 0. 0. 3.00808161e-01
      3.67856711e-01 0. 0. 0. 3.67856711e-01 0. 0. 0. 3.67856711e-01
      1.24562748e-01 0. 0. 0. 2.88284272e-01 0. 0. 0. 1.24562748e-01
      3.67856711e-01 0. 0. 0. 3.67856711e-01 0. 0. 0. 3.67856711e-01
      9.99969617e-02 0. 0. 0. 2.24221110e-01 0. 0. 0. 9.99969617e-02 0.
      0. 0. 0. 0. 0. 0. 0. 0. 0. 0. 0. 0. 0. 0. 0. 0. 0. 0. 0. 0. 0. 0.
      0. 0. 0. 0. 0. 0. 0. 0. 0. 0. 0. 0. 0. 2.00140178e-01 0. 0. 0.
      4.48639154e-01 0. 0. 0. 2.00140178e-01 4.58271086e-01 0. 0. 0.
      4.58271086e-01 0. 0. 0. 4.58271086e-01 5.34157827e-02 0. 0. 0.
      9.59562212e-02 0. 0. 0. 5.34157827e-02 1.17514729e-01 0. 0. 0.
      2.03623906e-01 0. 0. 0. 1.17514729e-01 5.56998968e-01 0. 0. 0.
      5.56998968e-01 0. 0. 0. 5.56998968e-01 5.82561456e-02 0. 0. 0.
      1.98556215e-01 0. 0. 0. 5.82561456e-02 5.28636053e-02 0. 0. 0.
      1.09054618e-01 0. 0. 0. 5.28636053e-02 0. 0. 0. 0. 0. 0. 0. 0. 0.
      0. 0. 0. 0. 0. 0. 0. 0. 0. 0. 0. 0. 0. 0. 0. 0. 0. 0. 0. 0. 0. 0.
      0. 0. 0. 0. 0. 0. 0. 0. 0. 0. 0. 0. 0. 0. 0. 0. 0. 0. 0. 0. 0. 0.
      0. 0. 0. 0. 0. 0. 0. 0. 0. 0. 0. 0. 0. 0. 0. 0. 0. 0. 0. 0. 0. 0.
      0. 0. 0. 0. 0. 0. 0. 0. 0. 0. 0. 0. 0. 0. 0. 7.04256535e-01 0. 0.
      0. 0. 0. 0. 0. 7.04256535e-01 0. 0. 0. 0. 0. 0. 0. 0. 0. 0. 0. 0.
      0. 0. 0. 0. 0. 0. 6.77930534e-01 0. 0. 0. 0. 0. 0. 0.
      6.77930534e-01 1.92422271e-01 0. 0. 0. 0. 0. 0. 0. 1.92422271e-01
      0. 0. 0. 0. 0. 0. 0. 0. 0. 0. 0. 0. 0. 0. 0. 0. 0. 0.
      9.25811287e-03 0. 0. 0. 0. 0. 0. 0. 9.25811287e-03 4.01184857e-02
      0. 0. 0. 0. 0. 0. 0. 4.01184857e-02 2.11870968e-01 0. 0. 0.
      4.72142816e-01 0. 0. 0. 2.11870968e-01 4.75800991e-01 0. 0. 0.
      4.75800991e-01 0. 0. 0. 4.75800991e-01 4.40820009e-02 0. 0. 0. 0.
      0. 0. 0. 4.40820009e-02 0. 0. 0. 0. 0. 0. 0. 0. 0. 5.74565411e-01
      0. 0. 0. 5.74565411e-01 0. 0. 0. 5.74565411e-01 0. 0. 0. 0. 0. 0.
      0. 0. 0. 0. 0. 0. 0. 0. 0. 0. 0. 0. 0. 0. 0. 0. 0. 0. 0. 0. 0. 0.
      0. 0. 0. 0. 0. 0. 0. 0. 0. 0. 0. 0. 0. 0. 0. 0. 0. 0. 0. 0. 0. 0.
      0. 0. 0. 0. 0. 0. 0. 0. 0. 0. 0. 0. 0. 0. 0. 0. 0. 0. 0. 0. 0. 0.
      4.82926518e-01 0. 0. 0. 4.82926518e-01 3.21199745e-01
      1.64086655e-01 4.06729370e-01 4.82926518e-01 0. 0. 0. 0. 0. 0. 0.
      0. 0. 0. 0. 0. 0. 0. 0. 0. 0. 0. 3.28936666e-01 0. 0. 0.
      3.28936666e-01 3.28936666e-01 2.13430122e-01 3.20878625e-01
      3.28936666e-01 2.61943609e-01 0. 0. 0. 3.28936666e-01
      3.24947476e-01 1.66001186e-01 1.45853922e-01 2.90114284e-01 0. 0.
      0. 0. 0. 0. 0. 0. 0. 0. 0. 0. 0. 0. 0. 0. 0. 0. 0. 0. 0. 0.
      9.92468297e-01 0. 0. 0. 0. 0. 0. 0. 0. 0. 0. 0. 0. 0. 0. 0. 0. 0.
      0. 0. 0. 0. 0. 0. 0. 0. 0. 0. 0. 0. 0. 0. 0. 0. 0. 0. 0. 0. 0. 0.
      0. 0. 0. 0. 0. 0. 0. 0. 0. 0. 1.62197545e-01 0. 0. 0.
      3.45051199e-01 0. 0. 0. 1.62197545e-01 3.56985718e-01 0. 0. 0.
      3.56985718e-01 0. 0. 0. 3.56985718e-01 2.05823585e-01 0. 0. 0.
      3.56985718e-01 0. 0. 0. 2.05823585e-01 2.26755723e-01 0. 0. 0.
      3.56985718e-01 0. 0. 0. 2.26755723e-01 5.45113504e-01 0. 0. 0.
      5.45113504e-01 0. 0. 0. 5.45113504e-01 0. 0. 0. 0. 0. 0. 0. 0. 0.
      1.25364617e-01 0. 0. 0. 2.67726719e-01 0. 0. 0. 1.25364617e-01 0.
      0. 0. 0. 0. 0. 0. 0. 0. 0. 0. 0. 0. 0. 0. 0. 0. 0. 0. 0. 0. 0. 0.
      0. 0. 0. 0. 0. 0. 0. 0. 0. 0. 0. 0. 0. 0. 0. 0. 0. 0. 0. 0. 0. 0.
      0. 0. 0. 0. 0. 0. 0. 0. 0. 3.61776590e-01 0. 0. 0. 3.61776590e-01
      2.36033738e-01 1.20579116e-01 3.61776590e-01 3.61776590e-01 0. 0.
      0. 0. 0. 0. 0. 0. 0. 2.11568475e-01 0. 0. 0. 3.61776590e-01
      1.07288063e-01 5.48086949e-02 3.61776590e-01 2.85594851e-01
      2.70454735e-01 0. 0. 0. 2.70454735e-01 2.70454735e-01
      1.43925145e-01 2.70454735e-01 2.70454735e-01 1.79197967e-01 0. 0.
      0. 2.70454735e-01 2.19126135e-01 1.11941785e-01 1.62160963e-01
      2.10518271e-01 1.88126042e-01 0. 0. 0. 2.70454735e-01
      1.28060728e-01 6.54205233e-02 2.70454735e-01 2.41718531e-01
      1.14229545e-01 0. 0. 0. 2.30156824e-01 9.96027887e-02
      5.08826338e-02 1.26125202e-01 1.38589785e-01 0. 0. 0. 0.
      7.04615593e-01 0. 0. 0. 0. 0. 0. 0. 0. 0. 0. 0. 0. 0. 0. 0. 0. 0.
      7.04615593e-01 0. 0. 0. 0. 0. 0. 0. 0. 0. 0. 0. 0. 0. 0. 0. 0. 0.
      0. 0. 0. 0. 0. 0. 0. 0. 0. 0. 0. 0. 0. 0. 0. 0. 0. 0. 0. 0. 0. 0.
      0. 0. 0. 0. 0. 0. 0. 0. 0. 0. 4.06920433e-01 0. 0. 0.
      4.06920433e-01 0. 0. 0. 4.06920433e-01 4.06920433e-01 0. 0. 0.
      4.06920433e-01 0. 0. 0. 4.06920433e-01 2.75107902e-02 0. 0. 0. 0.
      0. 0. 0. 2.75107902e-02 2.13972777e-02 0. 0. 0. 0. 0. 0. 0.
      2.13972777e-02 0. 0. 0. 0. 9.95024860e-01 0. 0. 0. 0. 0. 0. 0. 0.
      0. 0. 0. 0. 0. 0. 0. 0. 0. 0. 0. 0. 0. 0. 0. 0. 0. 0. 0. 0. 0. 0.
      0. 0. 0. 0. 0. 0. 0. 0. 0. 0. 0. 0. 0. 0. 0. 0. 0. 0. 0. 0. 0. 0.
      0. 0. 0. 0. 0. 0. 0. 0. 0. 0. 0. 0. 0. 0. 0. 0. 0. 0. 0. 0. 0. 0.
      0. 0. 7.02369332e-01 0. 0. 0. 0. 0. 0. 0. 7.02369332e-01 0. 0. 0.
      0. 0. 0. 0. 0. 0. 0. 0. 0. 0. 0. 0. 0. 0. 0. 5.25634408e-01 0. 0.
      0. 0. 0. 0. 0. 5.25634408e-01 4.70195442e-01 0. 0. 0. 0. 0. 0. 0.
      4.70195442e-01 0. 0. 0. 0. 0. 0. 0. 0. 0. 0. 0. 0. 0. 0. 0. 0. 0.
      0. 0. 0. 0. 0. 0. 0. 0. 0. 0. 0. 0. 0. 0. 0. 0. 0. 0. 0. 0. 0. 0.
      0. 0. 0. 0. 0. 0. 0. 0. 0. 0. 0. 0. 0. 0. 0. 0. 0. 0. 0. 0. 0. 0.
      0. 0. 0. 0. 0. 0. 0. 0. 0. 0. 0. 0. 0. 0. 0. 0. 0. 0. 0. 0. 0. 0.
      0. 0. 0. 0. 0. 0. 0. 0. 0. 0. 0. 0. 0. 0. 0. 0. 0. 0. 0. 0. 0. 0.
      0. 0. 0. 0. 0. 0. 0. 0. 0. 0. 0. 0. 0. 0. 0. 0. 0. 0. 0. 0. 0. 0.
      0. 0. 0. 0. 0. 0. 0. 0. 0. 0. 0. 0. 0. 0. 0. 0. 0. 0. 0. 0. 0. 0.
      0. 0. 0. 0. 0. 0. 0. 0. 0. 0. 0. 0. 0. 0. 0. 0. 0. 0. 0. 0. 0. 0.
      0. 0. 0. 0. 0. 0. 0. 0. 0. 0. 0. 0. 0. 0. 0. 0. 0. 0. 0. 0. 0. 0.
      0. 0. 0. 0. 0. 0. 0. 0. 0. 0. 0. 0. 0. 0. 0. 0. 0. 0. 0. 0. 0. 0.
      0. 0. 0. 0. 0. 0. 0. 0. 0. 0. 0. 0. 0. 0. 0. 0. 0. 0. 0. 0. 0. 0.
      0. 0. 0. 0. 0. 0. 0. 0. 0. 0. 0. 0. 0. 0. 0. 0. 0. 0. 0. 0. 0. 0.
      0. 0. 0. 0. 0. 0. 0. 0. 0. 0. 0. 0. 0. 0. 0. 0. 0. 0. 0. 0. 0. 0.
      0. 0. 0. 0. 0. 0. 0. 0. 0. 0. 0. 0. 0. 0. 0. 0. 0. 0. 0. 0. 0. 0.
      0. 0. 0. 0. 0. 0. 0. 0. 0. 0. 0. 0. 0. 0. 0. 0. 0. 0. 0. 0. 0. 0.
      0. 0. 0. 0. 0. 0. 0. 0. 0. 0. 0. 0. 0. 0. 0. 0. 0.</_>
    <_>
      0. 0. 0. 0. 0. 0. 0. 0. 0. 0. 0. 0. 0. 0. 0. 0. 0. 0. 0. 0. 0. 0.
      0. 0. 0. 0. 0. 0. 0. 0. 0. 0. 0. 0. 0. 0. 0. 0. 0. 0. 0. 0. 0. 0.
      0. 0. 0. 0. 0. 0. 0. 0. 0. 0. 0. 0. 0. 0. 0. 0. 0. 0. 0. 0. 0. 0.
      0. 0. 0. 0. 0. 0. 0. 0. 0. 0. 0. 0. 0. 0. 0. 0. 0. 0. 0. 0. 0. 0.
      0. 0. 0. 0. 0. 0. 0. 0. 0. 0. 0. 0. 0. 0. 0. 0. 0. 0. 0. 0. 0. 0.
      0. 0. 0. 0. 0. 0. 0. 0. 0. 0. 0. 0. 0. 0. 0. 0. 0. 0. 0. 0. 0. 0.
      0. 0. 0. 0. 0. 0. 0. 0. 0. 0. 0. 0. 0. 0. 0. 0. 0. 0. 0. 0. 0. 0.
      0. 0. 0. 0. 0. 0. 0. 0. 0. 0. 0. 0. 0. 0. 0. 0. 0. 0. 0. 0. 0. 0.
      0. 0. 0. 0. 0. 0. 0. 0. 0. 0. 0. 0. 0. 0. 0. 0. 0. 0. 0. 0. 0. 0.
      0. 0. 0. 0. 0. 0. 0. 0. 0. 0. 0. 0. 0. 0. 0. 0. 0. 0. 0. 0. 0. 0.
      0. 0. 0. 0. 0. 0. 0. 0. 0. 0. 0. 0. 0. 0. 0. 0. 0. 0. 0. 0. 0. 0.
      0. 0. 0. 0. 0. 0. 0. 0. 0. 0. 0. 0. 0. 0. 0. 0. 0. 0. 0. 0. 0. 0.
      0. 0. 0. 0. 0. 0. 0. 0. 0. 0. 0. 0. 0. 0. 0. 0. 0. 0. 0. 0. 0. 0.
      0. 0. 0. 0. 0. 0. 0. 0. 0. 0. 0. 0. 0. 0. 0. 0. 0. 0. 0. 0. 0. 0.
      0. 0. 0. 0. 0. 0. 0. 0. 0. 0. 0. 0. 0. 0. 0. 0. 0. 0. 0. 0. 0. 0.
      0. 0. 0. 0. 0. 0. 0. 0. 0. 0. 0. 0. 0. 0. 0. 0. 0. 0. 0. 0. 0. 0.
      0. 0. 0. 0. 0. 0. 0. 0. 0. 0. 0. 0. 0. 0. 0. 0. 0. 0. 0. 0. 0. 0.
      0. 0. 0. 0. 0. 0. 0. 0. 0. 0. 0. 0. 0. 0. 0. 0. 0. 0. 0. 0. 0. 0.
      0. 0. 0. 0. 0. 0. 0. 0. 0. 0. 0. 0. 0. 0. 0. 0. 0. 0. 0. 0. 0. 0.
      0. 0. 0. 0. 0. 0. 0. 0. 0. 0. 0. 0. 0. 0. 0. 0. 0. 0. 0. 0. 0. 0.
      0. 0. 0. 0. 0. 0. 0. 0. 0. 0. 0. 0. 0. 0. 0. 0. 0. 0. 0. 0. 0. 0.
      0. 0. 0. 0. 0. 0. 0. 0. 0. 0. 0. 0. 0. 0. 0. 0. 0. 0. 0. 0. 0. 0.
      0. 0. 0. 0. 0. 0. 0. 0. 0. 0. 0. 0. 0. 0. 0. 0. 0. 0. 0. 0. 0. 0.
      0. 0. 0. 0. 0. 0. 0. 0. 0. 0. 0. 0. 0. 0. 0. 0. 0. 0. 0. 0. 0. 0.
      0. 0. 0. 0. 0. 0. 0. 0. 0. 0. 0. 0. 0. 0. 0. 0. 0. 0. 0. 0. 0. 0.
      0. 0. 0. 0. 0. 0. 0. 0. 0. 0. 0. 0. 0. 0. 0. 0. 0. 0. 0. 0. 0. 0.
      0. 0. 0. 0. 0. 0. 0. 0. 0. 0. 0. 0. 0. 0. 0. 0. 0. 0. 0. 0. 0. 0.
      0. 0. 0. 0. 0. 0. 0. 0. 0. 0. 0. 0. 0. 0. 0. 0. 0. 0. 0. 0. 0. 0.
      0. 0. 0. 0. 0. 0. 0. 0. 0. 0. 0. 0. 0. 0. 0. 0. 0. 0. 0. 0. 0. 0.
      0. 0. 0. 0. 0. 0. 0. 0. 0. 0. 0. 0. 0. 0. 0. 0. 0. 0. 0. 0. 0. 0.
      0. 0. 0. 0. 0. 0. 0. 0. 0. 0. 0. 0. 0. 0. 0. 0. 0. 0. 0. 0. 0. 0.
      0. 0. 0. 0. 0. 0. 0. 0. 0. 0. 0. 0. 0. 0. 0. 0. 0. 0. 0. 0. 0. 0.
      0. 0. 0. 0. 0. 0. 0. 0. 0. 0. 0. 0. 0. 0. 0. 0. 0. 0. 0. 0. 0. 0.
      0. 0. 0. 0. 0. 0. 0. 0. 0. 0. 0. 0. 0. 0. 0. 0. 0. 0. 0. 0. 0. 0.
      0. 0. 0. 0. 0. 0. 0. 0. 0. 0. 0. 0. 0. 0. 0. 0. 0. 0. 0. 0. 0. 0.
      0. 0. 0. 0. 0. 0. 0. 0. 0. 0. 0. 0. 0. 0. 0. 0. 0. 0. 0. 0. 0. 0.
      0. 0. 0. 0. 0. 0. 0. 0. 0. 0. 0. 0. 0. 0. 0. 0. 0. 0. 0. 0. 0. 0.
      0. 0. 0. 0. 0. 7.04615593e-01 0. 0. 0. 0. 0. 0. 0. 7.04615593e-01
      0. 0. 0. 0. 0. 0. 0. 0. 0. 0. 0. 0. 0. 0. 0. 0. 0. 0.
      3.96967620e-01 0. 0. 0. 0. 0. 0. 0. 3.96967620e-01 4.74634856e-01
      2.51420707e-01 4.07828212e-01 0. 0. 0. 0. 0. 4.74634856e-01 0. 0.
      0. 0. 0. 0. 0. 0. 0. 1.50503898e-02 1.92861678e-03 1.24681620e-02
      0. 8.55602697e-03 0. 0. 0. 1.50503898e-02 1.98351309e-01
      2.93494940e-01 3.13318282e-01 0. 1.72757171e-02 3.57985799e-03 0.
      0. 1.45860121e-01 3.69577020e-01 3.69577020e-01 3.69577020e-01
      7.27321999e-03 3.69577020e-01 1.36676416e-01 2.20716357e-01 0.
      3.69577020e-01 4.26270552e-02 3.31311277e-03 2.14186814e-02 0.
      2.52968911e-02 1.23727219e-02 1.82755187e-03 0. 4.26270552e-02
      3.31543721e-02 1.50596024e-03 9.73576400e-03 0. 2.03079358e-02
      1.59077849e-02 2.34970939e-03 0. 3.31543721e-02 3.01394463e-01
      3.01394463e-01 3.01394463e-01 4.59644990e-03 3.01394463e-01
      3.01394463e-01 1.66899189e-01 6.46979897e-04 3.01394463e-01
      3.01394463e-01 1.67229146e-01 1.51330113e-01 3.06430011e-04
      3.01394463e-01 3.01394463e-01 4.45447043e-02 2.80357967e-03
      3.01394463e-01 0. 0. 0. 0. 2.88149994e-02 3.36379260e-02
      4.96859569e-03 0. 0. 0. 0. 0. 0. 0. 0. 0. 0. 0. 4.96773928e-01 0.
      0. 0. 4.96773928e-01 4.96773928e-01 7.45289326e-02 1.61148719e-02
      4.96773928e-01 0. 0. 0. 0. 1.00231618e-02 0. 0. 0. 0. 0. 0. 0. 0.
      0. 0. 0. 0. 0. 0. 0. 0. 0. 0. 0. 0. 0. 0. 0. 0. 0. 0. 0. 0. 0. 0.
      0. 0. 0. 0. 0. 0. 0. 0. 0. 0. 0. 0. 0. 0. 0. 0. 0. 0. 0. 0. 0. 0.
      0. 0. 0. 0. 0. 0. 0. 0. 0. 0. 0. 0. 0. 0. 0. 0. 0. 0. 0. 0. 0. 0.
      0. 0. 1.14209088e-03 9.95193725e-04 6.04315149e-03 5.00490598e-04
      8.46283697e-03 0. 0. 0. 1.14209088e-03 1.41680896e-01
      7.58830607e-02 9.75722671e-02 8.62646010e-03 1.63803324e-01 0.
      5.46185784e-02 4.12996151e-02 1.44645378e-01 2.51259981e-03
      4.31250595e-03 3.77511904e-02 7.74818426e-03 1.81612208e-01 0.
      2.21586842e-02 1.14747020e-03 2.51259981e-03 2.92463958e-01
      3.57850939e-01 3.57850939e-01 1.70702830e-01 3.57850939e-01
      5.01371287e-02 3.57850939e-01 3.40554088e-01 3.57850939e-01
      9.63410959e-02 3.00025754e-02 2.97727529e-02 5.32285217e-03
      1.10728301e-01 0. 3.88286747e-02 2.57881843e-02 8.07079226e-02
      2.45525151e-01 1.13627024e-01 1.33007735e-01 1.38384858e-02
      8.56834874e-02 0. 2.36046370e-02 1.35201719e-02 1.68677330e-01
      2.30310127e-01 1.77314907e-01 2.25654408e-01 7.78689608e-02
      2.77271062e-01 1.86581016e-02 2.77271062e-01 2.05017596e-01
      2.63978183e-01 2.77271062e-01 2.77271062e-01 2.77271062e-01
      1.29410446e-01 2.70901114e-01 6.03890326e-03 1.44439131e-01
      1.08327508e-01 2.77271062e-01 1.90183580e-01 1.77572593e-01
      2.00430870e-01 6.92712655e-03 2.55839769e-02 1.99463870e-03
      1.11936149e-03 3.74070922e-04 1.37782469e-01 2.57029474e-01
      2.57029474e-01 2.57029474e-01 7.02367770e-03 1.95737168e-01
      3.34791355e-02 4.52416502e-02 0. 1.48623899e-01 2.57029474e-01
      2.57029474e-01 2.57029474e-01 3.60351950e-02 1.08499214e-01
      1.55138550e-03 4.85056685e-03 1.62097404e-03 2.57029474e-01
      2.57029474e-01 2.57029474e-01 2.57029474e-01 1.06362319e-02
      2.57029474e-01 1.24539863e-02 1.04403812e-02 0. 2.57029474e-01
      2.73731411e-01 1.95715919e-01 2.73731411e-01 5.21782367e-03
      2.73731411e-01 1.08857185e-01 8.05483088e-02 5.74444421e-04
      2.70223916e-01 1.66712761e-01 5.17196804e-02 3.36320363e-02
      2.72074918e-04 2.73731411e-01 1.07689880e-01 1.19904839e-02
      2.48925923e-03 2.38228157e-01 2.73731411e-01 9.49278623e-02
      1.91105291e-01 3.77441314e-03 2.73731411e-01 2.17005294e-02
      1.73347760e-02 2.61111098e-04 2.73731411e-01 2.15803027e-01
      3.14962724e-03 2.13643094e-03 1.23670412e-04 2.73731411e-01
      2.33744737e-02 1.15565176e-03 1.13148137e-03 2.73113102e-01
      2.83548176e-01 0. 0. 0. 4.00785029e-01 3.21383417e-01
      9.63235367e-03 9.33417957e-03 4.00785029e-01 0. 0. 0. 0.
      5.80569170e-03 0. 0. 0. 0. 4.00785029e-01 0. 0. 0. 4.00785029e-01
      9.44851562e-02 0. 4.24280856e-03 4.00785029e-01 0. 0. 0. 0.
      2.63895071e-03 0. 0. 0. 0. 0. 0. 0. 0. 0. 0. 0. 0. 0. 0. 0. 0. 0.
      0. 0. 0. 0. 0. 0. 0. 0. 0. 0. 0. 0. 0. 0. 0. 0. 0. 0. 0. 0. 0. 0.
      0. 0. 0. 0. 0. 0. 0. 0. 0. 0. 0. 0. 0. 0. 0. 0. 0. 0. 0. 0. 0. 0.
      0. 0. 0. 0. 0. 0. 0. 0. 0. 0. 0. 0. 0. 0. 0. 5.31990256e-04
      1.50541868e-03 1.68609414e-02 4.54929750e-03 1.58023953e-01 0.
      4.19220775e-02 2.86113657e-03 5.31990256e-04 1.69395044e-01
      1.62410408e-01 3.10741574e-01 1.13668285e-01 3.81864756e-01
      8.97498876e-02 3.81864756e-01 3.73029828e-01 3.47850859e-01 0. 0.
      0. 1.52346220e-05 1.60630383e-02 0. 1.38006136e-02 1.26649311e-03
      0. 1.22220635e-01 6.70480961e-03 3.40180681e-03 2.61302106e-03
      9.22703147e-02 2.71446481e-02 3.81864756e-01 1.61719859e-01
      2.19233796e-01 2.17613637e-01 1.28346771e-01 1.66390300e-01
      5.46841361e-02 2.30717257e-01 3.92733254e-02 2.74034441e-01
      1.65916875e-01 2.74034441e-01 2.74034441e-01 2.74034441e-01
      2.74034441e-01 8.56454149e-02 2.66548455e-01 1.51839126e-02
      8.57094824e-02 6.59415796e-02 2.74034441e-01 1.49702117e-01
      1.53648565e-02 1.74445976e-02 4.26088553e-03 5.00260070e-02
      1.43039683e-02 1.42273247e-01 5.11032343e-02 2.42077678e-01
      2.74034441e-01 4.17946801e-02 8.09009001e-02 9.96119529e-03
      1.16102912e-01 6.60652248e-03 1.59798283e-02 9.34524089e-03
      2.74034441e-01 2.86963195e-01 2.86963195e-01 2.86963195e-01
      5.44069260e-02 2.86963195e-01 0. 3.29783303e-03 1.10207777e-03
      2.86963195e-01 2.86963195e-01 1.79698005e-01 2.86963195e-01
      1.49549590e-02 2.86963195e-01 0. 0. 0. 2.86963195e-01
      2.48652399e-01 7.45319501e-02 1.25432178e-01 1.28239840e-02
      1.71251386e-01 0. 0. 0. 2.39495099e-01 1.03839099e-01
      5.40710837e-02 7.12123215e-02 4.66418546e-03 1.50108799e-01 0. 0.
      0. 9.60050449e-02 3.11077446e-01 5.86732440e-02 1.08121976e-01
      2.61035073e-03 3.11077446e-01 0. 0. 0. 3.11077446e-01
      3.11077446e-01 0. 0. 0. 3.11077446e-01 0. 0. 0. 3.11077446e-01
      1.26609161e-01 1.72717869e-02 2.12834608e-02 4.77329449e-04
      2.79317170e-01 0. 0. 0. 1.26609161e-01 3.11077446e-01 0. 0. 0.
      3.11077446e-01 0. 0. 0. 3.11077446e-01 4.03759450e-01 0. 0. 0.
      4.03759450e-01 0. 0. 0. 4.03759450e-01 3.21021490e-03 0. 0. 0.
      1.13306725e-02 0. 0. 0. 3.21021490e-03 4.03759450e-01 0. 0. 0.
      4.03759450e-01 0. 0. 0. 4.03759450e-01 2.90337130e-02 0. 0. 0.
      1.26497537e-01 0. 0. 0. 2.90337130e-02 0. 0. 0. 0. 0. 0. 0. 0. 0.
      0. 0. 0. 0. 0. 0. 0. 0. 0. 0. 0. 0. 0. 0. 0. 0. 0. 0. 0. 0. 0. 0.
      0. 0. 0. 0. 0. 0. 0. 0. 0. 0. 0. 0. 0. 0. 0. 0. 0. 0. 0. 0. 0. 0.
      0. 0. 0. 0. 0. 0. 0. 0. 0. 0. 0. 0. 0. 0. 0. 0. 0. 0. 0. 0. 0. 0.
      0. 0. 0. 0. 0. 0. 7.04615593e-01 0. 0. 0. 0. 0. 0. 0.
      7.04615593e-01 0. 0. 0. 0. 0. 0. 0. 0. 0. 0. 0. 0. 0. 0. 0. 0. 0.
      0. 4.98753130e-01 0. 0. 0. 0. 0. 0. 0. 4.98753130e-01
      4.98753130e-01 0. 0. 0. 0. 0. 0. 0. 4.98753130e-01 0. 0. 0. 0. 0.
      0. 0. 0. 0. 0. 0. 0. 0. 0. 0. 0. 0. 0. 4.94343132e-01 0. 0. 0. 0.
      0. 0. 0. 4.94343132e-01 3.88127565e-01 0. 0. 0. 4.52798516e-01 0.
      0. 0. 3.88127565e-01 0. 0. 0. 0. 0. 0. 0. 0. 0. 0. 0. 0. 0. 0. 0.
      0. 0. 0. 1.35823354e-01 0. 0. 0. 3.29896957e-01 0. 0. 0.
      1.35823354e-01 4.61746752e-01 0. 0. 0. 4.61746752e-01 0. 0. 0.
      4.61746752e-01 8.55550077e-03 0. 0. 0. 3.31136063e-02 0. 0. 0.
      8.55550077e-03 2.08952114e-01 0. 0. 0. 3.48518074e-01 0. 0. 0.
      2.08952114e-01 4.83258247e-01 0. 0. 0. 4.83258247e-01 0. 0. 0.
      4.83258247e-01 3.56567651e-02 0. 0. 0. 1.74930036e-01 0. 0. 0.
      3.56567651e-02 2.30492786e-01 0. 0. 0. 3.92157614e-01 0. 0. 0.
      2.30492786e-01 7.81798270e-03 0. 0. 0. 3.53628919e-02 0. 0. 0.
      7.81798270e-03 0. 0. 0. 0. 0. 0. 0. 0. 0. 0. 0. 0. 0. 0. 0. 0. 0.
      0. 0. 0. 0. 0. 0. 0. 0. 0. 0. 0. 0. 0. 0. 0. 0. 0. 0. 0.</_>
    <_>
      0. 0. 0. 0. 0. 0. 0. 0. 0. 2.12931395e-01 8.71123001e-02
      3.12246680e-01 0. 4.26536709e-01 0. 3.39884922e-04 9.42115765e-03
      2.12931395e-01 0. 0. 0. 0. 0. 0. 0. 0. 0. 4.26536709e-01
      5.41545562e-02 1.69809252e-01 0. 4.26536709e-01 9.12106335e-02
      1.09963879e-01 1.41317353e-01 4.26536709e-01 1.97254166e-01
      8.81966054e-02 2.79153287e-01 0. 2.94026852e-01 3.12061771e-03
      3.07028443e-02 2.56501716e-02 1.97254166e-01 1.49709851e-01
      5.82868084e-02 1.61736295e-01 0. 2.94026852e-01 4.01222240e-03
      4.89507467e-02 4.39630747e-02 1.49709851e-01 2.94026852e-01
      5.82868084e-02 1.61736295e-01 0. 2.94026852e-01 5.54655418e-02
      1.61406755e-01 1.47857308e-01 2.94026852e-01 2.12067515e-01
      4.15043719e-02 1.09010547e-01 0. 2.94026852e-01 2.70654187e-02
      1.74756274e-01 1.38276458e-01 2.12067515e-01 3.26692276e-02
      8.58434197e-03 2.79769860e-02 0. 7.42487311e-02 6.33259362e-04
      1.51203955e-02 1.09623317e-02 3.01278494e-02 1.39699101e-01
      1.88855529e-02 6.15493730e-02 0. 1.24855064e-01 0. 7.53829926e-02
      5.50557813e-03 1.28686458e-01 2.10679054e-01 4.16770168e-02
      1.65083915e-01 0. 3.51487279e-01 6.90802885e-03 5.32573164e-02
      2.49001440e-02 1.72558352e-01 3.62355113e-01 1.33702129e-01
      3.62355113e-01 0. 3.62355113e-01 6.24585785e-02 3.60194325e-01
      1.38716489e-01 3.62355113e-01 6.71534836e-02 3.11668776e-03
      1.01575088e-02 0. 8.01292881e-02 0. 3.38167176e-02 2.46979552e-03
      6.41570762e-02 5.25228269e-02 4.15728614e-02 2.14026943e-01
      1.64055768e-02 1.41813025e-01 0. 0. 0. 3.53991687e-02
      3.08109313e-01 1.13088138e-01 2.11908042e-01 1.10941194e-02
      3.08109313e-01 4.05597761e-02 3.08109313e-01 2.28711441e-01
      3.08109313e-01 2.57531583e-01 2.05194101e-01 3.08109313e-01
      7.37817809e-02 3.08109313e-01 2.75900513e-02 2.07021251e-01
      1.35976464e-01 2.26596609e-01 1.21981092e-01 7.16568828e-02
      1.80341706e-01 5.12847304e-02 1.17902957e-01 1.24166869e-02
      4.41604108e-03 2.50610653e-02 9.03000608e-02 2.50378937e-01
      1.02687098e-01 2.10640579e-01 1.42677680e-01 2.40991682e-01
      9.32680964e-02 1.75096020e-01 1.40356928e-01 2.28276730e-01
      2.25341767e-01 1.79945931e-01 2.50378937e-01 1.18218713e-01
      2.50378937e-01 1.33218979e-02 9.18175187e-03 2.05144715e-02
      1.40404910e-01 2.50378937e-01 2.50378937e-01 2.50378937e-01
      1.87550232e-01 2.50378937e-01 4.70682010e-02 8.63991082e-02
      1.05138138e-01 2.50378937e-01 1.90030932e-01 6.85837269e-02
      1.26825288e-01 4.58901003e-02 2.12153211e-01 7.12119043e-02
      1.68723866e-01 9.04375091e-02 1.75636798e-01 2.09157780e-01
      1.07846856e-01 1.66110799e-01 2.37847194e-02 2.37032175e-01
      5.77926226e-02 2.09067538e-01 1.21286057e-01 1.89468890e-01
      2.37032175e-01 1.14712305e-01 1.73844352e-01 5.88652864e-02
      2.37032175e-01 4.91417758e-02 1.44714490e-01 1.11510329e-01
      2.37032175e-01 2.37032175e-01 1.22664705e-01 2.37032175e-01
      5.74546345e-02 2.37032175e-01 8.21719766e-02 2.37032175e-01
      1.62663892e-01 2.37032175e-01 1.66751549e-01 7.71200210e-02
      1.32218748e-01 1.39676901e-02 2.45078281e-01 3.93188260e-02
      2.69809753e-01 1.40024066e-01 1.35691181e-01 7.88184777e-02
      1.93468444e-02 4.77643944e-02 5.13326610e-03 1.02804109e-01
      1.25143426e-02 1.62804812e-01 4.33583334e-02 6.85048848e-02
      1.79994941e-01 1.34223729e-01 2.69809753e-01 3.92110236e-02
      2.69809753e-01 1.05793305e-01 2.69809753e-01 2.25430325e-01
      1.72733843e-01 1.73866585e-01 6.51092678e-02 2.26396561e-01
      7.48026296e-02 2.69809753e-01 1.42541304e-01 2.69809753e-01
      2.21269771e-01 2.28835627e-01 0. 0. 0. 0. 0. 0. 0. 0. 0.
      4.24400330e-01 0. 0. 0. 4.24400330e-01 1.59217715e-01
      1.88451767e-01 1.49621576e-01 4.24400330e-01 0. 0. 0. 0. 0. 0. 0.
      0. 0. 2.72355914e-01 4.74977903e-02 3.38144541e-01 3.87217477e-03
      3.24964553e-01 1.06145153e-02 1.22035937e-02 5.10674436e-03
      2.74740696e-01 2.30987206e-01 0. 0. 0. 2.80135870e-01
      6.13179617e-02 1.14235863e-01 9.68033597e-02 2.30987206e-01
      1.55084476e-01 2.83677280e-02 1.02499261e-01 1.60506519e-03
      2.80135870e-01 2.15249099e-02 1.12250209e-01 7.16643706e-02
      1.58932701e-01 2.09145337e-01 2.69612167e-02 1.53476104e-01
      2.17913538e-02 1.47952810e-01 5.13103977e-03 1.34900078e-01
      7.09260106e-02 2.11377159e-01 2.80135870e-01 1.19931564e-01
      2.70180732e-01 1.29799291e-01 2.80135870e-01 4.56450321e-02
      2.80135870e-01 2.23592132e-01 2.80135870e-01 1.11438751e-01
      3.28338817e-02 1.40658870e-01 2.06924975e-02 2.11092502e-01
      1.11188618e-02 2.91735902e-02 5.37338806e-03 9.97720286e-02
      2.68978685e-01 9.65262800e-02 2.33765364e-01 2.60279700e-02
      2.68978685e-01 6.79991096e-02 9.01132748e-02 9.34995562e-02
      2.68978685e-01 2.13187575e-01 7.59955794e-02 2.39442945e-01
      8.43490511e-02 2.68978685e-01 5.02336882e-02 2.16080979e-01
      6.66221902e-02 1.87203616e-01 2.68978685e-01 1.02317825e-01
      2.68978685e-01 5.82242459e-02 2.68978685e-01 6.88324049e-02
      1.25994354e-01 6.57181144e-02 2.68978685e-01 1.67485118e-01
      9.15881246e-02 1.39087752e-01 3.81855331e-02 2.33487993e-01
      4.10372019e-02 1.72093585e-01 1.70017138e-01 1.89309925e-01
      1.21932916e-01 1.13940485e-01 1.92865729e-01 7.74725229e-02
      2.33487993e-01 3.62013280e-02 1.71830669e-01 1.31228745e-01
      1.35802135e-01 2.17245996e-01 1.05222635e-01 1.80963218e-01
      7.59167522e-02 2.33487993e-01 4.45946082e-02 2.14508325e-01
      1.08779170e-01 2.01254219e-01 2.33487993e-01 2.09548011e-01
      2.33487993e-01 1.82952553e-01 2.33487993e-01 4.34934534e-02
      2.33487993e-01 1.31833509e-01 1.77320555e-01 1.80810869e-01
      1.30881965e-01 2.42175326e-01 6.03558235e-02 2.56707281e-01
      1.06621785e-02 2.85686608e-02 1.80825684e-02 1.59681410e-01
      2.56707281e-01 1.58143818e-01 1.96293861e-01 5.68414442e-02
      2.56707281e-01 1.84324440e-02 4.13661413e-02 2.71078330e-02
      2.56707281e-01 2.32076317e-01 1.72212973e-01 2.56707281e-01
      1.02254704e-01 2.56707281e-01 9.89300199e-03 1.08957097e-01
      5.22139110e-02 1.68890134e-01 2.56707281e-01 1.12239450e-01
      1.54398799e-01 4.38768379e-02 2.56707281e-01 5.44223934e-02
      1.26528859e-01 3.73445489e-02 2.56707281e-01 2.18705490e-01
      6.72819540e-02 1.13643184e-01 2.94765215e-02 2.46797636e-01
      2.82014702e-02 1.15099564e-01 8.36947039e-02 2.19476193e-01
      1.67212158e-01 4.61390354e-02 1.31493703e-01 5.02895340e-02
      2.46797636e-01 4.65352274e-02 2.46797636e-01 1.22611515e-01
      1.76072717e-01 1.97922900e-01 8.37458372e-02 1.57998726e-01
      6.58879951e-02 2.46797636e-01 6.62160441e-02 2.41515279e-01
      1.25324935e-01 2.17227027e-01 2.06179380e-01 1.08760603e-01
      2.10584298e-01 9.82509777e-02 2.46797636e-01 4.79968563e-02
      2.46797636e-01 1.89126655e-01 2.26051733e-01 1.20939314e-01
      8.30132887e-02 1.50128469e-01 3.77863795e-02 2.40462095e-01
      9.04777423e-02 2.40462095e-01 8.60767290e-02 1.37712091e-01
      1.31532297e-01 5.62265031e-02 1.54188171e-01 6.11366630e-02
      2.40462095e-01 1.66759685e-01 1.98166832e-01 1.47834867e-01
      2.17647865e-01 2.40462095e-01 1.58219650e-01 2.32944638e-01
      5.50851636e-02 2.40462095e-01 5.23091666e-02 1.61569417e-01
      1.08553596e-01 2.31609151e-01 2.40462095e-01 7.30712265e-02
      1.55443981e-01 3.03122215e-02 2.40462095e-01 1.08924121e-01
      1.78999186e-01 1.40618339e-01 2.40462095e-01 2.40477063e-02
      2.68890313e-03 9.94203519e-03 0. 2.98342127e-02 0. 0. 0.
      2.40477063e-02 1.43093795e-01 4.23725471e-02 3.01060647e-01
      3.45119950e-03 3.01060647e-01 0. 6.55327439e-02 1.94119271e-02
      1.40296832e-01 3.01060647e-01 1.34154573e-01 2.66187370e-01 0.
      3.01060647e-01 6.29289895e-02 0. 8.18714723e-02 3.01060647e-01
      3.01060647e-01 7.82862306e-02 3.01060647e-01 2.68426607e-03
      3.01060647e-01 6.20132089e-02 1.44172043e-01 4.66947518e-02
      3.01060647e-01 1.88712120e-01 5.15774563e-02 2.08471715e-01
      2.41183564e-02 1.49133340e-01 1.63429650e-03 1.36793181e-01
      5.62713295e-02 1.45797998e-01 2.43610606e-01 1.11987591e-01
      1.88316524e-01 1.47881716e-01 2.40798831e-01 3.81796733e-02
      2.43610606e-01 9.80865955e-02 1.48581624e-01 2.43610606e-01
      8.26084763e-02 2.21040741e-01 1.87587235e-02 2.16354549e-01
      2.44077272e-03 1.28364176e-01 3.90459262e-02 2.06107453e-01
      2.43610606e-01 1.66067645e-01 2.43610606e-01 1.74530923e-01
      2.43610606e-01 3.93496826e-02 2.37996548e-01 4.47560027e-02
      2.26309866e-01 1.90740347e-01 1.09654255e-01 1.98279023e-01
      1.58377707e-01 2.57900149e-01 6.95431009e-02 1.96565226e-01
      6.11394383e-02 1.28821328e-01 2.08512709e-01 6.81879893e-02
      1.27047315e-01 6.33992404e-02 2.57900149e-01 3.45834829e-02
      6.64647967e-02 4.41237167e-02 1.98227897e-01 2.57900149e-01
      1.21655539e-01 2.39338011e-01 1.73750281e-01 2.57900149e-01
      6.36179447e-02 1.13198742e-01 3.80413607e-02 1.89638630e-01
      2.57162333e-01 1.14276022e-01 2.34868303e-01 8.60007778e-02
      2.57900149e-01 4.41916585e-02 5.65659106e-02 5.61052896e-02
      2.57900149e-01 1.72888577e-01 9.66049582e-02 1.22833282e-01
      5.81013709e-02 2.52544522e-01 1.96614098e-02 1.31033838e-01
      3.35969627e-02 1.62494600e-01 2.52544522e-01 1.79688513e-01
      2.36579567e-01 8.44487101e-02 2.52544522e-01 3.60797979e-02
      2.40996212e-01 8.88401195e-02 2.12015957e-01 1.84723854e-01
      1.24868013e-01 1.44352555e-01 1.00849591e-01 2.52544522e-01
      2.02375930e-02 1.00737244e-01 5.68922609e-02 1.73559979e-01
      2.52544522e-01 1.55442536e-01 1.65866151e-01 1.07984886e-01
      2.52544522e-01 6.36074096e-02 2.15437293e-01 1.03487827e-01
      2.35094428e-01 2.03180805e-01 1.20689996e-01 1.89357907e-01
      4.99242470e-02 2.31901005e-01 1.51768923e-02 1.07155375e-01
      6.46901727e-02 1.51258618e-01 2.04017982e-01 1.85478851e-01
      2.31901005e-01 2.98403129e-02 2.31901005e-01 5.61401881e-02
      7.20824748e-02 6.63601831e-02 2.14860052e-01 2.31901005e-01
      8.65639448e-02 1.37955412e-01 6.36243522e-02 2.31901005e-01
      5.02483174e-02 1.79713681e-01 1.26087338e-01 1.97428599e-01
      1.69161409e-01 1.65001929e-01 2.31901005e-01 2.39103884e-02
      2.31901005e-01 1.37863144e-01 2.31901005e-01 2.21772388e-01
      2.31901005e-01 1.83352247e-01 1.45155355e-01 2.10720703e-01
      5.16535938e-02 1.96776927e-01 5.94516397e-02 1.25502557e-01
      6.45789951e-02 2.03778014e-01 2.24275187e-01 9.02897939e-02
      1.82429165e-01 5.67239299e-02 2.24275187e-01 3.63830179e-02
      2.24275187e-01 1.21164590e-01 2.24275187e-01 1.81179151e-01
      1.36661097e-01 2.07142860e-01 4.33815084e-02 1.75076023e-01
      9.07779858e-02 1.95434749e-01 1.42572924e-01 2.24275187e-01
      2.24275187e-01 1.40564725e-01 2.24275187e-01 5.40461801e-02
      2.24275187e-01 2.75473669e-02 2.24275187e-01 1.07253909e-01
      2.24275187e-01 2.30567098e-01 7.00488240e-02 1.72794193e-01
      3.49913202e-02 2.30567098e-01 2.66836639e-02 1.88231081e-01
      1.29142269e-01 2.30567098e-01 2.30567098e-01 3.40949409e-02
      1.61945999e-01 5.18762469e-02 2.30567098e-01 2.27293428e-02
      1.54331833e-01 1.35659739e-01 2.30567098e-01 2.30567098e-01
      1.01713955e-01 2.30567098e-01 3.41732316e-02 2.30567098e-01
      2.52866372e-02 1.88880026e-01 1.23659067e-01 2.30567098e-01
      2.30567098e-01 3.64023559e-02 1.03086263e-01 4.92521822e-02
      2.30567098e-01 4.05747667e-02 1.74182415e-01 1.88383237e-01
      2.30567098e-01 2.61135787e-01 9.95039642e-02 1.21925712e-01
      3.36814183e-03 2.61135787e-01 1.09220088e-01 9.27743241e-02
      1.15431219e-01 2.53659070e-01 2.09576562e-01 3.12352832e-02
      2.63528582e-02 0. 2.61135787e-01 6.99342117e-02 3.14204767e-02
      1.95142124e-02 2.38959074e-01 2.61135787e-01 1.18706532e-01
      2.61135787e-01 2.67205667e-02 2.61135787e-01 1.44414008e-01
      2.49754503e-01 1.83385387e-01 2.58694351e-01 1.99103355e-01
      2.81324852e-02 5.42989038e-02 2.47113332e-02 2.61135787e-01
      5.98574020e-02 6.48530275e-02 2.95364372e-02 1.92010358e-01
      1.25650734e-01 3.83389294e-02 1.13483198e-01 0. 2.71611094e-01
      7.62318075e-03 2.14565191e-02 6.49469905e-03 1.40018567e-01
      2.63424307e-01 1.31208763e-01 2.90227085e-01 4.49555553e-02
      2.90227085e-01 9.96123068e-03 3.15925330e-02 1.30137196e-02
      2.03263834e-01 2.09616333e-01 4.74869572e-02 1.68564215e-01
      5.69299497e-02 2.90227085e-01 3.61393988e-02 6.19264953e-02
      3.64485160e-02 1.88291281e-01 2.90227085e-01 1.14102937e-01
      2.90227085e-01 2.58772485e-02 2.90227085e-01 3.35218832e-02
      1.27202794e-01 3.77557613e-02 2.90227085e-01 2.38102734e-01
      7.71493688e-02 1.98617116e-01 7.05055594e-02 2.94870257e-01
      1.74759030e-02 3.89534459e-02 4.32271026e-02 1.96486831e-01
      2.77687162e-01 8.00023526e-02 1.97206885e-01 7.42620826e-02
      2.94870257e-01 2.68735122e-02 8.60441253e-02 6.27544075e-02
      2.73932606e-01 2.34977767e-01 4.17876691e-02 8.04529190e-02
      1.29306652e-02 2.94870257e-01 9.33138281e-03 7.15993196e-02
      3.13366614e-02 2.21519634e-01 2.94870257e-01 3.98969129e-02
      3.22435834e-02 1.12966388e-01 2.94870257e-01 8.25337600e-03
      7.49353841e-02 5.75831309e-02 2.33816057e-01 2.17395544e-01
      6.60006925e-02 9.62609351e-02 6.11208789e-02 2.78473258e-01
      1.55898854e-02 1.34594992e-01 5.25799282e-02 1.81375951e-01
      2.78473258e-01 6.81850538e-02 9.10579413e-02 1.31022394e-01
      2.78473258e-01 3.87222208e-02 2.38810539e-01 7.53545761e-02
      1.90547511e-01 2.78473258e-01 3.72737348e-02 4.81440313e-02
      6.57412261e-02 2.78473258e-01 1.14875939e-02 1.10572547e-01
      6.91518933e-02 2.43141726e-01 2.78473258e-01 3.00214142e-02
      1.02154732e-01 7.29930550e-02 2.78473258e-01 2.50739157e-02
      1.77421257e-01 7.03741908e-02 2.59056568e-01 2.40675479e-01
      3.72131355e-02 7.25151077e-02 1.23454966e-01 2.62349188e-01
      4.03081328e-02 2.26931736e-01 1.17356941e-01 1.72323167e-01
      1.34340733e-01 6.76868483e-02 1.20456383e-01 2.08518431e-02
      2.62349188e-01 1.39943406e-01 2.62349188e-01 2.62349188e-01
      2.30969757e-01 2.11664870e-01 4.98517863e-02 1.40965626e-01
      7.62261078e-02 2.62349188e-01 1.55351395e-02 9.67838690e-02
      5.91682866e-02 2.00266346e-01 1.60239875e-01 5.50661460e-02
      9.93098542e-02 4.87245023e-02 2.62349188e-01 1.03894025e-01
      2.01905489e-01 1.95939183e-01 2.01069668e-01 1.21178314e-01
      9.04515311e-02 2.16839463e-01 4.44557443e-02 2.37899348e-01
      7.30446205e-02 2.37899348e-01 2.30670065e-01 2.34874547e-01
      2.37899348e-01 1.51756406e-01 2.37899348e-01 1.03558898e-01
      2.37899348e-01 9.49650444e-03 1.98939145e-01 1.07418470e-01
      2.37899348e-01 1.26220480e-01 3.25008631e-02 1.01671509e-01
      4.52777669e-02 2.37899348e-01 5.94013520e-02 1.49741128e-01
      1.34436727e-01 2.11226985e-01 2.08291247e-01 4.16415185e-02
      1.81725904e-01 5.80684580e-02 2.37899348e-01 5.32490527e-03
      1.20239526e-01 6.08970076e-02 2.37899348e-01 2.35041857e-01
      1.34312272e-01 2.35041857e-01 9.29657146e-02 2.35041857e-01
      2.01657265e-02 2.29298711e-01 9.63538438e-02 2.35041857e-01
      2.35041857e-01 2.99385972e-02 6.98764101e-02 2.93635465e-02
      2.35041857e-01 7.59859532e-02 2.35041857e-01 1.93408370e-01
      2.35041857e-01 1.69615790e-01 5.81556037e-02 1.49465114e-01
      7.17884302e-02 2.35041857e-01 4.77833953e-03 1.49614796e-01
      6.65099099e-02 1.95757389e-01 1.88761771e-01 2.06987914e-02
      2.49926411e-02 2.52384357e-02 2.35041857e-01 2.49053985e-02
      2.35041857e-01 1.82218313e-01 2.35041857e-01 2.63573021e-01
      5.12663461e-02 1.56016827e-01 8.70102197e-02 2.63573021e-01
      4.89405841e-02 1.99693635e-01 2.45689288e-01 2.63573021e-01
      1.53941855e-01 1.92821398e-02 3.84237170e-02 3.56400162e-02
      2.63573021e-01 1.61001012e-02 4.25015129e-02 3.45884636e-02
      1.25606135e-01 2.63573021e-01 1.33634191e-02 2.75277942e-02
      8.74791145e-02 2.63573021e-01 1.14985630e-01 2.63573021e-01
      2.63573021e-01 2.63573021e-01 1.72859192e-01 1.25683257e-02
      2.08055275e-03 1.36918696e-02 2.63573021e-01 6.54965192e-02
      1.56747550e-01 7.82358348e-02 1.80572093e-01 2.55743921e-01
      4.15671989e-02 7.06905574e-02 9.15634483e-02 2.60808051e-01
      3.11765447e-02 5.34042045e-02 5.80829270e-02 1.89759403e-01
      2.89424986e-01 4.11329083e-02 8.46303850e-02 4.37340476e-02
      2.89424986e-01 2.80657616e-02 1.33625880e-01 4.20986898e-02
      2.89424986e-01 2.55507708e-01 5.78333847e-02 2.75759548e-02
      4.49248701e-02 2.89424986e-01 6.25707023e-03 5.35606667e-02
      4.18068953e-02 2.35442176e-01 2.89424986e-01 1.15758918e-01
      1.52011245e-01 1.00263812e-01 2.89424986e-01 4.68145944e-02
      8.32860991e-02 2.51325965e-02 2.89424986e-01 2.42145121e-01
      1.63130853e-02 9.80336219e-03 4.21831664e-03 2.70631939e-01
      1.04043577e-02 2.08437547e-01 3.91842760e-02 2.02896282e-01
      2.70631939e-01 2.84497868e-02 3.39296274e-03 5.78847602e-02
      2.70631939e-01 1.89112574e-02 1.75764114e-01 5.99872284e-02
      2.05424160e-01 2.70631939e-01 4.56742533e-02 1.30979925e-01
      3.29458378e-02 2.70631939e-01 2.57319994e-02 1.74582288e-01
      3.20273861e-02 2.70631939e-01 2.70631939e-01 1.45896766e-02
      1.13013983e-01 1.82336159e-02 2.70631939e-01 3.60709317e-02
      2.00382262e-01 6.60613775e-02 2.70631939e-01 2.53643930e-01
      3.27832364e-02 1.72262695e-02 3.47994082e-02 2.53643930e-01
      1.68072395e-02 4.31686789e-02 4.98170331e-02 2.20249891e-01
      2.53643930e-01 5.44535257e-02 7.88561553e-02 2.62583420e-02
      2.53643930e-01 4.12324332e-02 4.00954559e-02 3.69946472e-02
      2.53643930e-01 2.33078212e-01 8.54067281e-02 2.05062598e-01
      5.77730015e-02 2.53643930e-01 5.27056009e-02 8.11741278e-02
      6.24071769e-02 2.48697743e-01 2.53643930e-01 2.32809901e-01
      2.53643930e-01 1.07523210e-01 2.53643930e-01 1.52171120e-01
      8.69110599e-02 7.24661797e-02 2.53643930e-01 2.15262681e-01
      6.70283660e-02 1.28291428e-01 3.40516120e-02 2.70648181e-01
      6.31117448e-02 4.40364592e-02 5.77337146e-02 2.14757249e-01
      1.48432389e-01 7.60355443e-02 1.29665613e-01 9.65819359e-02
      2.70648181e-01 1.20436095e-01 9.10855532e-02 1.20547451e-01
      2.02744499e-01 2.70648181e-01 1.49715751e-01 1.76413968e-01
      1.09920807e-01 2.70648181e-01 1.60113573e-01 1.88237980e-01
      1.52970701e-01 2.70648181e-01 2.09053263e-01 1.00619294e-01
      9.35952589e-02 1.20263569e-01 2.70648181e-01 1.05008118e-01
      1.02854013e-01 8.61332938e-02 2.13095158e-01 2.36475855e-01
      6.92425668e-02 9.99357179e-02 1.17450774e-01 3.02128524e-01
      1.26851037e-01 7.69343302e-02 7.48168156e-02 3.02128524e-01
      2.65102655e-01 1.18329749e-02 2.35265940e-02 1.55140338e-02
      3.02128524e-01 1.55062713e-02 1.69750042e-02 1.15961405e-02
      2.72845209e-01 2.47999549e-01 9.14843827e-02 8.40135291e-02
      1.22890562e-01 3.02128524e-01 7.74845928e-02 7.70563679e-03
      1.05473706e-02 2.66502142e-01 2.36505553e-01 6.09895866e-03
      3.78626236e-03 1.88376419e-02 3.02128524e-01 7.35257240e-03
      2.41293281e-04 1.60360607e-04 2.37739041e-01 1.94659203e-01
      2.38103438e-02 2.90481541e-02 1.66610796e-02 2.95387000e-01
      1.16103410e-03 9.49926227e-02 4.01402153e-02 1.96050197e-01
      2.95387000e-01 1.08228847e-02 6.67931233e-03 7.50035420e-03
      2.95387000e-01 1.16259558e-02 2.95387000e-01 2.95387000e-01
      2.95387000e-01 2.29450732e-01 0. 0. 0. 2.95387000e-01
      1.32647372e-04 1.69730652e-02 4.38714027e-03 2.29450732e-01
      1.90923557e-01 3.20597115e-04 0. 0. 2.36162916e-01 2.67389417e-03
      2.10524693e-01 1.21293217e-01 2.01000571e-01 3.17276001e-01
      3.37497219e-02 1.32724354e-02 2.34601740e-02 3.17276001e-01
      1.76684037e-01 3.17276001e-01 2.78519541e-01 3.17276001e-01
      1.64809525e-01 1.97040234e-02 1.02673723e-04 1.56401156e-03
      3.17276001e-01 8.68212208e-02 1.81349337e-01 8.57599899e-02
      1.96457684e-01 2.65764922e-01 3.77352387e-02 5.25935087e-03 0.
      3.17276001e-01 5.65246791e-02 2.02269312e-02 6.25728667e-02
      2.92693853e-01 1.78952869e-02 1.31360162e-03 0. 0. 4.75215651e-02
      0. 6.56125951e-04 2.80920509e-03 2.00051665e-02 1.85084492e-01
      5.04907034e-02 2.41854601e-02 2.60905866e-02 2.75178671e-01
      1.01652443e-02 4.78173159e-02 2.65177954e-02 1.88750222e-01
      3.13569546e-01 1.13598868e-01 1.58324629e-01 1.45517319e-01
      3.13569546e-01 8.89868140e-02 1.57418296e-01 3.28580998e-02
      3.13569546e-01 8.58396962e-02 3.36604682e-03 1.26706122e-03
      5.48489671e-03 2.15331405e-01 8.78484827e-03 3.17543074e-02
      2.26424746e-02 9.90766138e-02 3.13569546e-01 8.51460453e-03
      1.88593529e-02 1.48131251e-01 3.13569546e-01 5.14775701e-02
      2.50850320e-01 9.12775844e-02 3.13569546e-01 2.75899380e-01
      3.82207111e-02 1.28324449e-01 7.53370076e-02 2.75899380e-01
      3.86522338e-02 8.23126957e-02 1.78244710e-02 2.75899380e-01
      2.75899380e-01 1.48622598e-02 1.11349158e-01 4.71232198e-02
      2.75899380e-01 2.22318191e-02 4.58613150e-02 1.97040513e-02
      2.75899380e-01 2.70942152e-01 3.58719914e-03 1.98189728e-02
      1.43378958e-01 2.75899380e-01 1.93263367e-02 1.22200437e-01
      3.51511538e-02 2.75899380e-01 2.66593844e-01 5.61942644e-02
      7.31678531e-02 7.11044818e-02 2.75899380e-01 6.94967061e-03
      3.31360176e-02 2.98499260e-02 2.54067451e-01 2.48568416e-01
      9.13925692e-02 2.48568416e-01 5.80541715e-02 2.48568416e-01
      3.13908234e-02 3.51516865e-02 1.89189874e-02 2.48568416e-01
      2.48568416e-01 2.16031164e-01 2.48568416e-01 7.85662010e-02
      2.48568416e-01 9.53115895e-02 8.99457186e-02 6.56178594e-02
      2.48568416e-01 2.48568416e-01 1.12240270e-01 1.11307926e-01
      4.36749794e-02 2.48568416e-01 8.97627510e-03 3.39671783e-02
      4.91039045e-02 2.48568416e-01 2.41427109e-01 7.71150738e-02
      6.20396063e-02 3.49149927e-02 2.48568416e-01 3.48850936e-02
      4.08126041e-02 5.42733744e-02 2.48568416e-01 2.51161635e-01
      1.86519355e-01 1.81560025e-01 1.39377534e-01 2.51161635e-01
      1.22541934e-01 2.51161635e-01 2.40380898e-01 2.51161635e-01
      2.51161635e-01 7.31021538e-02 5.40752299e-02 8.98937732e-02
      2.51161635e-01 2.95216162e-02 1.44836873e-01 8.59261975e-02
      2.50026792e-01 2.30559364e-01 2.26275027e-02 1.44785792e-02
      5.72973825e-02 2.51161635e-01 8.03736970e-02 6.46312535e-02
      1.07829772e-01 2.51161635e-01 1.91690370e-01 3.44246291e-02
      3.48542444e-02 6.46130443e-02 2.51161635e-01 2.01526303e-02
      8.94423053e-02 2.93571167e-02 1.72226489e-01 2.59594887e-01
      6.49367273e-02 5.47655113e-02 1.74163971e-02 2.59594887e-01
      1.05516175e-02 9.70756933e-02 5.58046508e-04 2.59594887e-01
      2.59594887e-01 5.18626086e-02 2.10443959e-02 7.15675252e-03
      2.35151172e-01 1.74812060e-02 1.98825821e-01 5.51940575e-02
      2.59594887e-01 2.59594887e-01 8.82734656e-02 5.76543398e-02
      1.00228265e-02 2.15233296e-01 9.00239311e-03 1.74339727e-01
      2.41820142e-03 2.59594887e-01 2.59594887e-01 9.96393114e-02
      2.62065157e-02 1.84864029e-02 2.59594887e-01 2.71592606e-02
      2.59594887e-01 1.94898844e-01 2.59594887e-01 2.56853044e-01
      1.62557494e-02 0. 1.46561321e-02 2.85097092e-01 2.48813238e-02
      2.06305787e-01 1.15906902e-01 2.59555131e-01 1.80159435e-01
      1.71723904e-03 0. 3.38218408e-03 2.85097092e-01 3.45183397e-03
      2.03424022e-02 6.97123259e-03 1.51960880e-01 2.85097092e-01
      3.57626490e-02 0. 6.45267665e-02 2.85097092e-01 4.56661098e-02
      2.85097092e-01 2.85097092e-01 2.85097092e-01 2.16464177e-01
      1.33563031e-03 0. 1.46561321e-02 2.85097092e-01 7.59403408e-03
      4.72098105e-02 2.81665009e-02 2.06765354e-01 1.81220889e-01
      8.17309227e-03 1.13912532e-03 2.22949660e-03 3.39341283e-01
      1.21322693e-02 1.95979252e-01 7.38699213e-02 1.81220889e-01
      1.87444326e-03 0. 0. 0. 1.37709975e-02 0. 0. 0. 1.87444326e-03
      3.53893727e-01 3.04572154e-02 1.22993723e-01 3.34424488e-02
      3.53893727e-01 4.45209332e-02 3.08569491e-01 1.40717268e-01
      3.53893727e-01 2.83128113e-01 4.40769754e-02 6.12319969e-02 0.
      3.53893727e-01 0. 0. 2.14694883e-03 2.24398777e-01 5.69166280e-02
      0. 0. 0. 1.60325363e-01 5.68617554e-03 2.92256158e-02
      3.05458643e-02 7.15772286e-02 3.65332514e-01 0. 1.15344836e-03
      1.17713392e-01 3.65332514e-01 2.78496910e-02 2.23593384e-01
      1.34455398e-01 3.65332514e-01 2.01345995e-01 4.07633074e-02
      6.00961968e-03 0. 3.65332514e-01 0. 0. 0. 1.69431642e-01
      2.63779610e-01 1.75118279e-02 2.73164525e-03 0. 3.65332514e-01 0.
      0. 0. 2.63779610e-01 3.01730365e-01 0. 1.73255266e-03
      1.02651708e-01 3.01730365e-01 7.46504776e-03 7.69059733e-02
      3.15820985e-02 3.01730365e-01 3.01730365e-01 9.88138393e-02
      1.14249133e-01 8.51922557e-02 3.01730365e-01 1.45471254e-02
      1.65607080e-01 1.34543955e-01 3.01730365e-01 1.68793678e-01 0. 0.
      0. 3.01730365e-01 2.69865734e-03 3.70894885e-03 1.41610876e-02
      1.70462653e-01 1.65928215e-01 4.44542337e-03 1.54141821e-02
      2.01275200e-02 3.01730365e-01 4.45286743e-02 1.62489966e-01
      1.56965107e-01 1.90642118e-01 1.88139975e-01 1.27924815e-01
      1.52337044e-01 5.63524812e-02 2.27463841e-01 1.54700559e-02
      2.27463841e-01 1.77382901e-01 2.06979617e-01 2.25326359e-01
      1.55215815e-01 1.64913550e-01 6.21646196e-02 2.27463841e-01
      6.20050430e-02 1.69554919e-01 1.32878304e-01 2.14061663e-01
      1.36460423e-01 5.24260104e-02 1.36656716e-01 2.81647127e-02
      2.24551082e-01 2.27803905e-02 2.27396011e-01 1.54526085e-01
      1.51625797e-01 2.27463841e-01 1.95643753e-01 2.27463841e-01
      8.99729952e-02 2.27463841e-01 2.78986227e-02 1.47853211e-01
      1.46608561e-01 2.27463841e-01 2.55722135e-01 1.46970421e-01
      9.26363245e-02 1.09390609e-01 2.55722135e-01 2.06780821e-01
      3.01304944e-02 1.53410152e-01 2.55722135e-01 2.55722135e-01
      8.58101025e-02 8.68504122e-03 1.72540143e-01 2.55722135e-01
      4.86819632e-02 2.39337720e-02 4.38147746e-02 1.74395263e-01
      2.55722135e-01 2.35269591e-01 2.13827237e-01 1.92882314e-01
      2.55722135e-01 8.04964826e-02 2.11316757e-02 1.43419802e-01
      2.55722135e-01 1.89990059e-01 7.02037737e-02 6.38257712e-03
      9.55364257e-02 2.55722135e-01 1.85761079e-02 1.47218688e-03
      1.99158061e-02 1.01768106e-01 3.05001706e-01 9.75224748e-02
      2.27392185e-02 7.93994144e-02 3.05001706e-01 4.86333296e-03
      1.00547850e-01 2.59257038e-03 2.86518425e-01 3.05001706e-01
      6.03431910e-02 1.03360089e-02 2.82974616e-02 3.05001706e-01
      1.35951843e-02 2.50514060e-01 2.00841695e-01 3.05001706e-01
      1.30246297e-01 4.08517681e-02 0. 3.60906385e-02 2.08196878e-01 0.
      0. 0. 7.64519721e-02 2.83498675e-01 0. 0. 4.45683068e-03
      3.05001706e-01 0. 0. 0. 2.69972175e-01 3.00791711e-01
      7.77731370e-03 0. 2.54653692e-02 3.00791711e-01 8.83929431e-03
      1.18912183e-01 1.38575181e-01 3.00791711e-01 2.58790314e-01 0. 0.
      5.25492569e-03 3.00791711e-01 1.65147719e-03 1.09706838e-02
      2.79370844e-02 2.91466236e-01 3.00791711e-01 0. 0. 1.22455705e-03
      3.00791711e-01 0. 0. 0. 2.99173504e-01 1.96790889e-01 0. 0. 0.
      3.00791711e-01 0. 0. 1.54569168e-02 2.19560459e-01</_>
    <_>
      0. 0. 0. 0. 0. 0. 0. 0. 0. 0. 0. 0. 0. 0. 0. 0. 0. 0.
      2.18391940e-01 0. 0. 0. 4.34112132e-01 0. 0. 0. 2.18391940e-01
      4.86926854e-01 0. 0. 0. 4.86926854e-01 0. 0. 0. 4.86926854e-01
      2.83929557e-02 0. 0. 0. 1.03987373e-01 0. 0. 0. 2.83929557e-02
      3.63052934e-01 0. 0. 0. 3.63052934e-01 0. 0. 0. 3.63052934e-01
      1.75064400e-01 0. 0. 0. 3.63052934e-01 0. 0. 0. 1.75064400e-01
      3.63052934e-01 0. 0. 0. 3.63052934e-01 0. 0. 0. 3.63052934e-01
      4.06685323e-01 0. 0. 0. 4.06685323e-01 0. 0. 0. 4.06685323e-01 0.
      0. 0. 0. 4.72261980e-02 0. 0. 0. 0. 4.06685323e-01 0. 0. 0.
      4.06685323e-01 0. 0. 0. 4.06685323e-01 0. 0. 0. 0. 3.67314853e-02
      0. 0. 0. 0. 0. 0. 0. 0. 0. 0. 0. 0. 0. 0. 0. 0. 0. 9.78744328e-01
      0. 0. 0. 0. 0. 0. 0. 0. 0. 0. 0. 0. 0. 0. 0. 0. 0. 1.79710954e-01
      0. 0. 0. 0. 4.01010364e-01 0. 0. 0. 4.01010364e-01 0. 0. 0.
      4.01010364e-01 4.01010364e-01 0. 0. 0. 4.01010364e-01 0. 0. 0.
      4.01010364e-01 6.17473461e-02 0. 0. 0. 6.41185045e-02 0. 0. 0.
      6.17473461e-02 7.93894455e-02 0. 0. 0. 8.24380815e-02 0. 0. 0.
      7.93894455e-02 5.67289352e-01 0. 0. 0. 5.67289352e-01 0. 0. 0.
      5.67289352e-01 0. 0. 0. 0. 0. 0. 0. 0. 0. 9.66099948e-02 0. 0. 0.
      1.01077527e-01 0. 0. 0. 9.66099948e-02 0. 0. 0. 0. 0. 0. 0. 0. 0.
      1.03886239e-02 0. 0. 0. 1.17930006e-02 0. 0. 0. 1.03886239e-02
      2.49067858e-01 0. 0. 0. 3.89708757e-01 0. 0. 0. 2.49067858e-01
      8.07173252e-02 0. 0. 0. 1.76895007e-01 0. 0. 0. 8.07173252e-02
      4.74216431e-01 0. 0. 0. 4.74216431e-01 0. 0. 0. 4.74216431e-01
      1.79552779e-01 0. 0. 0. 3.96431863e-01 0. 0. 0. 1.79552779e-01
      4.26598132e-01 0. 0. 0. 4.26598132e-01 0. 0. 0. 4.26598132e-01
      4.79211770e-02 0. 0. 0. 9.14842710e-02 0. 0. 0. 4.79211770e-02
      2.07658425e-01 0. 0. 0. 3.59079242e-01 0. 0. 0. 2.07658425e-01
      2.24207520e-01 0. 0. 0. 3.44670087e-01 0. 0. 0. 2.24207520e-01
      3.44670087e-01 0. 0. 0. 3.44670087e-01 0. 0. 0. 3.44670087e-01
      1.05331622e-01 0. 0. 0. 2.18704566e-01 0. 0. 0. 1.05331622e-01
      3.40594828e-01 0. 0. 0. 3.44670087e-01 0. 0. 0. 3.40594828e-01
      3.84788692e-01 0. 0. 0. 3.84788692e-01 0. 0. 0. 3.84788692e-01 0.
      0. 0. 0. 0. 0. 0. 0. 0. 3.84788692e-01 0. 0. 0. 3.84788692e-01 0.
      0. 0. 3.84788692e-01 1.50995061e-01 0. 0. 0. 2.49364600e-01 0. 0.
      0. 1.50995061e-01 0. 0. 0. 0. 0. 0. 0. 0. 0. 0. 0. 0. 0. 0. 0. 0.
      0. 0. 4.86770630e-01 0. 0. 0. 2.17613041e-01 0. 0. 0.
      4.86770630e-01 4.86770630e-01 0. 0. 0. 0. 0. 0. 0. 4.86770630e-01
      0. 0. 0. 0. 0. 0. 0. 0. 0. 0. 0. 0. 0. 0. 0. 0. 0. 0.
      7.04615593e-01 0. 0. 0. 0. 0. 0. 0. 7.04615593e-01 0. 0. 0. 0. 0.
      0. 0. 0. 0. 0. 0. 0. 0. 0. 0. 0. 0. 0. 0. 0. 0. 0. 0. 0. 0. 0. 0.
      0. 0. 0. 0. 0. 0. 0. 0. 0. 0. 0. 0. 0. 0. 0. 0. 0. 0.
      2.40466837e-02 0. 0. 0. 8.67714137e-02 0. 0. 0. 2.40466837e-02
      4.05164927e-01 0. 0. 0. 4.05164927e-01 0. 0. 0. 4.05164927e-01
      1.09510182e-03 0. 0. 0. 4.80899401e-02 0. 0. 0. 1.09510182e-03
      4.05164927e-01 0. 0. 0. 4.05164927e-01 0. 0. 0. 4.05164927e-01
      2.56479066e-02 0. 0. 0. 1.59237348e-02 5.86957671e-03
      6.21932501e-04 0. 2.56479066e-02 6.65943399e-02 0. 0. 0.
      2.04733722e-02 2.54348330e-02 2.69504078e-03 0. 6.65943399e-02
      2.38477349e-01 2.78462209e-02 0. 8.27775337e-03 3.61233085e-01
      9.16217640e-02 2.45931856e-02 1.04662992e-01 2.59442329e-01
      3.61233085e-01 1.73283100e-01 4.23762687e-02 1.74542218e-01
      3.61233085e-01 3.61233085e-01 2.61061221e-01 2.38698453e-01
      3.61233085e-01 5.88345639e-02 0. 0. 0. 7.33589381e-03
      2.47734804e-02 2.62496481e-03 0. 5.88345639e-02 2.22458579e-02 0.
      0. 0. 4.91931923e-02 0. 0. 0. 2.22458579e-02 3.68327290e-01
      2.91183233e-01 2.01218724e-01 3.44682157e-01 3.68327290e-01
      3.68327290e-01 3.68327290e-01 1.51053220e-01 3.68327290e-01
      5.02659976e-02 4.63951267e-02 8.53861049e-02 2.05916502e-02
      1.53974399e-01 3.78888547e-02 4.91126906e-03 0. 5.02659976e-02
      1.41732574e-01 0. 0. 0. 2.90812850e-01 0. 0. 0. 1.41732574e-01
      3.14953566e-01 0. 0. 0. 3.51891398e-01 0. 0. 0. 3.14953566e-01
      1.64630786e-01 0. 0. 0. 3.51891398e-01 0. 0. 0. 1.64630786e-01
      3.51891398e-01 0. 0. 0. 3.51891398e-01 0. 0. 0. 3.51891398e-01
      1.58797935e-01 0. 0. 0. 3.06061715e-01 0. 0. 0. 1.58797935e-01
      2.36946285e-01 0. 0. 0. 3.25215578e-01 0. 0. 0. 2.36946285e-01
      3.25215578e-01 0. 0. 0. 3.25215578e-01 0. 0. 0. 3.25215578e-01
      3.25215578e-01 0. 0. 0. 3.25215578e-01 0. 0. 0. 3.25215578e-01
      3.56692344e-01 0. 0. 0. 4.22215790e-01 0. 0. 0. 3.56692344e-01 0.
      0. 0. 0. 6.95615411e-02 0. 0. 0. 0. 4.22215790e-01 0. 0. 0.
      4.22215790e-01 0. 0. 0. 4.22215790e-01 0. 0. 0. 0. 1.53035417e-01
      0. 0. 0. 0. 1.14633463e-01 0. 0. 0. 2.15131909e-01 0. 0. 0.
      1.14633463e-01 1.80753112e-01 0. 0. 0. 3.11458677e-01 0. 0. 0.
      1.80753112e-01 3.05092841e-01 0. 0. 0. 3.79188269e-01 0. 0. 0.
      3.05092841e-01 3.79188269e-01 0. 0. 0. 3.79188269e-01 0. 0. 0.
      3.79188269e-01 3.83780412e-02 0. 0. 0. 7.04134479e-02 0. 0. 0.
      3.83780412e-02 1.58622578e-01 0. 0. 0. 2.16577023e-01 0. 0. 0.
      1.58622578e-01 2.00721964e-01 0. 0. 0. 4.49943155e-01 0. 0. 0.
      2.00721964e-01 4.49943155e-01 0. 0. 0. 4.49943155e-01 0. 0. 0.
      4.49943155e-01 1.12045273e-01 2.50168853e-02 0. 1.08414190e-02
      2.74995118e-01 4.47172672e-02 1.81708261e-02 8.92153457e-02
      1.06982082e-01 2.74995118e-01 1.91424221e-01 4.30199616e-02
      2.14219764e-01 2.74995118e-01 2.74995118e-01 1.34745613e-01
      2.74995118e-01 2.74995118e-01 7.66600147e-02 9.72214062e-03 0.
      1.68783367e-02 1.73986301e-01 5.50387390e-02 5.44379689e-02
      7.19741508e-02 7.11677074e-02 2.74995118e-01 1.02207631e-01
      1.73325911e-02 1.48945421e-01 2.74995118e-01 2.00808242e-01
      8.84559602e-02 2.59833217e-01 2.30960429e-01 2.84214467e-01
      2.70630807e-01 1.56676352e-01 2.84214467e-01 2.84214467e-01
      2.84214467e-01 1.86725140e-01 2.42017850e-01 2.84214467e-01
      2.19287444e-02 1.90240331e-02 5.39534986e-02 1.77204926e-02
      6.52453378e-02 1.55360904e-02 2.01383559e-03 0. 2.19287444e-02
      2.84214467e-01 1.42891929e-01 5.20869009e-02 2.17150018e-01
      2.84214467e-01 1.83126554e-01 4.80178855e-02 2.52515525e-01
      2.16155142e-01 3.97034176e-02 1.26826914e-03 1.22106597e-02
      6.25024689e-03 1.07141532e-01 1.03573932e-03 1.34255723e-04 0.
      3.97034176e-02 9.44959670e-02 0. 0. 0. 2.21730143e-01 0. 0. 0.
      9.44959670e-02 3.44060302e-01 0. 0. 0. 3.44060302e-01 0. 0. 0.
      3.44060302e-01 2.11555108e-01 0. 0. 0. 3.44060302e-01 0. 0.
      5.26694953e-03 2.35780805e-01 3.44060302e-01 0. 0. 0.
      3.44060302e-01 0. 0. 2.28234492e-02 3.44060302e-01 2.55699039e-01
      0. 0. 0. 3.06594431e-01 0. 0. 0. 2.55699039e-01 3.06594431e-01 0.
      0. 0. 3.06594431e-01 0. 0. 0. 3.06594431e-01 2.33825147e-01 0. 0.
      0. 3.06594431e-01 0. 0. 2.19263439e-03 2.43910313e-01
      3.06594431e-01 0. 0. 0. 3.06594431e-01 0. 0. 0. 3.06594431e-01
      2.61222661e-01 0. 0. 0. 3.82979900e-01 0. 0. 0. 2.61222661e-01
      1.75637174e-02 0. 0. 0. 5.08127213e-02 0. 0. 0. 1.75637174e-02
      3.82979900e-01 0. 0. 0. 3.82979900e-01 0. 0. 0. 3.82979900e-01
      2.48125523e-01 0. 0. 0. 3.82979900e-01 0. 0. 0. 2.48125523e-01
      3.07196885e-01 0. 0. 0. 4.46369976e-01 0. 0. 0. 3.07196885e-01
      4.46369976e-01 0. 0. 0. 4.46369976e-01 0. 0. 0. 4.46369976e-01
      2.05037445e-02 0. 0. 0. 8.08667168e-02 0. 0. 0. 2.05037445e-02
      2.94114258e-02 0. 0. 0. 2.65791938e-02 0. 0. 0. 2.94114258e-02
      9.17787999e-02 0. 0. 0. 2.02826366e-01 2.44405470e-04
      3.59478872e-03 0. 9.17787999e-02 3.21000427e-01 0. 0. 0.
      3.21000427e-01 1.05909037e-03 1.55774169e-02 0. 3.21000427e-01
      1.37811095e-01 0. 0. 0. 3.17345709e-01 3.96410339e-02
      9.17390212e-02 4.95687462e-02 2.06442386e-01 3.21000427e-01 0. 0.
      0. 3.21000427e-01 1.71777800e-01 3.18690151e-01 1.20286293e-01
      3.21000427e-01 1.17111400e-01 0. 0. 1.41346697e-02 1.94611490e-01
      3.49879749e-02 5.55497482e-02 2.46518478e-02 1.18718565e-01
      3.49375725e-01 0. 0. 6.12502359e-02 3.49375725e-01 9.36578363e-02
      7.33875558e-02 8.01428407e-02 3.03414315e-01 1.96133122e-01 0. 0.
      0. 3.49375725e-01 0. 0. 0. 1.96133122e-01 3.49375725e-01 0. 0. 0.
      3.49375725e-01 0. 0. 0. 3.49375725e-01 1.55190587e-01 0. 0.
      2.35603880e-02 2.02557042e-01 3.00810914e-02 1.10647678e-02
      3.08695436e-02 1.16185270e-01 1.44113630e-01 0. 0. 0.
      2.98074991e-01 0. 0. 0. 1.44113630e-01 3.61674935e-01 0. 0. 0.
      3.61674935e-01 0. 0. 0. 3.61674935e-01 3.61674935e-01 0. 0. 0.
      3.61674935e-01 0. 0. 0. 3.61674935e-01 1.60979256e-01 0. 0. 0.
      3.07450324e-01 2.03057360e-02 0. 3.63804074e-03 1.77712709e-01
      2.70951629e-01 0. 0. 0. 3.07450324e-01 4.59552333e-02
      1.84345071e-03 1.57648418e-02 3.07450324e-01 3.07450324e-01 0. 0.
      0. 3.07450324e-01 2.61073746e-02 0. 2.82958732e-03 3.07450324e-01
      3.07450324e-01 0. 0. 0. 3.07450324e-01 7.66754076e-02
      3.32847126e-02 6.94238022e-02 3.07450324e-01 2.97420442e-01 0. 0.
      0. 3.15540671e-01 1.21773528e-02 4.53541940e-03 5.24912076e-03
      3.15540671e-01 2.32111201e-01 0. 0. 0. 3.15540671e-01
      1.43436191e-03 2.06155423e-03 0. 2.32111201e-01 3.15540671e-01 0.
      0. 0. 3.15540671e-01 5.89333437e-02 7.64370039e-02 8.93824548e-02
      3.15540671e-01 2.05228597e-01 0. 0. 0. 3.15540671e-01
      2.15154290e-02 3.28630917e-02 1.96845699e-02 2.05228597e-01
      2.89778471e-01 0. 0. 0. 3.06051403e-01 0. 0. 0. 2.89778471e-01
      1.99573487e-01 0. 0. 0. 3.06051403e-01 0. 0. 0. 1.99573487e-01
      3.06051403e-01 0. 0. 0. 3.06051403e-01 0. 0. 0. 3.06051403e-01
      3.06051403e-01 0. 0. 0. 3.06051403e-01 0. 0. 0. 3.06051403e-01
      2.07862541e-01 0. 0. 0. 4.76386040e-01 0. 0. 0. 2.07862541e-01 0.
      0. 0. 0. 6.69717975e-03 0. 0. 0. 0. 4.76386040e-01 0. 0. 0.
      4.76386040e-01 0. 0. 0. 4.76386040e-01 0. 0. 0. 0. 3.17600146e-02
      0. 0. 0. 0. 9.24299359e-02 0. 0. 0. 3.04006398e-01 6.39660805e-02
      8.02606419e-02 5.77614456e-02 2.21208811e-01 3.42990994e-01 0. 0.
      0. 3.42990994e-01 2.77186334e-01 2.58063018e-01 1.48156509e-01
      3.42990994e-01 1.25327827e-02 0. 0. 0. 3.82778235e-02
      1.66704040e-02 2.86928262e-03 4.41292953e-03 4.22509871e-02
      2.40391076e-01 3.58651243e-02 1.04660325e-01 0. 3.42990994e-01
      7.22384080e-02 6.45135110e-03 1.45733692e-02 3.42990994e-01
      2.59776503e-01 0. 0. 0. 4.62890118e-01 0. 0. 0. 2.59776503e-01
      4.62890118e-01 0. 0. 0. 4.62890118e-01 0. 0. 0. 4.62890118e-01
      4.14942112e-03 0. 0. 0. 0. 0. 0. 0. 4.14942112e-03 2.36678626e-02
      0. 0. 0. 4.67415079e-02 0. 0. 0. 2.36678626e-02 2.95363128e-01 0.
      0. 0. 3.56492937e-01 0. 0. 0. 2.95363128e-01 3.56492937e-01 0. 0.
      0. 3.56492937e-01 0. 0. 0. 3.56492937e-01 7.67069161e-02 0. 0. 0.
      1.36896774e-01 0. 0. 0. 7.67069161e-02 2.78241605e-01 0.
      2.86053438e-02 1.89687200e-02 3.56492937e-01 0. 0. 0.
      2.78241605e-01 3.02500963e-01 0. 0. 0. 3.12320203e-01
      2.77015311e-03 0. 0. 3.02500963e-01 1.60999015e-01 0. 0. 0.
      3.12320203e-01 1.52432416e-02 1.75657496e-02 4.48166057e-02
      1.60999015e-01 3.01618457e-01 6.92827106e-02 9.61042345e-02
      5.85510023e-02 3.12320203e-01 0. 0. 0. 3.01618457e-01
      2.77187884e-01 8.90777707e-02 7.87135735e-02 4.55396660e-02
      3.12320203e-01 0. 2.94424884e-04 2.98777362e-03 2.77187884e-01
      3.07746738e-01 0. 0. 0. 3.34305137e-01 3.01138591e-02
      4.93974015e-02 8.48337486e-02 3.07746738e-01 2.10710123e-01 0. 0.
      0. 3.34305137e-01 1.29784662e-02 2.05826443e-02 1.95770171e-02
      2.10710123e-01 2.88188219e-01 1.38408523e-02 1.55977940e-03 0.
      3.34305137e-01 0. 5.57319494e-04 5.65558299e-03 2.88188219e-01
      2.16280565e-01 0. 0. 0. 3.34305137e-01 0. 1.28612184e-04
      1.30513473e-03 2.16280565e-01 2.78530031e-01 0. 0. 0.
      3.19814444e-01 0. 0. 0. 2.78530031e-01 3.19814444e-01 0. 0. 0.
      3.19814444e-01 0. 0. 0. 3.19814444e-01 1.60357758e-01 0. 0. 0.
      3.19814444e-01 0. 0. 0. 1.60357758e-01 2.97093809e-01 0. 0. 0.
      3.19814444e-01 0. 0. 0. 2.97093809e-01 2.46739253e-01 0. 0. 0.
      3.33936036e-01 0. 0. 0. 2.46739253e-01 1.20009415e-01 0. 0. 0.
      2.55940378e-01 0. 0. 0. 1.20009415e-01 3.33936036e-01 0. 0. 0.
      3.33936036e-01 0. 0. 0. 3.33936036e-01 3.33936036e-01 0. 0. 0.
      3.33936036e-01 0. 0. 0. 3.33936036e-01 9.09596756e-02 0. 0. 0.
      2.00221658e-01 0. 0. 0. 9.09596756e-02 2.10032195e-01
      9.13493708e-02 2.69918829e-01 0. 3.46179217e-01 0. 0. 0.
      2.10032195e-01 2.68681854e-01 0. 0. 0. 3.46179217e-01 0. 0. 0.
      2.68681854e-01 3.46179217e-01 5.18545583e-02 1.55590191e-01 0.
      3.46179217e-01 0. 0. 0. 3.46179217e-01 0. 0. 0. 0. 0. 0. 0. 0. 0.
      0. 0. 0. 0. 0. 0. 0. 0. 0. 0. 0. 0. 0. 0. 0. 0. 0. 0. 0. 0. 0. 0.
      0. 0. 0. 0. 0. 0. 0. 0. 0. 0. 0. 0. 0. 0. 4.43421811e-01 0.
      3.82971227e-01 2.53955156e-01 4.43421811e-01 0. 0. 0.
      4.43421811e-01 0. 0. 0. 0. 0. 0. 0. 0. 0. 1.86481461e-01 0.
      2.55314186e-02 1.69303454e-02 3.52211177e-01 0. 0. 0.
      1.86481461e-01 3.17739904e-01 2.25271046e-01 1.99517921e-01
      1.15469582e-01 3.17739904e-01 0. 0. 0. 3.17739904e-01
      3.17739904e-01 2.89634198e-01 1.68075413e-01 8.98096710e-02
      3.17739904e-01 0. 0. 0. 3.17739904e-01 1.01884834e-01
      5.19856252e-02 1.74672119e-02 7.69797200e-03 1.84604168e-01 0. 0.
      0. 1.01884834e-01 1.38387278e-01 6.68386593e-02 1.65613350e-02
      5.98731171e-03 2.56897599e-01 0. 0. 0. 1.38387278e-01
      3.85891676e-01 1.34443283e-01 1.51509345e-02 0. 3.85891676e-01 0.
      0. 0. 3.85891676e-01 3.74491274e-01 0. 0. 0. 3.85891676e-01 0. 0.
      0. 3.74491274e-01 1.09114558e-01 3.10253743e-02 3.49636935e-03 0.
      2.75210679e-01 0. 0. 0. 1.09114558e-01 0. 0. 0. 0. 3.42877246e-02
      0. 0. 0. 0. 1.59118906e-01 0. 0. 0. 3.30345154e-01 0. 0. 0.
      1.59118906e-01 3.49630326e-01 0. 0. 0. 3.49630326e-01 0. 0. 0.
      3.49630326e-01 1.28636166e-01 0. 0. 0. 2.64950186e-01 0. 0. 0.
      1.28636166e-01 3.49630326e-01 0. 0. 0. 3.49630326e-01 0. 0. 0.
      3.49630326e-01 2.05530599e-01 0. 0. 0. 2.95952976e-01 0.
      5.05550504e-02 1.45199271e-02 2.05530599e-01 2.95952976e-01 0. 0.
      0. 2.95952976e-01 0. 9.75222290e-02 1.94008015e-02 2.95952976e-01
      2.27095678e-01 0. 0. 0. 2.95952976e-01 0. 1.43185154e-01
      6.12109303e-02 2.27095678e-01 2.95952976e-01 0. 0. 0.
      2.95952976e-01 0. 2.55645543e-01 8.03108886e-02 2.95952976e-01
      3.08457077e-01 0. 0. 0. 3.67825359e-01 0. 4.27812561e-02
      5.92687260e-03 3.08457077e-01 3.67825359e-01 0. 0. 0.
      3.67825359e-01 0. 0. 0. 3.67825359e-01 1.32740304e-01 0. 0. 0.
      3.43683302e-01 0. 1.05975024e-01 2.38950178e-02 1.32740304e-01
      1.76802292e-01 0. 0. 0. 1.87905639e-01 0. 0. 0. 1.76802292e-01</_>
    <_>
      0. 0. 0. 0. 0. 0. 0. 0. 0. 0. 0. 0. 0. 0. 0. 0. 0. 0. 0. 0. 0. 0.
      0. 0. 0. 0. 0. 0. 0. 0. 0. 0. 0. 0. 0. 0. 0. 0. 0. 0. 0. 0. 0. 0.
      0. 0. 0. 0. 0. 0. 0. 0. 0. 0. 0. 0. 0. 0. 0. 0. 0. 0. 0. 0. 0. 0.
      0. 0. 0. 0. 0. 0. 0. 0. 0. 0. 0. 0. 0. 0. 0. 0. 0. 0. 0. 0. 0. 0.
      0. 0. 0. 0. 0. 0. 0. 0. 0. 0. 0. 0. 0. 0. 0. 0. 0. 0. 0. 0. 0. 0.
      0. 0. 0. 0. 0. 0. 0. 0. 0. 0. 0. 0. 0. 0. 0. 0. 3.48575532e-01 0.
      0. 0. 4.33779091e-01 0. 0. 0. 3.48575532e-01 4.33779091e-01 0. 0.
      0. 4.33779091e-01 0. 0. 0. 4.33779091e-01 0. 0. 0. 0. 0. 0. 0. 0.
      0. 0. 0. 0. 0. 0. 0. 0. 0. 0. 5.75688422e-01 0. 0. 0.
      5.75688422e-01 0. 0. 0. 5.75688422e-01 0. 0. 0. 0. 0. 0. 0. 0. 0.
      0. 0. 0. 0. 0. 0. 0. 0. 0. 4.86940354e-01 3.66401255e-01
      3.53934944e-01 1.44186988e-01 4.86940354e-01 0. 0. 0.
      4.86940354e-01 0. 0. 0. 0. 0. 0. 0. 0. 0. 4.17980663e-02 0. 0. 0.
      0. 0. 0. 0. 4.17980663e-02 4.04747784e-01 2.52198040e-01
      3.69937450e-01 1.63628176e-01 4.04747784e-01 0. 0. 0.
      4.04747784e-01 1.96165904e-01 5.81995435e-02 1.57211706e-01
      7.43764415e-02 4.04747784e-01 0. 0. 0. 1.96165904e-01
      3.56969237e-02 0. 0. 0. 0. 0. 0. 0. 3.56969237e-02 1.21772308e-02
      0. 0. 0. 0. 0. 0. 0. 1.21772308e-02 0. 0. 0. 0. 0. 0. 0. 0. 0. 0.
      0. 0. 0. 0. 0. 0. 0. 0. 0. 0. 0. 0. 0. 0. 0. 0. 0. 0. 0. 0. 0. 0.
      0. 0. 0. 0. 0. 0. 0. 0. 0. 0. 0. 0. 0. 0. 0. 0. 0. 0. 0. 0. 0. 0.
      0. 0. 0. 0. 0. 0. 0. 0. 0. 0. 0. 0. 0. 0. 0. 0. 0. 0. 0. 0. 0. 0.
      0. 0. 0. 0. 0. 0. 0. 0. 0. 0. 0. 0. 0. 0. 0. 0. 0. 0. 0. 0. 0. 0.
      0. 0. 0. 0. 0. 0. 0. 0. 0. 0. 2.55561292e-01 0. 0. 0.
      3.53656381e-01 0. 0. 0. 2.55561292e-01 3.53656381e-01 0. 0. 0.
      3.53656381e-01 0. 0. 0. 3.53656381e-01 1.24763206e-01 0. 0. 0.
      2.42218867e-01 0. 0. 0. 1.24763206e-01 2.74479091e-01 0. 0. 0.
      3.53656381e-01 0. 0. 0. 2.74479091e-01 4.38913822e-01 0. 0. 0.
      4.38913822e-01 0. 0. 0. 4.38913822e-01 0. 0. 0. 0. 0. 0. 0. 0. 0.
      2.83322453e-01 0. 0. 0. 4.38913822e-01 0. 0. 0. 2.83322453e-01
      1.79570481e-01 0. 0. 0. 0. 0. 0. 0. 1.79570481e-01 0. 0. 0. 0. 0.
      0. 0. 0. 0. 0. 0. 0. 0. 0. 0. 0. 0. 0. 7.01677024e-01 0. 0. 0. 0.
      0. 0. 0. 7.01677024e-01 6.43979460e-02 0. 0. 0. 0. 0. 0. 0.
      6.43979460e-02 3.03974794e-03 0. 0. 0. 0. 0. 0. 0. 3.03974794e-03
      4.55962159e-02 0. 0. 0. 0. 0. 0. 0. 4.55962159e-02 7.53499493e-02
      0. 0. 0. 2.76068330e-01 0. 0. 0. 7.53499493e-02 5.48566759e-01 0.
      0. 0. 5.48566759e-01 0. 0. 0. 5.48566759e-01 0. 0. 0. 0. 0. 0. 0.
      0. 0. 0. 0. 0. 0. 0. 0. 0. 0. 0. 0. 0. 0. 0. 0. 0. 0. 0. 0. 0. 0.
      0. 0. 0. 0. 0. 0. 0. 0. 0. 0. 0. 0. 0. 0. 0. 0. 0. 0. 0. 0. 0. 0.
      0. 0. 0. 0. 0. 0. 0. 0. 0. 0. 0. 0. 0. 0. 0. 0. 0. 0. 0. 0. 0. 0.
      0. 0. 0. 0. 0. 0. 0. 0. 0. 0. 0. 0. 5.00177383e-01 0. 0. 0. 0. 0.
      0. 0. 0. 0. 0. 0. 0. 0. 0. 0. 0. 0. 8.60948086e-01 0. 0. 0. 0.
      1.07506394e-01 0. 0. 0. 1.97011247e-01 0. 0. 0. 1.07506394e-01
      1.38222501e-01 0. 0. 0. 2.53300160e-01 0. 0. 0. 1.38222501e-01
      3.72375101e-01 0. 0. 0. 3.72375101e-01 0. 0. 0. 3.72375101e-01
      3.72375101e-01 0. 0. 0. 3.72375101e-01 0. 0. 0. 3.72375101e-01
      3.20181204e-03 0. 0. 0. 2.10188460e-02 0. 0. 0. 3.20181204e-03
      1.48920089e-01 0. 0. 0. 3.45723152e-01 0. 0. 0. 1.48920089e-01
      1.25672333e-02 0. 0. 0. 1.29890427e-01 0. 0. 0. 1.25672333e-02
      5.20663559e-01 0. 0. 0. 5.20663559e-01 0. 0. 0. 5.20663559e-01
      1.45973623e-01 0. 0. 0. 3.27229738e-01 0. 0. 0. 1.45973623e-01
      9.73157492e-03 0. 0. 0. 4.44244221e-02 0. 0. 0. 9.73157492e-03
      4.98576880e-01 0. 0. 0. 4.98576880e-01 0. 0. 0. 4.98576880e-01
      4.12549488e-02 0. 0. 0. 3.06628525e-01 0. 0. 0. 4.12549488e-02
      7.01639503e-02 0. 0. 0. 2.67131001e-01 0. 0. 0. 7.01639503e-02
      5.26544034e-01 0. 0. 0. 5.26544034e-01 0. 0. 0. 5.26544034e-01
      1.05683664e-02 0. 0. 0. 2.25862302e-02 0. 0. 0. 1.05683664e-02
      1.58525497e-01 0. 0. 0. 1.75490022e-01 0. 0. 0. 1.58525497e-01 0.
      0. 0. 0. 0. 0. 0. 0. 0. 0. 0. 0. 0. 0. 0. 0. 0. 0. 0. 0. 0. 0. 0.
      0. 0. 0. 0. 0. 0. 0. 0. 0. 0. 0. 0. 0. 0. 0. 0. 0. 0. 0. 0. 0. 0.
      0. 0. 0. 0. 0. 0. 0. 0. 0. 0. 0. 0. 0. 0. 0. 0. 0. 0. 0. 0. 0. 0.
      0. 0. 0. 0. 0. 0. 0. 0. 0. 0. 0. 0. 0. 0. 0. 0. 0. 0.
      7.04615593e-01 0. 0. 0. 0. 0. 0. 0. 0. 0. 0. 0. 0. 0. 0. 0. 0. 0.
      7.04615593e-01 0. 0. 0. 0. 2.56947398e-01 0. 0. 0. 3.10707062e-01
      0. 0. 0. 2.56947398e-01 3.10707062e-01 0. 0. 0. 3.10707062e-01 0.
      0. 0. 3.10707062e-01 2.15105250e-01 0. 0. 0. 3.10707062e-01 0. 0.
      0. 2.15105250e-01 3.10707062e-01 0. 0. 0. 3.10707062e-01 0. 0. 0.
      3.10707062e-01 9.00221057e-03 0. 0. 0. 1.25512183e-01 0. 0. 0.
      9.00221057e-03 5.55344403e-01 0. 0. 0. 5.55344403e-01 0. 0. 0.
      5.55344403e-01 3.52966860e-02 0. 0. 0. 6.90869689e-02 0. 0. 0.
      3.52966860e-02 1.16140068e-01 0. 0. 0. 1.38111815e-01 0. 0. 0.
      1.16140068e-01 5.31600893e-01 0. 0. 0. 5.31600893e-01 0. 0. 0.
      5.31600893e-01 4.87903915e-02 0. 0. 0. 3.23437482e-01 0. 0. 0.
      4.87903915e-02 1.07504085e-01 0. 0. 0. 1.18506350e-01 0. 0. 0.
      1.07504085e-01 7.16693886e-03 0. 0. 0. 1.60883181e-02 0. 0. 0.
      7.16693886e-03 0. 0. 0. 0. 0. 0. 0. 0. 0. 0. 0. 0. 0. 0. 0. 0. 0.
      0. 0. 0. 0. 0. 0. 0. 0. 0. 0. 0. 0. 0. 0. 0. 0. 0. 0. 0. 0. 0. 0.
      0. 0. 0. 0. 0. 0. 0. 0. 0. 0. 0. 0. 0. 0. 0. 0. 0. 0. 0. 0. 0. 0.
      0. 0. 0. 0. 0. 0. 0. 0. 0. 0. 0. 0. 0. 0. 0. 0. 0. 0. 0. 0. 0. 0.
      0. 0. 0. 0. 0. 0. 0. 0. 0. 0. 0. 0. 0. 0. 0. 0. 0. 0. 0. 0. 0. 0.
      0. 0. 0. 0. 0. 0. 0. 2.95795668e-02 0. 0. 0. 0. 3.54868323e-01 0.
      0. 0. 4.29748297e-01 0. 0. 0. 3.54868323e-01 0. 0. 0. 0.
      6.50750473e-02 0. 0. 0. 0. 4.29748297e-01 0. 0. 0. 4.29748297e-01
      0. 0. 0. 4.29748297e-01 1.42665580e-01 0. 0. 0. 2.85709798e-01 0.
      0. 0. 1.42665580e-01 2.47456267e-01 0. 0. 0. 3.61770988e-01 0. 0.
      0. 2.47456267e-01 2.20440552e-01 0. 0. 0. 3.61770988e-01 0. 0. 0.
      2.20440552e-01 3.61770988e-01 0. 0. 0. 3.61770988e-01 0. 0. 0.
      3.61770988e-01 1.66899472e-01 0. 0. 0. 2.97025204e-01 0. 0. 0.
      1.66899472e-01 7.21548051e-02 0. 0. 0. 1.08563125e-01 0. 0. 0.
      7.21548051e-02 3.71965617e-01 0. 0. 0. 3.71965617e-01 0. 0. 0.
      3.71965617e-01 3.71965617e-01 0. 0. 0. 3.71965617e-01 0. 0. 0.
      3.71965617e-01 1.21445738e-01 0. 0. 0. 1.51720390e-01 0. 0. 0.
      1.21445738e-01 0. 0. 0. 0. 0. 0. 0. 0. 0. 5.60323536e-01 0. 0. 0.
      5.60323536e-01 0. 0. 0. 5.60323536e-01 0. 0. 0. 0. 0. 0. 0. 0. 0.
      0. 0. 0. 0. 0. 0. 0. 0. 0. 0. 0. 0. 0. 0. 0. 0. 0. 0. 0. 0. 0. 0.
      0. 0. 0. 0. 0. 0. 0. 0. 0. 0. 0. 0. 0. 0. 0. 0. 0. 0. 0. 0. 0. 0.
      0. 0. 0. 0. 0. 0. 0. 0. 0. 0. 0. 0. 0. 0. 0. 0. 0. 0. 0. 0. 0. 0.
      0. 0. 0. 0. 0. 0. 0. 0. 0. 0. 0. 0. 0. 0. 0. 0. 0. 0. 0. 0. 0. 0.
      0. 0. 0. 0. 0. 0. 0. 0. 0. 0. 0. 0. 0. 0. 0. 0. 0. 0. 0. 0. 0. 0.
      0. 0. 7.55947679e-02 0. 0. 0. 0. 5.74036360e-01 0. 0. 0.
      5.74036360e-01 0. 0. 0. 5.74036360e-01 0. 0. 0. 0. 0. 0. 0. 0. 0.
      0. 0. 0. 0. 0. 0. 0. 0. 0. 2.06034213e-01 0. 0. 0. 3.97411436e-01
      0. 0. 0. 2.06034213e-01 4.76049751e-01 0. 0. 0. 4.76049751e-01 0.
      0. 0. 4.76049751e-01 0. 0. 0. 0. 0. 0. 0. 0. 0. 0. 0. 0. 0.
      2.69330621e-01 0. 0. 0. 0. 3.19995522e-01 0. 0. 0. 3.19995522e-01
      0. 0. 0. 3.19995522e-01 3.19995522e-01 0. 0. 0. 3.19995522e-01 0.
      0. 0. 3.19995522e-01 1.78805068e-01 0. 0. 0. 3.19995522e-01 0. 0.
      0. 1.78805068e-01 2.38414794e-01 0. 0. 0. 3.19995522e-01 0. 0. 0.
      2.38414794e-01 4.82753605e-01 0. 0. 0. 4.82753605e-01 0. 0. 0.
      4.82753605e-01 0. 0. 0. 0. 0. 0. 0. 0. 0. 2.41059050e-01 0. 0. 0.
      4.24035668e-01 0. 0. 0. 2.41059050e-01 0. 0. 0. 0. 0. 0. 0. 0. 0.
      0. 0. 0. 0. 0. 0. 0. 0. 0. 0. 0. 0. 0. 0. 0. 0. 0. 0.
      3.31630632e-02 0. 0. 1.20187983e-01 6.22047596e-02 0. 0. 0.
      3.31630632e-02 4.93597984e-01 0. 0. 4.93597984e-01 4.93597984e-01
      0. 0. 0. 4.93597984e-01 0. 0. 0. 0. 0. 0. 0. 0. 0. 0. 0. 0. 0. 0.
      0. 0. 0. 0. 0. 0. 0. 0. 0. 0. 0. 0. 0. 0. 0. 0. 0. 0. 0. 0. 0. 0.
      0. 0. 0. 0. 0. 0. 0. 0. 0. 0. 0. 0. 0. 0. 0. 0. 0. 0. 0. 0. 0. 0.
      0. 0. 0. 0. 0. 0. 0. 0. 0. 0. 0. 0. 0. 0. 0. 0. 0. 0. 0. 0. 0. 0.
      0. 0. 0. 0. 0. 0. 0. 0. 0. 0. 0. 0. 0. 0. 0. 0. 0. 0. 0. 0. 0. 0.
      0. 0. 0. 0. 0. 0. 0. 0. 0. 0. 0. 0. 0. 0. 0. 0. 0. 0. 0.
      9.95024860e-01 0. 0. 0. 0. 0. 0. 0. 0. 0. 0. 0. 0. 0. 0. 0. 0. 0.
      0. 0. 0. 0. 0. 1.09781399e-01 0. 0. 0. 2.12074608e-01 0. 0. 0.
      1.09781399e-01 2.18099400e-01 0. 0. 0. 3.65306795e-01 0. 0. 0.
      2.18099400e-01 2.87133187e-01 0. 0. 0. 3.65306795e-01 0. 0. 0.
      2.87133187e-01 3.65306795e-01 0. 0. 0. 3.65306795e-01 0. 0. 0.
      3.65306795e-01 2.47391999e-01 0. 0. 0. 4.67153162e-01 0. 0. 0.
      2.47391999e-01 0. 0. 0. 0. 0. 0. 0. 0. 0. 4.67153162e-01 0. 0. 0.
      4.67153162e-01 0. 0. 0. 4.67153162e-01 0. 0. 0. 0. 0. 0. 0. 0. 0.
      2.74132174e-02 6.73599355e-03 0. 6.61128983e-02 6.75533861e-02 0.
      0. 0. 1.73685439e-02 3.69357497e-01 1.01039901e-01 0.
      2.86489218e-01 3.69357497e-01 0. 0. 0. 3.69357497e-01
      3.18127647e-02 8.66056327e-03 0. 5.14211394e-02 6.94740191e-02 0.
      0. 0. 1.88981853e-02 3.69357497e-01 1.29908457e-01 0.
      2.22824931e-01 3.69357497e-01 0. 0. 0. 3.69357497e-01</_>
    <_>
      0. 0. 0. 0. 0. 0. 0. 0. 0. 0. 0. 0. 0. 0. 0. 0. 0. 0. 0. 0. 0. 0.
      0. 0. 0. 0. 0. 0. 0. 0. 0. 0. 0. 0. 0. 0. 0. 0. 0. 0. 0. 0. 0. 0.
      0. 0. 0. 0. 0. 0. 0. 0. 0. 0. 0. 0. 0. 0. 0. 0. 0. 0. 0. 0. 0. 0.
      0. 0. 0. 0. 0. 0. 0. 0. 0. 0. 0. 0. 0. 0. 0. 0. 0. 0. 0.
      6.01810873e-01 4.17062491e-01 6.01810873e-01 3.09349537e-01 0. 0.
      0. 0. 0. 0. 0. 0. 0. 0. 0. 0. 0. 0. 0. 0. 0. 0. 0. 5.68396561e-02
      7.07633840e-03 2.61692181e-02 1.62423179e-02 1.77049875e-01
      2.71821767e-02 3.53626817e-01 2.98613966e-01 5.59973232e-02
      2.86157906e-01 1.17633440e-01 3.53626817e-01 2.37949505e-01
      3.53626817e-01 1.77523736e-02 3.53626817e-01 3.53626817e-01
      2.82507807e-01 1.05158696e-02 4.08932829e-04 1.50363264e-03 0. 0.
      0. 9.46999155e-03 8.65959004e-03 1.05158696e-02 6.20999187e-02
      6.13399269e-03 2.25544870e-02 0. 1.00062313e-02 0. 2.18411982e-02
      2.98622511e-02 6.20999187e-02 3.07162791e-01 1.91921994e-01
      3.96357596e-01 3.49948138e-01 3.96357596e-01 4.86620655e-03
      3.96357596e-01 3.96357596e-01 3.03894311e-01 0. 3.49529181e-03
      1.10356407e-02 0. 9.70322564e-02 0. 0. 0. 0. 6.91101998e-02
      9.05573927e-03 3.32976580e-02 0. 2.43555792e-02 0. 1.25829559e-02
      2.39555538e-02 6.91101998e-02 0. 0. 0. 0. 1.62370526e-03 0. 0. 0.
      0. 0. 0. 0. 0. 0. 0. 0. 0. 0. 0. 0. 0. 0. 0. 0. 0. 0. 0. 0. 0. 0.
      0. 0. 0. 0. 0. 0. 0. 0. 0. 0. 0. 0. 0. 0. 0. 0. 0. 0. 0. 0. 0. 0.
      0. 0. 0. 0. 0. 0. 0. 0. 0. 0. 0. 0. 0. 0. 0. 0. 0. 0. 0. 0. 0. 0.
      0. 0. 0. 0. 0. 0. 0. 0. 0. 0. 0. 0. 0. 0. 0. 0. 0. 0. 0. 0. 0. 0.
      0. 0. 0. 0. 0. 0. 0. 0. 0. 0. 0. 0. 0. 0. 0. 0. 0. 0. 0. 0. 0. 0.
      0. 0. 0. 0. 0. 0. 0. 0. 0. 0. 0. 0. 0. 0. 0. 0. 0. 0. 0. 0. 0. 0.
      0. 0. 0. 0. 0. 0. 0. 0. 0. 0. 0. 0. 0. 7.94987157e-02 0. 0. 0.
      1.49614811e-01 0. 0. 0. 7.94987157e-02 1.74897179e-01 0. 0. 0.
      3.17490160e-01 0. 0. 0. 1.74897179e-01 3.12035471e-01 0. 0. 0.
      3.88709933e-01 0. 0. 0. 3.12035471e-01 3.88709933e-01 0. 0. 0.
      3.88709933e-01 0. 0. 0. 3.88709933e-01 2.03179568e-01 0. 0. 0.
      4.39114988e-01 0. 0. 0. 2.03179568e-01 0. 0. 0. 0. 0. 0. 0. 0. 0.
      4.89803404e-01 0. 0. 0. 4.89803404e-01 0. 0. 0. 4.89803404e-01 0.
      0. 0. 0. 0. 0. 0. 0. 0. 0. 0. 0. 0. 0. 0. 0. 0. 0. 0. 0. 0. 0. 0.
      0. 0. 0. 0. 0. 0. 0. 0. 0. 0. 0. 0. 0. 0. 0. 0. 0. 0. 0. 0. 0. 0.
      0. 0. 0. 0. 0. 0. 0. 0. 0. 9.45351571e-02 4.33730194e-03
      4.38539684e-02 0. 5.72055429e-02 7.10125268e-03 1.53823989e-02 0.
      9.45351571e-02 0. 0. 0. 0. 0. 0. 0. 0. 0. 4.10121888e-01
      1.41270161e-01 4.10121888e-01 0. 4.10121888e-01 1.06518790e-01
      3.22301775e-01 4.05642629e-01 4.10121888e-01 5.77899367e-02
      1.88952382e-03 1.91047583e-02 0. 2.34404430e-02 1.09661035e-02
      1.83652919e-02 0. 5.77899367e-02 6.10077083e-02 8.58874351e-04
      8.68398137e-03 0. 3.61637771e-02 1.15085319e-02 1.80005748e-02 0.
      6.10077083e-02 3.14616442e-01 8.30816850e-02 2.86571383e-01 0.
      3.14616442e-01 1.64491534e-01 3.14616442e-01 1.76716164e-01
      3.14616442e-01 3.14616442e-01 5.54577522e-02 1.30259722e-01 0.
      3.14616442e-01 1.72627971e-01 2.88140506e-01 8.03255290e-02
      3.14616442e-01 0. 0. 0. 0. 0. 0. 0. 0. 0. 0. 0. 0. 0. 0. 0. 0. 0.
      0. 0. 0. 0. 0. 0. 0. 0. 0. 0. 0. 0. 0. 0. 0. 0. 0. 0. 0. 0. 0. 0.
      0. 0. 0. 0. 0. 0. 0. 0. 0. 0. 0. 0. 0. 0. 0. 0. 0. 0. 0. 0. 0. 0.
      0. 0. 0. 0. 0. 0. 0. 0. 0. 0. 0. 3.70937824e-01 0. 0. 0.
      4.24432099e-01 0. 0. 0. 3.70937824e-01 4.24432099e-01 0. 0. 0.
      4.24432099e-01 0. 0. 0. 4.24432099e-01 0. 0. 0. 0. 0. 0. 0. 0. 0.
      0. 0. 0. 0. 0. 0. 0. 0. 0. 5.75688422e-01 0. 0. 0. 5.75688422e-01
      0. 0. 0. 5.75688422e-01 0. 0. 0. 0. 0. 0. 0. 0. 0. 0. 0. 0. 0. 0.
      0. 0. 0. 0. 0. 0. 0. 0. 0. 0. 0. 0. 0. 0. 0. 0. 0. 0. 0. 0. 0. 0.
      0. 0. 0. 0. 0. 0. 0. 0. 0. 0. 0. 0. 0. 0. 0. 0. 0. 0. 0. 0. 0. 0.
      0. 0. 0. 0. 0. 0. 0. 0. 0. 0. 0. 0. 0. 0. 4.13367271e-01
      1.49791777e-01 4.13367271e-01 0. 4.13367271e-01 8.36645812e-02
      2.99805999e-01 4.13367271e-01 4.13367271e-01 0. 0. 0. 0. 0. 0. 0.
      0. 0. 1.01250023e-01 6.57940982e-03 0. 0. 5.56958355e-02 0.
      7.90504925e-03 3.50199081e-02 8.66103247e-02 2.96326995e-01
      7.81553909e-02 1.88858539e-01 0. 2.96326995e-01 1.08404517e-01
      2.24891394e-01 1.92011550e-01 2.96326995e-01 2.96326995e-01
      5.47499545e-02 8.58447924e-02 0. 2.96326995e-01 1.13766663e-01
      1.97644517e-01 8.72779712e-02 2.96326995e-01 1.07414804e-01
      3.96511052e-03 0. 0. 1.35397241e-01 0. 2.88952026e-03
      1.28007699e-02 9.85921249e-02 2.59908766e-01 3.08397482e-03 0. 0.
      2.96326995e-01 0. 1.31341815e-03 5.81853138e-03 2.53046721e-01 0.
      0. 0. 0. 0. 0. 0. 0. 0. 3.10726706e-02 0. 0. 0. 0. 0. 0. 0.
      3.10726706e-02 0. 0. 0. 0. 6.21453412e-02 0. 0. 0. 0.
      4.06232417e-01 0. 0. 0. 4.06232417e-01 4.06232417e-01
      4.06232417e-01 4.06232417e-01 4.06232417e-01 2.22955421e-02 0. 0.
      0. 0. 0. 0. 0. 2.22955421e-02 1.48636953e-03 0. 0. 0. 0. 0. 0. 0.
      1.48636953e-03 3.80195707e-01 0. 0. 0. 3.80195707e-01
      3.47493052e-01 3.58917803e-01 3.80195707e-01 3.80195707e-01
      6.76022917e-02 0. 0. 0. 2.94265628e-01 2.31662057e-02
      2.47750133e-02 2.65615582e-01 6.76022917e-02 0. 0. 0. 0. 0. 0. 0.
      0. 0. 0. 0. 0. 0. 0. 0. 0. 0. 0. 0. 0. 0. 0. 0. 0. 0. 0. 0. 0. 0.
      0. 0. 0. 0. 0. 0. 0. 0. 0. 0. 0. 0. 0. 0. 0. 0. 0. 0. 0. 0. 0. 0.
      0. 0. 0. 2.97995836e-01 0. 0. 0. 2.57744372e-01 0. 0. 0.
      2.97995836e-01 5.00322521e-01 0. 0. 0. 5.00322521e-01 0. 0. 0.
      5.00322521e-01 0. 0. 0. 0. 0. 0. 0. 0. 0. 0. 0. 0. 0. 0. 0. 0. 0.
      0. 5.75688422e-01 0. 0. 0. 5.75688422e-01 0. 0. 0. 5.75688422e-01
      0. 0. 0. 0. 0. 0. 0. 0. 0. 0. 0. 0. 0. 0. 0. 0. 0. 0. 0. 0. 0. 0.
      0. 0. 0. 0. 0. 0. 0. 0. 0. 0. 0. 0. 0. 0. 4.98753130e-01
      4.98753130e-01 4.98753130e-01 0. 0. 0. 0. 0. 4.98753130e-01
      5.74746691e-02 0. 0. 0. 1.25395879e-01 0. 0. 0. 5.74746691e-02
      2.49056891e-01 0. 0. 0. 3.68831247e-01 0. 0. 0. 2.49056891e-01
      2.52363443e-01 1.46870404e-01 1.97199136e-01 0. 0. 0. 0. 0.
      2.13489577e-01 3.68831247e-01 3.68831247e-01 3.68831247e-01 0. 0.
      0. 0. 4.44502616e-03 3.68831247e-01 0. 0. 0. 0. 4.82228659e-02 0.
      0. 0. 0. 3.82448018e-01 0. 0. 0. 3.82448018e-01 3.82448018e-01
      3.82448018e-01 3.82448018e-01 3.82448018e-01 0. 0. 0. 0.
      3.21485777e-03 0. 0. 0. 0. 1.59116238e-01 0. 0. 0. 1.46216497e-01
      1.42980337e-01 1.45782769e-01 5.03317639e-02 1.59116238e-01
      3.00136656e-01 0. 0. 0. 3.00136656e-01 3.00136656e-01
      3.00136656e-01 3.00136656e-01 3.00136656e-01 7.43559897e-02 0. 0.
      0. 2.63936579e-01 2.07785368e-02 2.18010955e-02 1.44499525e-01
      7.43559897e-02 1.31968290e-01 0. 0. 0. 1.57024756e-01
      7.19257072e-02 7.34091401e-02 4.17443067e-02 1.31968290e-01
      3.00136656e-01 0. 0. 4.00699005e-02 3.00136656e-01 4.79504745e-03
      1.26444086e-01 4.24769297e-02 2.87443042e-01 0. 0. 0. 0. 0. 0. 0.
      0. 0. 3.30857001e-03 0. 0. 0. 1.45645356e-02 0. 0. 0.
      3.30857001e-03 3.47407907e-01 2.28949618e-02 9.03028399e-02
      5.97505793e-02 3.47407907e-01 0. 2.18469962e-01 8.07110071e-02
      3.47407907e-01 3.47407907e-01 4.81158867e-02 2.25716606e-01
      5.44255935e-02 3.47407907e-01 2.13154708e-03 3.47407907e-01
      1.69490933e-01 3.47407907e-01 2.20549721e-02 2.56342050e-02
      9.14678499e-02 0. 4.31533493e-02 1.35676982e-03 1.61526799e-02
      1.22431600e-02 2.21120734e-02 9.10483971e-02 4.99830432e-02
      1.66542351e-01 0. 1.22695111e-01 1.37540484e-02 1.71707034e-01
      7.98993036e-02 9.19049159e-02 2.42356375e-01 9.03175771e-02
      2.95357227e-01 5.17854355e-02 2.95357227e-01 1.34431552e-02
      1.93361536e-01 1.06664032e-01 2.30802238e-01 2.53304988e-01
      1.25506803e-01 2.95357227e-01 1.31081671e-01 2.95357227e-01
      8.45735148e-02 2.95357227e-01 2.95357227e-01 2.95357227e-01
      8.54288861e-02 2.64465176e-02 8.39210972e-02 0. 1.78996474e-01
      1.96608435e-02 2.81136125e-01 1.16863444e-01 8.67549255e-02 0. 0.
      0. 0. 1.06130280e-02 0. 5.29498188e-03 1.98608846e-03 0.
      2.29628757e-01 5.00561893e-02 1.98529497e-01 1.12877689e-01
      4.19986874e-01 1.08692780e-01 4.19986874e-01 4.19986874e-01
      3.91800672e-01 1.16777280e-02 0. 0. 0. 1.84745297e-01
      2.07592442e-04 1.05063923e-01 2.52121482e-02 1.23215644e-02 0. 0.
      0. 0. 0. 0. 0. 0. 0. 1.81593478e-01 1.03308931e-01 3.52307886e-01
      0. 3.70572329e-01 5.35227405e-03 2.93341637e-01 8.62869844e-02
      1.84098974e-01 0. 0. 0. 0. 0. 0. 0. 0. 0. 1.68708682e-01
      8.93702582e-02 3.70572329e-01 0. 3.70572329e-01 1.17750047e-02
      3.70572329e-01 2.92691618e-01 1.71930060e-01 1.52765542e-01
      8.40557963e-02 1.86307952e-01 1.08985533e-03 9.69680324e-02
      4.11153631e-03 9.39360410e-02 2.73998827e-02 1.29153490e-01
      2.69056916e-01 1.90642923e-01 2.50268281e-01 2.65618926e-03
      2.86851283e-02 9.00096726e-03 5.92551716e-02 2.01920047e-02
      2.69056916e-01 1.54878050e-01 7.74553418e-02 2.16705039e-01
      2.74561741e-03 2.69056916e-01 3.96590196e-02 2.69056916e-01
      1.09892599e-01 1.47164673e-01 2.69056916e-01 1.91896975e-01
      2.69056916e-01 7.70751014e-03 2.32900307e-01 5.55064268e-02
      2.69056916e-01 8.43248218e-02 2.69056916e-01 0. 0. 0. 0. 0. 0. 0.
      0. 0. 0. 0. 0. 0. 0. 0. 0. 0. 0. 0. 0. 0. 0. 0. 0. 0. 0. 0. 0. 0.
      0. 0. 0. 0. 0. 0. 0. 0. 0. 0. 0. 2.20157485e-02 0. 0. 0. 0.
      3.45085204e-01 0. 0. 6.43662810e-02 3.45085204e-01 0.
      3.42411876e-01 1.00629270e-01 3.45085204e-01 0. 0. 0. 0.
      1.71233602e-02 0. 0. 0. 0. 3.45085204e-01 0. 0. 2.92574018e-02
      3.45085204e-01 0. 3.45085204e-01 1.72674626e-01 3.45085204e-01
      2.47541428e-01 1.29225608e-02 7.15627521e-02 4.44698632e-02
      2.47541428e-01 0. 1.85036063e-01 6.44083247e-02 2.47541428e-01
      2.47541428e-01 2.30095200e-02 1.84541628e-01 4.84777912e-02
      2.47541428e-01 1.05543509e-02 2.47541428e-01 1.24730475e-01
      2.47541428e-01 1.91652745e-01 5.87389106e-03 4.95678224e-02
      2.90529970e-02 2.47541428e-01 0. 2.04972968e-01 7.39049166e-02
      1.97530404e-01 2.47541428e-01 9.02786851e-03 1.35058910e-01
      3.66780683e-02 2.47541428e-01 2.03984734e-02 2.47541428e-01
      1.31544217e-01 2.47541428e-01 2.40116104e-01 7.54577518e-02
      2.40116104e-01 4.83475961e-02 2.40116104e-01 2.42395531e-02
      1.84307247e-01 9.40643251e-02 2.40116104e-01 2.40116104e-01
      9.52492729e-02 2.40116104e-01 1.19525768e-01 2.40116104e-01
      4.11658734e-02 2.14608923e-01 1.58891439e-01 2.40116104e-01
      2.40116104e-01 3.97370346e-02 1.52890638e-01 1.61867533e-02
      2.40116104e-01 3.29749323e-02 1.67543530e-01 8.67475495e-02
      2.40116104e-01 1.91275731e-01 5.98210618e-02 1.95569813e-01
      3.78120430e-02 1.60533249e-01 1.42331570e-02 2.12441403e-02
      2.95599960e-02 2.15761915e-01 2.67287344e-01 3.95094715e-02
      1.61936179e-01 1.39607623e-01 2.94820517e-01 4.50261161e-02
      2.94820517e-01 2.94820517e-01 2.94820517e-01 6.45789877e-02 0. 0.
      0. 2.05582976e-01 1.37617099e-04 5.76796345e-02 1.63607020e-02
      6.52826801e-02 2.15609580e-01 9.03029367e-02 2.04490975e-01
      9.93840098e-02 2.94820517e-01 6.28853450e-03 1.42423343e-02
      4.01225537e-02 2.24597201e-01 2.54729956e-01 7.66089037e-02
      6.77969828e-02 3.91436704e-02 2.94820517e-01 9.17447323e-06
      3.09988740e-03 2.59865308e-03 2.54892349e-01 4.12533320e-02 0.
      7.84045958e-04 3.16606078e-04 6.32030889e-02 0. 0. 0.
      4.12533320e-02 6.13134727e-02 9.42663290e-04 2.52795741e-02
      4.74909134e-03 1.79203570e-01 8.01637711e-04 1.21946342e-01
      3.08675356e-02 6.14464879e-02 2.36008123e-01 2.61136089e-02
      1.55343160e-01 1.92912057e-01 3.09906751e-01 2.97056511e-02
      1.33105088e-02 1.92775577e-02 2.70234138e-01 3.09906751e-01
      1.62488446e-01 3.09906751e-01 3.09906751e-01 3.09906751e-01
      1.60757557e-01 2.94464499e-01 1.61165893e-01 3.09906751e-01
      1.06087737e-01 2.17907615e-02 6.85024187e-02 1.61677599e-03
      2.60029972e-01 2.45390795e-02 1.93236023e-01 4.85427864e-02
      1.19968392e-01 2.79071778e-01 9.12273824e-02 1.82292014e-01
      2.65227188e-03 2.46522918e-01 3.20528075e-02 1.92573398e-01
      5.83710894e-02 2.79071778e-01 2.79071778e-01 5.00072464e-02
      8.27911273e-02 2.35129129e-02 2.79071778e-01 2.52296403e-02
      9.95034575e-02 4.10780646e-02 2.79071778e-01 2.79071778e-01
      2.65958179e-02 4.96815182e-02 0. 2.79071778e-01 1.26625691e-03
      2.33359292e-01 1.08684219e-01 2.79071778e-01 0. 0. 0. 0. 0. 0. 0.
      0. 0. 0. 0. 0. 0. 0. 0. 0. 0. 0. 0. 0. 0. 0. 0. 0. 0. 0. 0. 0. 0.
      0. 0. 0. 0. 0. 0. 0. 0. 0. 0. 0. 0. 0. 0. 0. 0. 4.42384809e-01 0.
      0. 0. 4.42384809e-01 0. 4.42384809e-01 4.42384809e-01
      4.42384809e-01 0. 0. 0. 0. 0. 0. 0. 0. 0. 0. 0. 0. 0.
      1.30611613e-01 0. 0. 0. 0. 2.37160474e-01 0. 1.42940292e-02
      1.46633259e-03 2.77966529e-01 0. 2.33882010e-01 9.78495553e-02
      2.37160474e-01 2.77966529e-01 0. 6.19407929e-02 6.35410799e-03
      2.77966529e-01 2.74002515e-02 2.77966529e-01 1.61444545e-01
      2.77966529e-01 9.10419971e-02 0. 0. 0. 2.16858506e-01
      1.70999300e-02 0. 1.74786374e-02 1.10578209e-01 2.77966529e-01 0.
      0. 0. 2.77966529e-01 2.56498963e-01 8.50552246e-02 1.73974529e-01
      2.77966529e-01 2.80680239e-01 3.72101702e-02 1.19230181e-01
      3.36994859e-03 2.80680239e-01 6.51275814e-02 2.80680239e-01
      1.75055385e-01 2.80680239e-01 2.76126951e-01 6.01774827e-02
      2.07625180e-01 4.03793193e-02 2.50716537e-01 1.50294425e-02
      3.27702649e-02 1.64241195e-02 2.80680239e-01 2.54801929e-01 0. 0.
      0. 2.80680239e-01 2.24285677e-01 1.95640653e-01 2.04924077e-01
      2.80680239e-01 2.19694190e-02 0. 4.06619208e-03 2.69195484e-03
      8.59617367e-02 0. 4.34967913e-02 2.06322968e-02 2.19694190e-02
      1.66544750e-01 2.01607540e-01 1.88699543e-01 1.00233100e-01
      3.16894770e-01 0. 0. 0. 1.66544750e-01 3.05610925e-01
      2.57628560e-01 1.77644372e-01 7.79590756e-02 3.16894770e-01
      3.84863024e-03 0. 0. 3.05610925e-01 3.42741124e-02 4.51507568e-02
      1.52035933e-02 6.68220688e-03 4.69053127e-02 0. 0. 0.
