<?xml version="1.0"?>
<opencv_storage>
<my_svm type_id="opencv-ml-svm">
  <svm_type>C_SVC</svm_type>
  <kernel><type>RBF</type>
    <gamma>6.2500000000000000e-02</gamma></kernel>
  <C>1.</C>
  <term_criteria><epsilon>1.0000000474974513e-03</epsilon>
    <iterations>1000</iterations></term_criteria>
  <var_all>1764</var_all>
  <var_count>1764</var_count>
  <class_count>2</class_count>
  <class_labels type_id="opencv-matrix">
    <rows>1</rows>
    <cols>2</cols>
    <dt>i</dt>
    <data>
      -2 1</data></class_labels>
  <sv_total>170</sv_total>
  <support_vectors>
    <_>
      1.50248796e-01 0. 0. 0. 3.08806568e-01 0. 0. 0. 1.50248796e-01
      3.23757261e-01 5.85259171e-03 1.12374695e-02 0. 3.23757261e-01 0.
      0. 0. 3.23757261e-01 3.23757261e-01 0. 0. 0. 3.23757261e-01 0. 0.
      0. 3.23757261e-01 2.47348204e-01 0. 0. 0. 3.23757261e-01 0. 0. 0.
      2.47348204e-01 4.35141474e-01 5.40114231e-02 1.03706501e-01 0.
      4.35141474e-01 0. 0. 0. 4.35141474e-01 2.26913486e-02
      2.45506484e-02 4.71393168e-02 0. 1.06523439e-01 0. 0. 0.
      2.26913486e-02 3.23043227e-01 0. 0. 0. 4.35141474e-01 0. 0. 0.
      3.23043227e-01 0. 0. 0. 0. 2.59393547e-02 0. 0. 0. 0.
      7.52215162e-02 0. 0. 0. 2.72080332e-01 0. 0. 0. 7.52215162e-02
      5.48898935e-01 0. 0. 0. 5.48898935e-01 0. 0. 0. 5.48898935e-01
      3.42563749e-03 0. 0. 0. 0. 0. 0. 0. 3.42563749e-03 5.13845608e-02
      0. 0. 0. 0. 0. 0. 0. 5.13845608e-02 5.71224868e-01 0. 0. 0.
      5.71224868e-01 0. 0. 0. 5.71224868e-01 0. 0. 0. 0. 1.01332679e-01
      0. 0. 0. 0. 5.06663397e-02 0. 0. 0. 0. 0. 0. 0. 5.06663397e-02 0.
      0. 0. 0. 0. 0. 0. 0. 0. 9.06000566e-03 0. 0. 0. 1.81200113e-02 0.
      0. 0. 9.06000566e-03 1.35900095e-01 0. 0. 0. 1.40788510e-01 0. 0.
      0. 1.35900095e-01 7.03942552e-02 0. 0. 0. 2.71800190e-01 0. 0. 0.
      7.03942552e-02 5.33427656e-01 0. 0. 0. 5.33427656e-01 0. 0. 0.
      5.33427656e-01 6.89938068e-02 0. 0. 0. 1.03524141e-01 0. 0. 0.
      6.89938068e-02 9.98181328e-02 0. 0. 0. 1.58687919e-01 0. 0. 0.
      9.98181328e-02 3.93852502e-01 0. 0. 0. 3.93852502e-01 0. 0. 0.
      3.93852502e-01 3.93852502e-01 0. 0. 0. 3.93852502e-01 0. 0. 0.
      3.93852502e-01 1.25964731e-01 0. 0. 0. 2.17808232e-01 0. 0. 0.
      1.25964731e-01 0. 0. 0. 0. 0. 0. 0. 0. 0. 5.52361429e-01 0. 0. 0.
      5.52361429e-01 0. 0. 0. 5.52361429e-01 0. 0. 0. 0. 0. 0. 0. 0. 0.
      4.55232680e-01 0. 0. 0. 4.55232680e-01 0. 0. 0. 4.55232680e-01
      2.78740227e-01 0. 0. 0. 4.55232680e-01 0. 0. 0. 2.78740227e-01
      5.93340695e-02 0. 0. 0. 5.89392632e-02 0. 0. 0. 5.93340695e-02
      1.32492296e-02 0. 0. 0. 1.57304090e-02 0. 0. 0. 1.32492296e-02
      4.06935185e-01 0. 0. 0. 4.06935185e-01 0. 0. 0. 4.06935185e-01 0.
      0. 0. 0. 4.85535115e-02 0. 0. 0. 0. 0. 0. 0. 0. 0. 0. 0. 0. 0.
      4.06935185e-01 0. 0. 0. 4.06935185e-01 0. 0. 0. 4.06935185e-01 0.
      0. 0. 0. 0. 0. 0. 0. 0. 0. 0. 0. 0. 0. 0. 0. 0. 0. 2.90544063e-01
      0. 0. 0. 4.50773329e-01 0. 0. 0. 2.90544063e-01 4.50773329e-01
      2.00531371e-02 3.73307616e-02 0. 4.50773329e-01 0. 1.02176666e-01
      4.05385159e-02 4.50773329e-01 0. 0. 0. 0. 0. 0. 0. 0. 0. 0. 0. 0.
      0. 0. 0. 0. 0. 0. 4.79626030e-01 8.04996714e-02 1.49857551e-01 0.
      4.79626030e-01 0. 1.50892973e-01 5.98666780e-02 4.79626030e-01
      2.47517973e-01 3.65907587e-02 6.81170672e-02 0. 3.60580474e-01 0.
      1.00595318e-02 3.99111211e-03 2.28946656e-01 7.49830827e-02 0. 0.
      0. 2.71217883e-01 0. 0. 0. 7.49830827e-02 5.49072564e-01 0. 0. 0.
      5.49072564e-01 0. 0. 0. 5.49072564e-01 3.41477920e-03 0. 0. 0. 0.
      0. 0. 0. 3.41477920e-03 5.12216873e-02 0. 0. 0. 0. 0. 0. 0.
      5.12216873e-02 4.04657841e-01 0. 0. 0. 4.04657841e-01 0. 0. 0.
      4.04657841e-01 4.04657841e-01 0. 0. 0. 4.04657841e-01 0. 0. 0.
      4.04657841e-01 2.41760444e-02 0. 0. 0. 1.64156258e-02 0. 0. 0.
      2.41760444e-02 6.27684221e-02 0. 0. 0. 6.44319579e-02 0. 0. 0.
      6.27684221e-02 5.25250375e-01 0. 0. 0. 5.25250375e-01 0. 0. 0.
      5.25250375e-01 0. 0. 0. 0. 0. 0. 0. 0. 0. 1.88315809e-01 0. 0. 0.
      1.11916050e-01 0. 0. 0. 1.88315809e-01 2.04498991e-01 0. 0. 0. 0.
      0. 0. 0. 2.04498991e-01 7.79133886e-02 0. 0. 0. 1.65122032e-01 0.
      0. 0. 7.79133886e-02 3.14946085e-01 0. 0. 0. 3.78086776e-01 0. 0.
      0. 3.14946085e-01 1.65336117e-01 0. 0. 0. 3.63268465e-01 0. 0. 0.
      1.65336117e-01 3.78086776e-01 0. 0. 0. 3.78086776e-01 0. 0. 0.
      3.78086776e-01 3.14617038e-01 0. 0. 0. 3.71124178e-01 0. 0. 0.
      3.14617038e-01 1.46423653e-01 0. 0. 0. 3.19758147e-01 0. 0. 0.
      1.46423653e-01 3.71124178e-01 0. 0. 0. 3.71124178e-01 0. 0. 0.
      3.71124178e-01 1.05752297e-01 0. 0. 0. 2.82665521e-01 0. 0. 0.
      1.05752297e-01 2.10443348e-01 0. 0. 0. 3.58900756e-01 0. 0. 0.
      2.10443348e-01 3.58900756e-01 3.18114236e-02 5.92198893e-02 0.
      3.58900756e-01 0. 1.62088618e-01 6.43085390e-02 3.58900756e-01
      9.09638181e-02 0. 0. 0. 1.77290991e-01 0. 0. 0. 9.09638181e-02
      2.89761961e-01 2.47422177e-02 4.60599139e-02 0. 3.58900756e-01 0.
      1.26068935e-01 5.00177555e-02 2.75306523e-01 3.18275541e-01
      8.82701799e-02 1.64323047e-01 0. 3.18275541e-01 0. 1.65458441e-01
      6.56455234e-02 3.18275541e-01 1.39528751e-01 4.01228108e-02
      7.46923015e-02 0. 2.39814207e-01 0. 1.10305641e-02 4.37636813e-03
      1.27177402e-01 3.18275541e-01 6.86545894e-02 1.27806827e-01 0.
      3.18275541e-01 0. 1.28689915e-01 5.10576256e-02 3.18275541e-01
      1.97866738e-01 3.12066283e-02 5.80940060e-02 0. 3.18275541e-01 0.
      8.57932679e-03 3.40384175e-03 1.92252472e-01 0. 0. 0. 0. 0. 0. 0.
      0. 0. 9.50900763e-02 0. 0. 0. 1.73348740e-01 0. 0. 0.
      9.50900763e-02 2.23145083e-01 0. 0. 0. 3.54951441e-01 0. 0. 0.
      2.23145083e-01 4.90370721e-01 0. 0. 0. 4.90370721e-01 0. 0. 0.
      4.90370721e-01 1.12337850e-01 0. 0. 0. 1.71320036e-01 0. 0. 0.
      1.12337850e-01 9.51713324e-02 0. 0. 0. 1.68277964e-01 0. 0. 0.
      9.51713324e-02 3.86246562e-01 0. 0. 0. 3.86246562e-01 0. 0. 0.
      3.86246562e-01 3.86246562e-01 0. 0. 0. 3.86246562e-01 0. 0. 0.
      3.86246562e-01 1.70634210e-01 0. 0. 0. 3.16398084e-01 0. 0. 0.
      1.70634210e-01 3.16398084e-01 0. 0. 0. 3.16398084e-01 0. 0. 0.
      3.16398084e-01 2.62435347e-01 0. 0. 0. 3.16398084e-01 0. 0. 0.
      2.62435347e-01 3.16398084e-01 0. 0. 0. 3.16398084e-01 0. 0. 0.
      3.16398084e-01 2.38764986e-01 0. 0. 0. 4.40635830e-01 0. 0. 0.
      2.38764986e-01 4.78554338e-01 0. 0. 0. 4.78554338e-01 0. 0. 0.
      4.78554338e-01 0. 0. 0. 0. 0. 0. 0. 0. 0. 0. 0. 0. 0. 0. 0. 0. 0.
      0. 5.53196609e-01 0. 0. 0. 5.53196609e-01 0. 0. 0. 5.53196609e-01
      7.76555613e-02 0. 0. 0. 2.53644764e-01 0. 0. 0. 7.76555613e-02 0.
      0. 0. 0. 0. 0. 0. 0. 0. 0. 0. 0. 0. 0. 0. 0. 0. 0. 0. 0. 0. 0. 0.
      0. 0. 0. 0. 7.04615593e-01 0. 0. 0. 0. 0. 0. 0. 7.04615593e-01 0.
      0. 0. 0. 0. 0. 0. 0. 0. 0. 0. 0. 0. 0. 0. 0. 0. 0. 3.40903580e-01
      0. 0. 0. 3.79224926e-01 0. 0. 0. 3.40903580e-01 3.79224926e-01 0.
      0. 0. 3.79224926e-01 0. 0. 0. 3.79224926e-01 8.00267681e-02 0. 0.
      0. 1.43760234e-01 0. 0. 0. 8.00267681e-02 1.76058903e-01 0. 0. 0.
      3.05066437e-01 0. 0. 0. 1.76058903e-01 2.07887381e-01 0. 0. 0.
      3.24079692e-01 0. 0. 0. 2.07887381e-01 3.24079692e-01 0. 0. 0.
      3.24079692e-01 0. 0. 0. 3.24079692e-01 1.87225133e-01 0. 0. 0.
      3.24079692e-01 0. 0. 0. 1.87225133e-01 3.24079692e-01 0. 0. 0.
      3.24079692e-01 0. 0. 0. 3.24079692e-01 3.93748730e-01 0. 0. 0.
      3.93748730e-01 0. 0. 0. 3.93748730e-01 3.39795709e-01 0. 0. 0.
      3.93748730e-01 0. 0. 0. 3.39795709e-01 1.52006462e-01 0. 0. 0.
      3.14232916e-01 0. 0. 0. 1.52006462e-01 4.33457782e-03 0. 0. 0. 0.
      0. 0. 0. 4.33457782e-03 4.07416642e-01 0. 0. 0. 4.07416642e-01 0.
      0. 0. 4.07416642e-01 4.07416642e-01 0. 0. 0. 4.07416642e-01 0. 0.
      0. 4.07416642e-01 0. 0. 0. 0. 0. 0. 0. 0. 0. 0. 0. 0. 0. 0. 0. 0.
      0. 0. 0. 0. 0. 0. 0. 0. 0. 0. 0. 0. 0. 0. 0. 0. 0. 0. 0. 0. 0. 0.
      0. 0. 0. 0. 0. 0. 0. 0. 0. 0. 0. 0. 0. 0. 0. 0. 0. 0. 0. 0. 0. 0.
      0. 0. 0. 0. 0. 0. 0. 0. 0. 0. 0. 0. 0. 0. 0. 0. 0. 0. 0. 0. 0. 0.
      0. 0. 0. 0. 0. 0. 0. 0. 0. 0. 0. 0. 0. 0. 0. 0. 0. 0. 0. 0. 0. 0.
      0. 0. 0. 0. 0. 0. 0. 0. 0. 0. 0. 0. 0. 0. 0. 0. 0. 0. 0. 0. 0. 0.
      0. 0. 0. 0. 0. 0. 0. 0. 0. 3.03888261e-01 0. 0. 0. 4.23379511e-01
      0. 0. 0. 3.03888261e-01 2.16879740e-01 0. 0. 0. 0. 0. 0. 0.
      2.16879740e-01 4.23379511e-01 0. 0. 0. 4.23379511e-01 0. 0. 0.
      4.23379511e-01 2.30373442e-01 0. 0. 0. 3.15419286e-01 0. 0. 0.
      2.30373442e-01 2.17703775e-01 0. 0. 0. 3.15419286e-01 0. 0. 0.
      2.17703775e-01 3.15419286e-01 0. 0. 0. 3.15419286e-01 0. 0. 0.
      3.15419286e-01 3.15419286e-01 0. 0. 0. 3.15419286e-01 0. 0. 0.
      3.15419286e-01 3.57685238e-01 0. 0. 0. 6.07477188e-01 0. 0. 0.
      3.57685238e-01 0. 0. 0. 0. 0. 0. 0. 0. 0. 0. 0. 0. 0.
      6.07477188e-01 0. 0. 0. 0. 0. 0. 0. 0. 0. 0. 0. 0. 0. 0. 0. 0. 0.
      0. 0. 0. 0. 0. 0. 0. 0. 0. 0. 0. 0. 0. 0. 0. 0. 0. 0. 0. 0. 0. 0.
      0. 0. 0. 0. 0. 0. 0. 0. 0. 0. 0. 0. 0. 0. 0. 0. 0. 0. 0. 0. 0. 0.
      0. 0. 0. 0. 0. 0. 0. 0. 0. 0. 9.01799202e-02 0. 0. 0. 0.
      5.73335946e-01 0. 0. 0. 5.73335946e-01 0. 0. 0. 5.73335946e-01 0.
      0. 0. 0. 0. 0. 0. 0. 0. 0. 0. 0. 0. 0. 0. 0. 0. 0. 5.51552236e-01
      0. 0. 0. 5.51552236e-01 0. 0. 0. 5.51552236e-01 7.81636313e-02 0.
      0. 0. 2.63900429e-01 0. 0. 0. 7.81636313e-02 0. 0. 0. 0. 0. 0. 0.
      0. 0. 0. 0. 0. 0. 7.04615593e-01 0. 0. 0. 0. 0. 0. 0. 0. 0. 0. 0.
      0. 0. 0. 0. 0. 0. 7.04615593e-01 0. 0. 0. 0. 1.51764169e-01 0. 0.
      0. 3.10233712e-01 0. 0. 0. 1.51764169e-01 2.97810137e-01 0. 0. 0.
      3.46611530e-01 0. 0. 0. 2.97810137e-01 1.95125356e-01 0. 0. 0.
      3.46611530e-01 0. 0. 0. 1.95125356e-01 3.46611530e-01 0. 0. 0.
      3.46611530e-01 0. 0. 0. 3.46611530e-01 3.64447922e-01 0. 0. 0.
      3.90327871e-01 0. 0. 0. 3.64447922e-01 1.26594290e-01 0. 0. 0.
      2.38728300e-01 0. 0. 0. 1.26594290e-01 3.90327871e-01 0. 0. 0.
      3.90327871e-01 0. 0. 0. 3.90327871e-01 4.31452692e-02 0. 0. 0.
      1.68125287e-01 0. 0. 0. 4.31452692e-02 0. 0. 0. 0. 9.95024860e-01
      0. 0. 0. 0. 0. 0. 0. 0. 0. 0. 0. 0. 0. 0. 0. 0. 0. 0. 0. 0. 0. 0.
      0. 0. 0. 0. 0. 0. 0. 0. 0. 0. 0. 0. 0. 0. 0. 0. 0. 0. 0. 0. 0. 0.
      0. 0. 0. 0. 0. 0. 0. 0. 0. 0. 0. 0. 0. 0. 0. 0. 0. 0. 0. 0. 0. 0.
      0. 0. 0. 0. 0. 6.63867593e-02 0. 0. 0. 0. 4.21987385e-01 0. 0. 0.
      4.21987385e-01 0. 0. 0. 4.21987385e-01 0. 0. 0. 0. 3.01757976e-02
      0. 0. 0. 0. 3.72943252e-01 0. 0. 0. 4.21987385e-01 0. 0. 0.
      3.72943252e-01 4.09849167e-01 0. 0. 0. 4.09849167e-01 0. 0. 0.
      4.09849167e-01 5.02764918e-02 0. 0. 0. 1.96610928e-01 0. 0. 0.
      5.02764918e-02 3.68169427e-01 0. 0. 0. 4.09849167e-01 0. 0. 0.
      3.68169427e-01 2.45446265e-02 0. 0. 0. 8.93686041e-02 0. 0. 0.
      2.45446265e-02 0. 0. 0. 0. 0. 0. 0. 0. 0. 0. 0. 0. 0.
      9.95024860e-01 0. 0. 0. 0. 0. 0. 0. 0. 0. 0. 0. 0. 0. 0. 0. 0. 0.
      0. 0. 0. 0. 0. 1.62026837e-01 0. 0. 0. 3.86719495e-01 0. 0. 0.
      1.62026837e-01 5.14071465e-01 0. 0. 0. 5.14071465e-01 0. 0. 0.
      5.14071465e-01 0. 0. 0. 0. 0. 0. 0. 0. 0. 0. 0. 0. 0. 0. 0. 0. 0.
      0. 5.52102745e-01 0. 0. 0. 5.52102745e-01 0. 0. 0. 5.52102745e-01
      7.66659006e-02 0. 0. 0. 2.61302739e-01 0. 0. 0. 7.66659006e-02 0.
      0. 0. 0. 0. 0. 0. 0. 0. 0. 0. 0. 0. 0. 0. 0. 0. 0. 0. 0. 0. 0. 0.
      0. 0. 0. 0. 0. 0. 0. 0. 0. 0. 0. 0. 0. 0. 0. 0. 0. 0. 0. 0. 0. 0.
      0. 0. 0. 0. 0. 0. 0. 0. 0. 0. 0. 0. 0. 0. 0. 0. 0. 0. 0. 0. 0. 0.
      0. 0. 0. 0. 0. 0. 0. 0. 0. 0. 0. 0. 0. 0. 0. 0. 0. 0. 0. 0. 0. 0.
      0.</_>
    <_>
      3.31791371e-01 2.65982598e-01 3.31791371e-01 0. 3.31791371e-01 0.
      0. 0. 3.31791371e-01 0. 0. 0. 0. 0. 0. 0. 0. 0. 2.78692991e-01
      3.31791371e-01 3.31791371e-01 0. 3.31791371e-01 0. 0. 0.
      2.78692991e-01 0. 0. 0. 0. 0. 0. 0. 0. 0. 0. 0. 0. 0. 0. 0. 0. 0.
      0. 0. 0. 0. 0. 0. 0. 0. 0. 0. 0. 0. 0. 0. 0. 0. 0. 0. 0. 0. 0. 0.
      0. 0. 0. 0. 0. 0. 0. 0. 0. 0. 0. 0. 0. 0. 0. 0. 0. 0. 0. 0. 0. 0.
      0. 0. 0. 0. 0. 0. 0. 0. 0. 0. 0. 0. 0. 0. 0. 0. 0. 0. 0. 0. 0. 0.
      0. 0. 0. 0. 0. 0. 0. 0. 0. 0. 0. 0. 0. 0. 0. 0. 0. 0. 0. 0. 0. 0.
      0. 0. 0. 5.75688422e-01 0. 0. 0. 5.75688422e-01 0. 0. 0.
      5.75688422e-01 0. 0. 0. 0. 0. 0. 0. 0. 0. 0. 0. 0. 0. 0. 0. 0. 0.
      0. 4.07416642e-01 0. 0. 0. 4.07416642e-01 0. 0. 0. 4.07416642e-01
      4.07416642e-01 0. 0. 0. 4.07416642e-01 0. 0. 0. 4.07416642e-01 0.
      0. 0. 0. 0. 0. 0. 0. 0. 0. 0. 0. 0. 0. 0. 0. 0. 0. 5.75688422e-01
      0. 0. 0. 5.75688422e-01 0. 0. 0. 5.75688422e-01 0. 0. 0. 0. 0. 0.
      0. 0. 0. 0. 0. 0. 0. 0. 0. 0. 0. 0. 0. 0. 0. 0. 0. 0. 0. 0. 0. 0.
      0. 0. 0. 0. 0. 0. 0. 0. 0. 0. 0. 0. 0. 0. 0. 0. 0. 4.98753130e-01
      4.98753130e-01 4.98753130e-01 0. 0. 0. 0. 0. 4.98753130e-01 0. 0.
      0. 0. 0. 0. 0. 0. 0. 0. 0. 0. 0. 0. 0. 0. 0. 0. 0. 0. 0. 0. 0. 0.
      0. 0. 0. 0. 0. 0. 0. 0. 0. 0. 0. 0. 0. 0. 0. 0. 0. 0. 0. 0. 0. 0.
      0. 0. 0. 0. 0. 0. 0. 0. 0. 0. 0. 0. 0. 0. 0. 0. 0. 0. 0. 0. 0. 0.
      0. 0. 0. 0. 0. 0. 0. 0. 0. 0. 0. 0. 0. 0. 0. 0. 0. 0. 0. 0. 0. 0.
      0. 0. 0. 0. 0. 0. 0. 0. 0. 0. 0. 0. 0. 0. 0. 0. 0. 0.
      4.50267643e-01 0. 0. 0. 4.50267643e-01 0. 0. 0. 4.50267643e-01 0.
      0. 0. 0. 0. 0. 0. 0. 0. 3.03758621e-01 0. 0. 0. 4.50267643e-01 0.
      0. 0. 3.03758621e-01 3.48874778e-01 0. 0. 0. 3.48874778e-01 0. 0.
      0. 3.48874778e-01 3.48874778e-01 0. 0. 0. 3.48874778e-01 0. 0. 0.
      3.48874778e-01 2.03743607e-01 0. 0. 0. 3.48874778e-01 0. 0. 0.
      2.03743607e-01 1.05566829e-01 0. 0. 0. 1.98008507e-01 0. 0. 0.
      1.05566829e-01 4.87537473e-01 0. 0. 0. 4.87537473e-01 0. 0. 0.
      4.87537473e-01 0. 0. 0. 0. 0. 0. 0. 0. 0. 2.12336957e-01 0. 0. 0.
      4.38039035e-01 0. 0. 0. 2.12336957e-01 0. 0. 0. 0. 0. 0. 0. 0. 0.
      0. 0. 0. 0. 0. 0. 0. 0. 0. 0. 0. 0. 0. 0. 0. 0. 0. 0. 0. 0. 0. 0.
      0. 0. 0. 0. 0. 0. 0. 0. 0. 0. 0. 0. 0. 0. 0. 0. 0. 0. 0. 0. 0. 0.
      0. 0. 0. 0. 0. 0. 0. 0. 0. 0. 0. 0. 0. 0. 0. 0. 0. 0. 0. 0. 0. 0.
      0. 0. 0. 0. 0. 0. 0. 0. 0. 0. 0. 0. 0. 0. 0. 0. 0. 0. 0. 0. 0. 0.
      0. 0. 0. 0. 0. 0. 0. 0. 0. 0. 0. 0. 0. 0. 0. 0. 0. 0. 0. 0. 0. 0.
      0. 0. 0. 0. 0. 0. 0. 0. 0. 0. 0. 0. 0. 0. 0. 0. 0. 0. 0. 0. 0. 0.
      0. 0. 0. 0. 0. 0. 0. 0. 0. 0. 0. 0. 0. 0. 0. 0. 0. 0. 0. 0. 0. 0.
      0. 0. 0. 0. 0. 0. 0. 0. 0. 0. 0. 0. 0. 0. 0. 0. 0. 0. 0. 0. 0. 0.
      0. 0. 0. 0. 0. 0. 0. 0. 0. 0. 0. 0. 0. 0. 0. 0. 0. 0. 0. 0. 0. 0.
      0. 0. 0. 0. 0. 0. 0. 0. 0. 0. 0. 0. 0. 0. 0. 0. 0. 0. 0. 0. 0. 0.
      0. 0. 0. 0. 0. 0. 0. 0. 0. 0. 0. 0. 0. 0. 0. 0. 0. 0. 0. 0. 0. 0.
      0. 0. 0. 0. 0. 0. 0. 0. 0. 0. 0. 0. 0. 0. 0. 0. 0. 0. 0. 0. 0. 0.
      0. 0. 0. 0. 0. 0. 0. 0. 0. 0. 0. 0. 0. 0. 0. 0. 0. 0. 0. 0. 0. 0.
      0. 0. 9.25811287e-03 0. 0. 0. 0. 0. 0. 0. 9.25811287e-03
      4.01184857e-02 0. 0. 0. 0. 0. 0. 0. 4.01184857e-02 2.11870968e-01
      0. 0. 0. 4.72142816e-01 0. 0. 0. 2.11870968e-01 4.75800991e-01 0.
      0. 0. 4.75800991e-01 0. 0. 0. 4.75800991e-01 4.40820009e-02 0. 0.
      0. 0. 0. 0. 0. 4.40820009e-02 0. 0. 0. 0. 0. 0. 0. 0. 0.
      5.74565411e-01 0. 0. 0. 5.74565411e-01 0. 0. 0. 5.74565411e-01 0.
      0. 0. 0. 0. 0. 0. 0. 0. 0. 0. 0. 0. 0. 0. 0. 0. 0. 0. 0. 0. 0. 0.
      0. 0. 0. 0. 0. 0. 0. 0. 0. 0. 0. 0. 0. 0. 0. 0. 0. 0. 0. 0. 0. 0.
      0. 0. 0. 0. 0. 0. 0. 0. 0. 0. 0. 0. 0. 0. 0. 0. 0. 0. 0. 0. 0. 0.
      0. 0. 0. 0. 0. 0. 0. 0. 0. 0. 0. 0. 0. 0. 0. 0. 0. 0. 0. 0. 0. 0.
      0. 0. 0. 0. 0. 0. 0. 0. 0. 0. 0. 0. 0. 0. 0. 0. 0. 0. 0. 0. 0. 0.
      0. 0. 0. 0. 0. 0. 0. 0. 0. 0. 0. 0. 0. 0. 0. 0. 0. 0. 0. 0. 0. 0.
      0. 0. 0. 0. 0. 0. 0. 0. 0. 0. 0. 0. 0. 0. 0. 0. 0. 0. 0. 0. 0. 0.
      0. 0. 0. 0. 0. 0. 0. 0. 0. 0. 0. 0. 0. 0. 0. 0. 0. 0. 0. 0. 0. 0.
      0. 0. 0. 0. 0. 0. 0. 0. 0. 0. 0. 0. 2.01784179e-01 0. 0. 0.
      4.65678126e-01 0. 0. 0. 2.01784179e-01 4.66032714e-01 0. 0. 0.
      4.66032714e-01 0. 0. 0. 4.66032714e-01 2.73940451e-02 0. 0. 0.
      3.10452078e-02 0. 0. 0. 2.73940451e-02 1.18707538e-01 0. 0. 0.
      1.21853605e-01 0. 0. 0. 1.18707538e-01 5.59132457e-01 0. 0. 0.
      5.59132457e-01 0. 0. 0. 5.59132457e-01 0. 0. 0. 0. 0. 0. 0. 0. 0.
      1.29375041e-01 0. 0. 0. 1.51833892e-01 0. 0. 0. 1.29375041e-01 0.
      0. 0. 0. 0. 0. 0. 0. 0. 0. 0. 0. 0. 0. 0. 0. 0. 0. 0. 0. 0. 0. 0.
      0. 0. 0. 0. 0. 0. 0. 0. 0. 0. 0. 0. 0. 0. 0. 0. 0. 0. 0. 0. 0. 0.
      0. 0. 0. 0. 0. 0. 0. 0. 0. 0. 0. 0. 0. 0. 0. 0. 0. 0. 0. 0. 0. 0.
      0. 0. 0. 0. 0. 0. 0. 0. 0. 0. 0. 0. 0. 0. 0. 0. 0. 0. 0. 0. 0. 0.
      0. 0. 0. 0. 0. 0. 0. 0. 0. 0. 0. 0. 0. 0. 0. 0. 0. 0. 0. 0. 0. 0.
      0. 0. 0. 0. 0. 0. 0. 0. 0. 0. 0. 0. 0. 0. 0. 0. 0. 0. 0. 0. 0. 0.
      0. 0. 0. 0. 0. 0. 0. 0. 0. 0. 0. 0. 0. 0. 0. 0. 0. 0. 0. 0. 0. 0.
      0. 0. 0. 0. 0. 0. 0. 0. 0. 0. 0. 0. 0. 0. 0. 0. 0. 0. 0. 0. 0. 0.
      0. 0. 0. 0. 0. 0. 0. 0. 0. 0. 0. 0. 0. 0. 0. 0. 0. 0. 0. 0. 0. 0.
      0. 0. 0. 0. 0. 0. 0. 0. 0. 0. 0. 0. 0. 0. 0. 0. 0. 0. 0. 0. 0. 0.
      0. 0. 0. 0. 0. 0. 0. 0. 0. 0. 0. 0. 0. 0. 0. 0. 0. 0. 0. 0. 0. 0.
      0. 0. 0. 0. 0. 0. 0. 0. 0. 0. 0. 0. 0. 0. 0. 0. 0. 0. 0. 0. 0. 0.
      0. 0. 0. 0. 0. 0. 0. 0. 0. 0. 0. 0. 0. 0. 0. 0. 0. 0. 0. 0. 0. 0.
      0. 0. 0. 0. 0. 0. 0. 0. 0. 0. 0. 0. 0. 0. 0. 0. 0. 0. 0. 0. 0. 0.
      0. 0. 0. 0. 0. 0. 0. 0. 0. 0. 0. 0. 0. 0. 0. 0. 0. 0. 0. 0. 0. 0.
      0. 0. 0. 0. 0. 0. 0. 0. 0. 0. 0. 0. 0. 0. 0. 0. 0. 0. 0. 0. 0. 0.
      0. 0. 0. 0. 0. 0. 0. 0. 0. 0. 0. 0. 0. 0. 0. 0. 0. 0. 0. 0. 0. 0.
      0. 0. 0. 0. 0. 0. 0. 0. 0. 0. 0. 0. 0. 0. 0. 0. 0. 0. 0. 0. 0. 0.
      0. 0. 0. 0. 0. 0. 0. 0. 0. 0. 0. 0. 0. 0. 0. 0. 0. 0. 0. 0. 0. 0.
      0. 0. 0. 0. 0. 0. 0. 0. 0. 0. 0. 0. 0. 0. 0. 0. 0. 0. 0. 0. 0. 0.
      0. 0. 0. 0. 0. 0. 0. 0. 0. 0. 0. 0. 0. 0. 0. 0. 0. 0. 0. 0. 0. 0.
      0. 0. 0. 0. 0. 0. 0. 0. 0. 0. 0. 0. 0. 0. 0. 0. 0. 0. 0. 0. 0. 0.
      0. 0. 0. 0. 0. 0. 0. 0. 0. 0. 0. 0. 0. 0. 0. 0. 0. 0. 0. 0. 0. 0.
      0. 0. 0. 0. 0. 0. 0. 0. 0. 0. 0. 0. 0. 0. 0. 0. 0. 0. 0. 0. 0. 0.
      0. 0. 0. 0. 0. 0. 0. 0. 0. 0. 0. 0. 0. 0. 0. 0. 0. 0. 0. 0. 0. 0.
      0. 0. 0. 0. 0. 0. 0. 0. 0. 0. 0. 0. 0. 0. 0. 0. 0. 0. 0. 0. 0. 0.
      0. 0. 0. 0. 0. 0. 0. 0. 0. 0. 0. 0. 0. 0. 0. 0. 0. 0. 0. 0. 0. 0.
      0. 0. 0. 0. 0. 0. 0. 0. 0. 0. 0. 0. 0. 0. 0. 0. 0. 0. 0. 0. 0. 0.
      0. 0. 0. 0. 0. 0. 0. 0. 0. 0. 0. 0. 0. 0. 0. 0. 0. 0. 0. 0. 0. 0.
      0. 0. 0. 0. 0. 0. 0. 0. 0. 0. 0. 0. 0. 0. 0. 0. 0. 0. 0. 0. 0. 0.
      0. 0. 0. 0. 0. 0. 0. 0. 0. 0. 0. 0. 0. 0. 0. 0. 0. 0. 0. 0. 0. 0.
      0. 0. 0. 0. 0. 0. 0. 0. 0. 0.</_>
    <_>
      0. 0. 0. 0. 0. 0. 0. 0. 0. 0. 0. 0. 0. 0. 0. 0. 0. 0. 0. 0. 0. 0.
      0. 0. 0. 0. 0. 0. 0. 0. 0. 0. 0. 0. 0. 0. 0. 0. 0. 0. 0. 0. 0. 0.
      0. 0. 0. 0. 0. 0. 0. 0. 0. 0. 0. 0. 0. 0. 0. 0. 0. 0. 0. 0. 0. 0.
      0. 0. 0. 0. 0. 0. 0. 0. 0. 0. 0. 0. 0. 0. 0. 0. 0. 0. 0. 0. 0. 0.
      0. 0. 0. 0. 0. 0. 0. 0. 0. 0. 0. 0. 0. 0. 0. 0. 0. 0. 0. 0. 0. 0.
      0. 0. 0. 0. 0. 0. 0. 0. 0. 0. 0. 0. 0. 0. 0. 0. 0. 0. 0. 0. 0. 0.
      0. 0. 0. 0. 0. 0. 0. 0. 0. 0. 0. 0. 0. 0. 0. 0. 0. 0. 0. 0. 0. 0.
      0. 0. 0. 0. 0. 0. 0. 0. 0. 0. 0. 0. 0. 0. 0. 0. 0. 0. 0. 0. 0. 0.
      0. 0. 0. 0. 0. 0. 0. 0. 0. 0. 0. 0. 0. 0. 0. 0. 0. 0. 0. 0. 0. 0.
      0. 0. 0. 0. 0. 0. 0. 0. 0. 0. 0. 0. 0. 0. 0. 0. 0. 0. 0. 0. 0. 0.
      0. 0. 0. 0. 0. 0. 0. 0. 0. 0. 0. 0. 0. 0. 0. 0. 0. 0. 0. 0. 0. 0.
      0. 0. 0. 0. 0. 0. 0. 0. 0. 0. 0. 0. 0. 0. 0. 0. 0. 0. 0. 0. 0. 0.
      0. 0. 0. 0. 0. 0. 0. 0. 0. 0. 0. 0. 0. 0. 0. 0. 0. 0. 0. 0. 0. 0.
      0. 0. 0. 0. 0. 0. 0. 0. 0. 0. 0. 0. 0. 0. 0. 0. 0. 0. 0. 0. 0. 0.
      0. 0. 0. 0. 0. 0. 0. 0. 0. 0. 0. 0. 0. 0. 0. 0. 0. 0. 0. 0. 0. 0.
      0. 0. 0. 0. 0. 0. 0. 0. 0. 0. 0. 0. 0. 0. 0. 0. 0. 0. 0. 0. 0. 0.
      0. 0. 0. 0. 0. 0. 0. 0. 0. 0. 0. 0. 0. 0. 0. 0. 0. 0. 0. 0. 0. 0.
      0. 0. 0. 0. 0. 0. 0. 0. 0. 0. 0. 0. 0. 0. 0. 0. 0. 0. 0. 0. 0. 0.
      0. 0. 0. 0. 0. 0. 0. 0. 0. 0. 0. 0. 0. 0. 0. 0. 0. 0. 0. 0. 0. 0.
      0. 0. 0. 0. 0. 0. 0. 0. 0. 0. 0. 0. 0. 0. 0. 0. 0. 0. 0. 0. 0. 0.
      0. 0. 0. 0. 0. 0. 0. 0. 0. 0. 0. 0. 0. 0. 0. 0. 0. 0. 0. 0. 0. 0.
      0. 0. 0. 0. 0. 0. 0. 0. 0. 0. 0. 0. 0. 0. 0. 0. 0. 0. 0. 0. 0. 0.
      0. 0. 0. 0. 0. 0. 0. 0. 0. 0. 0. 0. 0. 0. 0. 0. 0. 0. 0. 0. 0. 0.
      0. 0. 0. 0. 0. 0. 0. 0. 0. 0. 0. 0. 0. 0. 0. 0. 0. 0. 0. 0. 0. 0.
      0. 0. 0. 0. 0. 0. 0. 0. 0. 0. 0. 0. 0. 0. 0. 0. 0. 0. 0. 0. 0. 0.
      0. 0. 0. 0. 0. 0. 0. 0. 0. 0. 0. 0. 0. 0. 0. 0. 0. 0. 0. 0. 0. 0.
      0. 0. 0. 0. 0. 0. 0. 0. 0. 0. 0. 0. 0. 0. 0. 0. 0. 0. 0. 0. 0. 0.
      0. 0. 0. 0. 0. 0. 0. 0. 0. 0. 0. 0. 0. 0. 0. 0. 0. 0. 0. 0. 0. 0.
      0. 0. 0. 0. 0. 0. 0. 0. 0. 0. 0. 0. 0. 0. 0. 0. 0. 0. 0. 0. 0. 0.
      0. 0. 0. 0. 0. 0. 0. 0. 0. 0. 0. 0. 0. 0. 0. 0. 0. 0. 0. 0. 0. 0.
      0. 0. 0. 0. 0. 0. 0. 0. 0. 0. 0. 0. 0. 0. 0. 0. 0. 0. 0. 0. 0. 0.
      0. 0. 0. 0. 0. 0. 0. 0. 0. 0. 0. 0. 0. 0. 0. 0. 0. 0. 0. 0. 0. 0.
      0. 0. 0. 0. 0. 0. 0. 0. 0. 0. 0. 0. 0. 0. 0. 0. 0. 0. 0. 0. 0. 0.
      0. 0. 0. 0. 0. 0. 0. 0. 0. 0. 0. 0. 0. 0. 0. 0. 0. 0. 0. 0. 0. 0.
      0. 0. 0. 0. 0. 0. 0. 0. 0. 0. 0. 0. 0. 0. 0. 0. 0. 0. 0. 0. 0. 0.
      0. 0. 0. 0. 0. 0. 0. 0. 0. 0. 0. 0. 0. 0. 0. 0. 0. 0. 0. 0. 0. 0.
      0. 0. 0. 0. 0. 0. 0. 0. 0. 0. 0. 0. 0. 0. 0. 0. 0. 0. 0. 0. 0. 0.
      0. 0. 0. 0. 0. 7.04615593e-01 0. 0. 0. 0. 0. 0. 0. 7.04615593e-01
      0. 0. 0. 0. 0. 0. 0. 0. 0. 0. 0. 0. 0. 0. 0. 0. 0. 0.
      3.96967620e-01 0. 0. 0. 0. 0. 0. 0. 3.96967620e-01 4.74634856e-01
      2.51420707e-01 4.07828212e-01 0. 0. 0. 0. 0. 4.74634856e-01 0. 0.
      0. 0. 0. 0. 0. 0. 0. 9.43927933e-03 1.79931277e-03 1.16322357e-02
      0. 0. 0. 0. 0. 9.43927933e-03 1.72879353e-01 1.89365014e-01
      3.77816886e-01 8.61718133e-03 1.61174685e-02 3.33984685e-03 0. 0.
      1.71257600e-01 3.77816886e-01 3.77816886e-01 3.77816886e-01
      5.00248522e-02 3.77816886e-01 1.44726699e-02 1.78651407e-01
      9.68810841e-02 3.77816886e-01 3.06021217e-02 3.53811635e-03
      2.28732880e-02 0. 0. 6.20659022e-03 1.04028611e-02 0.
      3.06021217e-02 2.38016490e-02 1.60823483e-03 1.03969499e-02 0. 0.
      7.97990058e-03 1.33751072e-02 0. 2.38016490e-02 3.32229018e-01
      1.83914080e-01 3.32229018e-01 1.91124454e-02 3.32229018e-01
      9.69502926e-02 2.85277098e-01 7.00825602e-02 3.32229018e-01
      3.32229018e-01 7.39016160e-02 1.62876189e-01 6.11683412e-04
      3.32229018e-01 1.19698510e-01 2.09242225e-01 4.67217062e-03
      3.32229018e-01 0. 0. 0. 0. 0. 1.45645300e-02 2.44116001e-02 0. 0.
      0. 0. 0. 0. 0. 0. 0. 0. 0. 5.20315349e-01 0. 0. 0. 5.20315349e-01
      2.18467936e-01 3.66174012e-01 0. 5.20315349e-01 0. 0. 0. 0. 0. 0.
      0. 0. 0. 0. 0. 0. 0. 0. 0. 0. 0. 0. 0. 0. 0. 0. 0. 0. 0. 0. 0. 0.
      0. 0. 0. 0. 0. 0. 0. 0. 0. 0. 0. 0. 0. 0. 0. 0. 0. 0. 0. 0. 0. 0.
      0. 0. 0. 0. 0. 0. 0. 0. 0. 0. 0. 0. 0. 0. 0. 0. 0. 0. 0. 0. 0. 0.
      0. 0. 0. 0. 0. 0. 0. 0. 0. 0. 1.33197987e-03 6.75669964e-03 0.
      4.25887434e-03 0. 0. 0. 0. 1.29814684e-01 5.36151826e-02
      1.47781760e-01 1.16640935e-03 1.50960416e-01 0. 5.69274984e-02
      4.30454947e-02 1.32904485e-01 0. 8.91554635e-03 4.62183096e-02
      2.51005142e-04 1.69522166e-01 0. 2.30954122e-02 1.19597779e-03 0.
      2.65545189e-01 3.22499365e-01 3.78400296e-01 6.05481938e-02
      3.78400296e-01 5.22566028e-02 3.78400296e-01 3.54950517e-01
      3.75612646e-01 9.23105404e-02 2.34341733e-02 3.91252413e-02
      4.15130286e-03 1.07279807e-01 0. 3.82027924e-02 2.53725033e-02
      7.69293606e-02 2.47582138e-01 1.01022862e-01 1.34239748e-01
      1.36154229e-02 8.43023509e-02 0. 2.32241508e-02 1.33022387e-02
      1.73305184e-01 2.13271186e-01 1.56140178e-01 2.73811728e-01
      6.03275448e-02 2.77445495e-01 1.83573496e-02 2.77445495e-01
      2.01712891e-01 2.62547761e-01 2.77445495e-01 2.77445495e-01
      2.77445495e-01 1.26471162e-01 2.67653257e-01 5.94156142e-03
      1.42110899e-01 1.06581368e-01 2.77445495e-01 1.87549233e-01
      1.34255797e-01 2.30599657e-01 9.76578984e-03 2.48640068e-02
      1.93850661e-03 1.08786102e-03 3.63544066e-04 1.49713665e-01
      2.25014895e-01 1.82691544e-01 2.64404923e-01 2.20480245e-02
      2.21860781e-01 8.40019621e-03 3.81463282e-02 2.06864160e-02
      2.25500122e-01 2.64404923e-01 2.64241815e-01 2.64404923e-01
      3.48487385e-02 1.07440263e-01 1.50772731e-03 4.71406477e-03
      1.57535763e-03 2.64404923e-01 2.64404923e-01 1.97544619e-01
      2.64404923e-01 1.65508781e-02 2.64404923e-01 6.53348537e-03
      8.80299788e-03 4.77378815e-03 2.64404923e-01 2.86771864e-01
      9.96406972e-02 2.86771864e-01 1.59883816e-02 2.86771864e-01
      2.11749543e-02 8.83767679e-02 3.31852622e-02 2.86771864e-01
      2.21974015e-01 1.84986349e-02 3.25707011e-02 4.77539434e-04
      2.86771864e-01 2.08511278e-02 3.90282013e-02 2.21235072e-03
      1.87430754e-01 2.86771864e-01 7.04639629e-02 1.91903993e-01
      8.58454406e-03 2.86771864e-01 3.85576370e-03 1.41218174e-02
      7.65813654e-03 2.86771864e-01 2.33022973e-01 9.53092473e-04
      2.45633093e-03 2.17063382e-04 2.86771864e-01 0. 9.41454491e-04
      5.10542479e-04 2.30720103e-01 4.06699389e-01 0. 0. 0.
      4.06699389e-01 3.03585939e-02 5.08840233e-02 0. 4.06699389e-01 0.
      0. 0. 0. 0. 0. 0. 0. 0. 4.06699389e-01 0. 0. 0. 4.06699389e-01 0.
      0. 0. 4.06699389e-01 0. 0. 0. 0. 0. 0. 0. 0. 0. 0. 0. 0. 0. 0. 0.
      0. 0. 0. 0. 0. 0. 0. 0. 0. 0. 0. 0. 0. 0. 0. 0. 0. 0. 0. 0. 0. 0.
      0. 0. 0. 0. 0. 0. 0. 0. 0. 0. 0. 0. 0. 0. 0. 0. 0. 0. 0. 0. 0. 0.
      0. 0. 0. 0. 0. 0. 0. 0. 0. 0. 0. 0. 0. 0. 0. 0. 0. 0. 0. 0. 0. 0.
      0. 3.89246712e-03 2.03722604e-02 2.25388867e-04 1.49329305e-01 0.
      4.13477905e-02 2.82194209e-03 0. 1.59203991e-01 1.53505221e-01
      3.77079815e-01 4.81873266e-02 3.77079815e-01 8.85204077e-02
      3.77079815e-01 3.67919743e-01 3.35215151e-01 0. 0. 0.
      1.50259248e-05 1.58429928e-02 0. 1.36115607e-02 1.24914350e-03 0.
      1.20546341e-01 6.61296071e-03 3.35520576e-03 2.57722568e-03
      9.10063088e-02 2.67727952e-02 3.77079815e-01 1.59504488e-01
      2.16230541e-01 2.06332624e-01 1.22896403e-01 1.86191529e-01
      4.43535969e-02 2.25438729e-01 3.88179533e-02 2.75423259e-01
      1.63993061e-01 2.75423259e-01 2.75423259e-01 2.75423259e-01
      2.75423259e-01 8.23755264e-02 2.66911566e-01 1.50078544e-02
      8.47156793e-02 6.51769862e-02 2.75423259e-01 1.47531733e-01
      1.51867000e-02 1.72423255e-02 4.21148026e-03 4.94459569e-02
      1.41381137e-02 1.40623584e-01 5.05106859e-02 2.39893153e-01
      2.75423259e-01 4.01332527e-02 8.15688595e-02 8.81077163e-03
      1.16711311e-01 6.52991980e-03 1.57945417e-02 9.23688337e-03
      2.75423259e-01 2.92200297e-01 2.85521418e-01 2.92200297e-01
      4.55750972e-02 2.92200297e-01 0. 3.24003794e-03 1.08276366e-03
      2.92200297e-01 2.92200297e-01 1.48685411e-01 2.92200297e-01
      1.11118080e-02 2.92200297e-01 0. 0. 0. 2.92200297e-01
      2.38076806e-01 7.17277378e-02 1.25278309e-01 9.01817810e-03
      1.73862532e-01 0. 0. 0. 2.41120651e-01 8.97254869e-02
      5.30236065e-02 7.01006129e-02 2.95468862e-03 1.35593846e-01 0. 0.
      0. 8.97254869e-02 3.41330945e-01 7.01595619e-02 1.29288748e-01
      3.12137255e-03 3.41330945e-01 0. 0. 0. 3.41330945e-01
      3.41330945e-01 0. 0. 0. 3.41330945e-01 0. 0. 0. 3.41330945e-01
      5.17280772e-02 2.06530411e-02 2.54500713e-02 5.70775010e-04
      1.32005423e-01 0. 0. 0. 5.17280772e-02 2.60329366e-01 0. 0. 0.
      3.41330945e-01 0. 0. 0. 2.60329366e-01 4.04620379e-01 0. 0. 0.
      4.04620379e-01 0. 0. 0. 4.04620379e-01 0. 0. 0. 0. 0. 0. 0. 0. 0.
      4.04620379e-01 0. 0. 0. 4.04620379e-01 0. 0. 0. 4.04620379e-01
      2.48558205e-02 0. 0. 0. 1.11428991e-01 0. 0. 0. 2.48558205e-02 0.
      0. 0. 0. 0. 0. 0. 0. 0. 0. 0. 0. 0. 0. 0. 0. 0. 0. 0. 0. 0. 0. 0.
      0. 0. 0. 0. 0. 0. 0. 0. 0. 0. 0. 0. 0. 0. 0. 0. 0. 0. 0. 0. 0. 0.
      0. 0. 0. 0. 0. 0. 0. 0. 0. 0. 0. 0. 0. 0. 0. 0. 0. 0. 0. 0. 0. 0.
      0. 0. 0. 0. 0. 0. 0. 0. 0. 0. 0. 0. 0. 0. 7.04615593e-01 0. 0. 0.
      0. 0. 0. 0. 7.04615593e-01 0. 0. 0. 0. 0. 0. 0. 0. 0. 0. 0. 0. 0.
      0. 0. 0. 0. 0. 4.98753130e-01 0. 0. 0. 0. 0. 0. 0. 4.98753130e-01
      4.98753130e-01 0. 0. 0. 0. 0. 0. 0. 4.98753130e-01 0. 0. 0. 0. 0.
      0. 0. 0. 0. 0. 0. 0. 0. 0. 0. 0. 0. 0. 6.85637236e-01 0. 0. 0. 0.
      0. 0. 0. 6.85637236e-01 1.62724569e-01 0. 0. 0. 0. 0. 0. 0.
      1.62724569e-01 0. 0. 0. 0. 0. 0. 0. 0. 0. 0. 0. 0. 0. 0. 0. 0. 0.
      0. 3.52890231e-02 0. 0. 0. 1.64660081e-01 0. 0. 0. 3.52890231e-02
      4.70045239e-01 0. 0. 0. 4.70045239e-01 0. 0. 0. 4.70045239e-01
      9.41835251e-03 0. 0. 0. 3.79984789e-02 0. 0. 0. 9.41835251e-03
      2.50665277e-01 0. 0. 0. 4.19030279e-01 0. 0. 0. 2.50665277e-01
      4.70032990e-01 0. 0. 0. 4.70032990e-01 0. 0. 0. 4.70032990e-01
      3.46543156e-02 0. 0. 0. 1.72559381e-01 0. 0. 0. 3.46543156e-02
      2.47408256e-01 0. 0. 0. 4.19708371e-01 0. 0. 0. 2.47408256e-01
      9.24895518e-03 0. 0. 0. 3.98213975e-02 0. 0. 0. 9.24895518e-03 0.
      0. 0. 0. 0. 0. 0. 0. 0. 0. 0. 0. 0. 0. 0. 0. 0. 0. 0. 0. 0. 0. 0.
      0. 0. 0. 0. 0. 0. 0. 0. 0. 0. 0. 0. 0.</_>
    <_>
      0. 0. 0. 0. 0. 0. 0. 0. 0. 1.81625277e-01 6.64856285e-02
      2.38312110e-01 0. 4.08326358e-01 0. 7.72669166e-03 8.53172410e-03
      1.81625277e-01 0. 0. 0. 0. 0. 0. 0. 0. 0. 4.08326358e-01
      4.13317010e-02 1.29601389e-01 0. 4.08326358e-01 8.08559079e-03
      4.08326358e-01 1.27975866e-01 4.08326358e-01 1.70152351e-01
      7.03460425e-02 2.22654045e-01 0. 2.95423806e-01 0. 6.11197539e-02
      2.32619327e-02 1.70152351e-01 1.14499323e-01 4.64898497e-02
      1.29001677e-01 0. 2.25113526e-01 0. 1.06849752e-01 2.74725202e-02
      1.14499323e-01 2.95423806e-01 4.64898497e-02 1.29001677e-01 0.
      2.95423806e-01 3.88565240e-03 2.95423806e-01 1.65479898e-01
      2.95423806e-01 2.10158765e-01 3.31040919e-02 8.69473517e-02 0.
      2.95423806e-01 8.96688958e-04 2.95423806e-01 1.35483712e-01
      2.10158765e-01 2.40441225e-02 8.03030748e-03 2.61713490e-02 0.
      5.65519929e-02 0. 3.36035416e-02 5.77976834e-03 2.16667652e-02
      1.80003271e-01 1.76666770e-02 5.75769693e-02 0. 2.30812430e-01 0.
      7.05177635e-02 5.15024783e-03 1.69701383e-01 1.80649295e-01
      3.89871746e-02 1.54429391e-01 0. 2.96320707e-01 0. 9.33577195e-02
      2.00590901e-02 1.44988924e-01 3.72507513e-01 1.25225320e-01
      3.72507513e-01 0. 3.72507513e-01 0. 3.41529220e-01 6.08351044e-02
      3.72507513e-01 1.02258004e-01 2.91604036e-03 9.50358436e-03 0.
      1.57338053e-01 0. 3.16396505e-02 2.31079408e-03 9.94544923e-02
      5.14410846e-02 3.77470367e-02 2.01839715e-01 1.53494114e-02
      1.43353090e-01 0. 0. 0. 3.54198217e-02 3.15955043e-01
      1.06312729e-01 1.98265761e-01 1.03048459e-02 3.15955043e-01
      2.39335728e-04 3.15955043e-01 1.49451166e-01 3.15955043e-01
      2.45180666e-01 1.75135419e-01 3.15955043e-01 6.89353347e-02
      3.15955043e-01 5.26538643e-04 2.37893105e-01 1.14607580e-01
      2.15635017e-01 1.16841182e-01 6.97114319e-02 1.93339109e-01
      2.67354548e-02 1.41836926e-01 3.93008767e-03 1.90891363e-02
      1.40024452e-02 8.97738785e-02 2.64451087e-01 1.08814307e-01
      2.40271881e-01 2.46026814e-02 2.69897908e-01 5.45766726e-02
      2.43894577e-01 7.03422502e-02 2.33277604e-01 2.14989960e-01
      1.50420353e-01 2.69897908e-01 7.31474906e-02 2.69897908e-01
      4.04920802e-03 2.11595856e-02 1.29147284e-02 1.43464372e-01
      2.69897908e-01 1.61936998e-01 2.69897908e-01 5.54139800e-02
      2.69897908e-01 2.91841663e-02 1.14325814e-01 3.82396095e-02
      2.69897908e-01 1.91001952e-01 6.50945082e-02 1.36784092e-01
      2.59994785e-03 2.44271398e-01 4.58636247e-02 1.84602469e-01
      5.14396951e-02 1.71961039e-01 2.21515283e-01 9.38480571e-02
      1.89638168e-01 2.35887687e-03 2.44271398e-01 2.60868985e-02
      2.27628723e-01 9.28126574e-02 1.81617275e-01 2.44271398e-01
      7.45637789e-02 1.83075637e-01 5.21311024e-03 2.44271398e-01
      2.83471718e-02 1.34463683e-01 2.79240478e-02 2.44271398e-01
      2.44271398e-01 1.33431971e-01 2.44271398e-01 8.90047103e-03
      2.44271398e-01 4.49617319e-02 2.44271398e-01 1.12086736e-01
      2.31372997e-01 1.69996426e-01 5.96030094e-02 1.45637766e-01
      1.66892412e-03 2.72571355e-01 1.23556955e-02 2.72571355e-01
      1.25024453e-01 1.41551048e-01 7.47783706e-02 1.59996208e-02
      4.57387939e-02 5.90057299e-03 1.17304094e-01 4.07930650e-03
      1.68161482e-01 4.38058935e-02 6.79466948e-02 1.87870756e-01
      1.21920049e-01 2.72571355e-01 1.83315985e-02 2.72571355e-01
      8.47015604e-02 2.72571355e-01 2.13241771e-01 1.65521249e-01
      2.22525313e-01 6.63079843e-02 2.56465107e-01 6.69416711e-02
      2.72571355e-01 7.04387352e-02 2.72571355e-01 1.30445302e-01
      2.33393863e-01 0. 0. 0. 0. 0. 0. 0. 0. 0. 4.28783625e-01 0. 0. 0.
      4.28783625e-01 1.42960595e-02 4.28783625e-01 1.37241498e-01
      4.28783625e-01 0. 0. 0. 0. 0. 0. 0. 0. 0. 2.27415368e-01
      3.67181152e-02 2.61402279e-01 2.99338042e-03 2.56639540e-01
      9.53070645e-04 3.75433490e-02 3.94776277e-03 2.29258910e-01
      2.72503108e-01 0. 0. 0. 2.72867858e-01 5.41432761e-03
      2.72867858e-01 1.17000476e-01 2.72503108e-01 1.66510403e-01
      2.41235290e-02 8.71639699e-02 1.36492553e-03 2.72867858e-01
      1.24946015e-03 2.12341368e-01 8.67868736e-02 1.66510403e-01
      1.88177466e-01 2.29274519e-02 1.30513981e-01 1.85310692e-02
      1.21831968e-01 1.61664851e-03 1.25363007e-01 6.03145137e-02
      1.90075338e-01 2.60836750e-01 1.01988167e-01 2.27495432e-01
      6.15513436e-02 2.72867858e-01 2.84582260e-03 2.72867858e-01
      1.41638219e-01 2.62312889e-01 9.97835025e-02 3.04790642e-02
      1.39243603e-01 2.04842966e-02 1.97340190e-01 0. 2.84743439e-02
      7.48980464e-03 9.20936540e-02 2.84164339e-01 7.10804835e-02
      2.54587531e-01 2.52525713e-02 2.84164339e-01 0. 9.61737856e-02
      5.14024720e-02 2.84164339e-01 2.06428647e-01 7.26280659e-02
      2.31304035e-01 4.90715094e-02 2.84164339e-01 2.15122520e-04
      1.21167198e-01 5.49673662e-02 2.06428647e-01 2.84164339e-01
      7.57407919e-02 2.84164339e-01 3.95059064e-02 2.84164339e-01 0.
      1.18692912e-01 6.54623508e-02 2.84164339e-01 1.74506962e-01
      7.83364549e-02 1.42905295e-01 2.92114187e-02 2.41771087e-01
      4.28657484e-04 2.14556843e-01 1.42034546e-01 1.76632270e-01
      1.16871350e-01 9.61196199e-02 1.71153173e-01 5.76469041e-02
      2.41771087e-01 8.28646473e-04 2.27874696e-01 1.56840265e-01
      9.60017443e-02 2.11129859e-01 9.52511504e-02 1.85756773e-01
      4.64854613e-02 2.41771087e-01 8.56516697e-03 2.41771087e-01
      1.28205031e-01 1.77501902e-01 2.41771087e-01 1.42959014e-01
      2.41771087e-01 1.00766294e-01 2.41771087e-01 1.12282038e-02
      2.41771087e-01 1.93263024e-01 1.64403573e-01 1.78506136e-01
      9.66800973e-02 2.52811193e-01 3.88155729e-02 2.65551180e-01
      7.22688215e-04 4.46135104e-02 3.35249789e-02 1.47607639e-01
      2.65551180e-01 8.05697367e-02 2.21604198e-01 2.44299918e-02
      2.65551180e-01 1.98289845e-02 4.88999821e-02 9.58967302e-03
      2.65551180e-01 2.36139163e-01 8.68937299e-02 2.41252407e-01
      3.84878293e-02 2.65551180e-01 3.39557254e-03 1.24642260e-01
      7.55631253e-02 2.00695500e-01 2.65551180e-01 5.59538603e-02
      1.37455404e-01 4.05983478e-02 2.65551180e-01 6.56447932e-02
      1.71738520e-01 2.43121330e-02 2.65551180e-01 2.40910247e-01
      3.92073095e-02 1.15692325e-01 1.42996870e-02 2.53865182e-01
      3.00938692e-02 1.19182400e-01 4.70937826e-02 2.28611365e-01
      1.88469335e-01 4.92953584e-02 1.36375934e-01 3.86192501e-02
      2.53865182e-01 4.47287150e-02 2.49945477e-01 9.76260975e-02
      1.72996476e-01 2.03355536e-01 8.58666375e-02 1.33892968e-01
      5.87319061e-02 2.53865182e-01 8.79087895e-02 2.53865182e-01
      1.22242846e-01 1.68267399e-01 2.34217495e-01 1.12507887e-01
      1.83663338e-01 8.38862062e-02 2.53865182e-01 5.23212627e-02
      2.53865182e-01 1.77325636e-01 2.06141800e-01 1.22574851e-01
      6.90495819e-02 1.42817751e-01 3.64855938e-02 2.44773299e-01
      8.17927867e-02 2.37190410e-01 6.93797618e-02 1.37924761e-01
      1.93092853e-01 5.85754029e-02 2.03423560e-01 3.16567346e-02
      2.44773299e-01 6.88228235e-02 2.44773299e-01 5.03122620e-02
      2.23491132e-01 2.44773299e-01 9.75376517e-02 2.14007795e-01
      5.11498936e-02 2.44773299e-01 4.66825068e-02 1.68733463e-01
      5.99398203e-02 2.44773299e-01 2.44773299e-01 5.28375134e-02
      1.75388709e-01 8.10968969e-03 2.44773299e-01 3.53371054e-02
      2.41797090e-01 6.48099929e-02 2.44773299e-01 3.48395184e-02
      3.41210933e-03 1.46707492e-02 0. 4.05252054e-02 0. 0. 0.
      3.48395184e-02 1.29381314e-01 3.77316810e-02 3.03015262e-01
      3.06765642e-03 3.03015262e-01 0. 5.82498796e-02 1.72546171e-02
      1.26895189e-01 3.03015262e-01 1.24362797e-01 3.03015262e-01 0.
      3.03015262e-01 0. 0. 0. 3.03015262e-01 3.03015262e-01
      5.99639900e-02 3.03015262e-01 2.38595507e-03 3.03015262e-01 0.
      1.28149733e-01 3.22062448e-02 3.03015262e-01 1.85432434e-01
      5.07239997e-02 2.06839994e-01 2.38244031e-02 1.46311507e-01
      1.61437772e-03 1.35125935e-01 5.55854924e-02 1.44731566e-01
      2.47046709e-01 1.13809869e-01 2.16838658e-01 7.61114880e-02
      2.54713923e-01 3.55163077e-03 2.54713923e-01 9.86518711e-02
      1.73590809e-01 2.45500669e-01 8.22831765e-02 2.22286254e-01
      1.85300913e-02 2.09400192e-01 1.25562702e-03 1.26799673e-01
      3.80911529e-02 1.99752539e-01 2.54713923e-01 2.04183206e-01
      2.54713923e-01 6.07166216e-02 2.54713923e-01 2.76237959e-03
      1.80717036e-01 5.06044589e-02 2.52366453e-01 1.69479594e-01
      1.12600423e-01 2.08706453e-01 6.66938424e-02 2.82637805e-01
      1.48537871e-03 1.16451621e-01 7.79033825e-02 1.53012916e-01
      1.87436998e-01 6.90590739e-02 1.62496909e-01 1.85444225e-02
      2.82637805e-01 1.77463377e-03 7.24519119e-02 5.52686900e-02
      1.95417285e-01 2.16620281e-01 1.59974754e-01 2.82637805e-01
      5.77640869e-02 2.82637805e-01 1.26276761e-02 7.03199133e-02
      4.92650755e-02 2.03949720e-01 2.23912284e-01 1.21768616e-01
      2.82637805e-01 2.35125851e-02 2.82637805e-01 2.66195107e-02
      7.00120851e-02 5.21321297e-02 2.71009743e-01 1.50542229e-01
      7.87057206e-02 1.79611355e-01 7.46996095e-03 2.54718989e-01
      6.83835521e-03 1.59140587e-01 4.33094427e-02 1.39499053e-01
      2.54694253e-01 9.44660231e-02 2.37954512e-01 2.56759692e-02
      2.54718989e-01 8.42460897e-03 2.48376027e-01 8.54696631e-02
      2.24153847e-01 1.52294621e-01 9.09827873e-02 2.54718989e-01
      4.36562533e-03 2.54718989e-01 5.15724160e-03 1.07881144e-01
      4.87037376e-02 1.66206047e-01 2.54718989e-01 6.03107661e-02
      2.44234040e-01 3.28617319e-02 2.54718989e-01 7.94285908e-03
      1.93753481e-01 9.94523913e-02 2.54718989e-01 2.00885117e-01
      5.66101670e-02 1.77989334e-01 1.58286449e-02 2.40434870e-01
      3.63079133e-03 1.02296256e-01 4.68604825e-02 1.99162349e-01
      2.40434870e-01 1.01019606e-01 2.40434870e-01 2.38253679e-02
      2.40434870e-01 5.96323982e-02 6.97055012e-02 1.94841921e-02
      2.40434870e-01 2.29946673e-01 3.59539911e-02 1.56846628e-01
      4.05649915e-02 2.40434870e-01 1.44099528e-02 1.58401623e-01
      1.07284747e-01 2.40434870e-01 2.16512486e-01 1.30532801e-01
      2.40434870e-01 1.63078550e-02 2.40434870e-01 9.75386128e-02
      2.31252566e-01 1.66474700e-01 2.40434870e-01 1.88668102e-01
      1.23971738e-01 2.09946081e-01 3.38936038e-02 2.15556696e-01
      6.96532950e-02 1.18531920e-01 4.54937667e-02 1.99316218e-01
      2.22793579e-01 1.05693288e-01 1.77132443e-01 2.36278102e-02
      2.22793579e-01 3.12284864e-02 2.22793579e-01 1.01379469e-01
      2.22793579e-01 2.22793579e-01 1.33098066e-01 2.06693217e-01
      1.19677326e-02 2.02083468e-01 7.15141073e-02 2.04530299e-01
      1.15893438e-01 2.22793579e-01 2.22793579e-01 1.51636973e-01
      2.22793579e-01 1.86107121e-02 2.22793579e-01 2.16443222e-02
      2.22793579e-01 9.19216499e-02 2.22793579e-01 2.37467647e-01
      4.35830951e-02 1.81640863e-01 1.39437616e-02 2.37467647e-01
      1.61226895e-02 2.03636944e-01 8.63924772e-02 2.37467647e-01
      2.37467647e-01 2.98603661e-02 1.92520201e-01 1.12791676e-02
      2.37467647e-01 6.93408120e-03 1.56064689e-01 7.63418153e-02
      2.37467647e-01 2.37467647e-01 1.01781800e-01 2.37467647e-01
      1.74475405e-02 2.37467647e-01 1.17483996e-02 1.91776901e-01
      9.99465883e-02 2.37467647e-01 2.37467647e-01 3.42287607e-02
      1.32535771e-01 8.24156310e-03 2.37467647e-01 5.94883505e-03
      1.48330033e-01 1.16356634e-01 2.37467647e-01 2.80836850e-01
      5.71691953e-02 1.56164140e-01 3.07394424e-03 2.80836850e-01
      1.59060601e-02 1.16780713e-01 2.59022973e-02 2.80836850e-01
      2.09646747e-01 1.06735779e-02 3.11326180e-02 0. 2.80836850e-01
      2.26141463e-04 3.16953696e-02 1.08884443e-02 2.11280927e-01
      2.80836850e-01 1.05680920e-01 1.83278620e-01 8.10098462e-03
      2.80836850e-01 4.75366451e-02 2.80836850e-01 1.33507341e-01
      2.80836850e-01 1.96979910e-01 3.19388136e-02 7.71615952e-02 0.
      2.80836850e-01 3.39212199e-03 5.59027046e-02 2.93377042e-02
      1.99156865e-01 1.32650524e-01 3.74805070e-02 1.10910513e-01 0.
      2.45242909e-01 0. 2.06143539e-02 4.54982184e-03 1.26424223e-01
      2.03726128e-01 1.52713820e-01 2.96470851e-01 9.28467081e-04
      2.96470851e-01 0. 1.96117088e-02 1.00991046e-02 1.88303515e-01
      1.90342590e-01 5.64081296e-02 2.55511552e-01 0. 2.96470851e-01 0.
      4.46532555e-02 8.25452991e-03 2.01273397e-01 2.96470851e-01
      1.17357485e-01 2.96470851e-01 1.41955016e-03 2.96470851e-01 0.
      1.07516475e-01 2.28115581e-02 2.96470851e-01 1.78164631e-01
      9.63854566e-02 2.61334449e-01 1.76957194e-02 3.05395603e-01
      9.42228734e-03 3.53724249e-02 3.04654110e-02 1.79571792e-01
      2.42370412e-01 7.71768019e-02 2.12018222e-01 2.70323493e-02
      3.05395603e-01 2.07290333e-02 8.81871060e-02 4.90250774e-02
      2.66191781e-01 2.28516623e-01 3.32868770e-02 1.20092802e-01
      9.29070357e-03 3.05395603e-01 0. 5.25422953e-02 2.43990794e-02
      2.30127558e-01 2.78203458e-01 1.38235502e-02 5.05806953e-02
      1.31846834e-02 3.05395603e-01 0. 6.02438934e-02 4.87674251e-02
      2.78203458e-01 1.86954036e-01 4.62336577e-02 1.38863772e-01
      1.10629415e-02 2.81875104e-01 6.34583598e-03 1.24829523e-01
      4.89611961e-02 1.88713357e-01 2.39952654e-01 2.41577514e-02
      1.27597451e-01 4.76698764e-02 2.81875104e-01 2.74156798e-02
      2.36451775e-01 9.28349420e-02 2.35893115e-01 2.81875104e-01
      2.00830046e-02 4.25816588e-02 1.15396231e-02 2.81875104e-01
      4.58062440e-03 1.11248314e-01 5.97605556e-02 2.76010543e-01
      2.81875104e-01 2.09283736e-02 7.75655359e-02 3.30987833e-02
      2.81875104e-01 1.92113966e-02 1.98201776e-01 6.37829229e-02
      2.58696645e-01 1.92473784e-01 1.18909162e-02 9.27923620e-02
      6.29932210e-02 2.63764322e-01 2.56936643e-02 2.29704931e-01
      1.25503078e-01 2.18754038e-01 1.65378898e-01 5.17642200e-02
      1.06873028e-01 2.19798069e-02 2.63764322e-01 6.64005578e-02
      2.63764322e-01 2.38231495e-01 2.63764322e-01 1.82233661e-01
      3.27186249e-02 1.27445936e-01 3.74430791e-02 2.63764322e-01
      1.14337383e-02 1.34110540e-01 4.61895242e-02 1.78521529e-01
      2.34441623e-01 1.91531200e-02 8.84005576e-02 1.74815785e-02
      2.63764322e-01 6.82392996e-03 2.45569989e-01 1.12360530e-01
      2.63764322e-01 1.79331511e-01 8.99703279e-02 1.88245848e-01
      7.91143253e-03 2.35582948e-01 4.09789942e-02 2.35582948e-01
      1.96200252e-01 2.35582948e-01 2.35582948e-01 1.51658490e-01
      2.35582948e-01 4.95065972e-02 2.35582948e-01 7.50282640e-03
      2.26484597e-01 9.11390856e-02 2.35582948e-01 2.02198431e-01
      1.46560138e-02 7.18360245e-02 7.97863025e-03 2.35582948e-01
      3.91220069e-03 1.67357042e-01 9.74027589e-02 2.35582948e-01
      2.29365632e-01 3.32403779e-02 1.71467856e-01 2.23808568e-02
      2.35582948e-01 1.57475646e-03 1.32398382e-01 3.90023589e-02
      2.34761760e-01 2.38941863e-01 1.33303776e-01 2.38941863e-01
      6.07557260e-02 2.38941863e-01 3.99029255e-03 2.29982644e-01
      7.47485682e-02 2.38941863e-01 2.38941863e-01 2.52798349e-02
      9.21385363e-02 9.39942617e-03 2.38941863e-01 2.01708209e-02
      2.38941863e-01 1.64884627e-01 2.38941863e-01 1.81245059e-01
      5.28272651e-02 2.06996515e-01 3.30941863e-02 2.13276923e-01
      2.08987482e-03 1.51047155e-01 2.52952669e-02 1.93303049e-01
      1.93456754e-01 1.82477757e-02 5.15661128e-02 7.66671402e-03
      2.38941863e-01 1.32468753e-02 2.38941863e-01 1.70168728e-01
      2.33254537e-01 2.78023928e-01 5.52702472e-02 8.89216736e-02
      7.02945329e-03 2.78023928e-01 2.02337112e-02 2.45352730e-01
      1.71539709e-01 2.78023928e-01 1.25909135e-01 2.57648993e-02
      5.66629022e-02 0. 2.78023928e-01 1.67235790e-03 4.16802615e-02
      2.08894648e-02 1.26533628e-01 2.78023928e-01 9.74480063e-03
      3.42224389e-02 8.73220433e-03 2.78023928e-01 1.38088102e-02
      2.78023928e-01 1.95863113e-01 2.78023928e-01 1.66305497e-01
      2.43102829e-03 4.70148120e-03 0. 2.78023928e-01 1.01972802e-03
      2.48370662e-01 7.52268657e-02 1.66305497e-01 1.92316964e-01
      4.96439748e-02 1.88093156e-01 0. 2.78670073e-01 0. 3.80599760e-02
      9.69757885e-03 2.04013497e-01 2.94241875e-01 4.88130599e-02
      1.85696274e-01 4.12905402e-03 2.94241875e-01 0. 1.01956733e-01
      1.77771840e-02 2.94241875e-01 2.42780760e-01 1.09212166e-02
      3.49572934e-02 0. 2.94241875e-01 4.06191126e-03 6.45773187e-02
      2.17497163e-02 2.43560523e-01 2.94241875e-01 3.45109776e-02
      1.22992009e-01 1.87684281e-03 2.94241875e-01 4.32488210e-02
      7.26835877e-02 5.19150309e-03 2.94241875e-01 1.97451726e-01
      6.26401277e-03 8.25262740e-02 1.44538013e-02 2.90221304e-01 0.
      1.39310732e-01 3.76627892e-02 1.99041396e-01 2.53805637e-01
      2.10116152e-03 3.68373841e-02 1.20417206e-02 2.90221304e-01
      4.09224443e-03 1.16036281e-01 5.66992983e-02 2.53805637e-01
      2.90221304e-01 2.56856587e-02 1.20082699e-01 1.25327976e-02
      2.90221304e-01 1.91499852e-02 1.33765832e-01 2.95573529e-02
      2.90221304e-01 2.90221304e-01 1.19958064e-02 9.46464613e-02
      1.82282832e-02 2.90221304e-01 1.77330580e-02 1.48944363e-01
      5.86777329e-02 2.90221304e-01 2.59978801e-01 1.01019293e-02
      1.52520565e-02 4.53358050e-03 2.73712844e-01 6.83845999e-03
      4.21444066e-02 4.36801277e-02 2.45795369e-01 2.73712844e-01
      3.57435308e-02 6.75261542e-02 4.66622086e-03 2.73712844e-01
      8.81016627e-03 4.90151644e-02 2.47907024e-02 2.52404392e-01
      2.59536594e-01 4.72320914e-02 1.53087705e-01 3.43294591e-02
      2.73712844e-01 2.57684793e-02 7.73625523e-02 6.18770160e-02
      2.32823849e-01 2.73712844e-01 1.42304614e-01 2.73712844e-01
      4.37828004e-02 2.73712844e-01 3.59293781e-02 8.93470347e-02
      5.32176681e-02 2.73712844e-01 2.16193706e-01 5.03363274e-02
      1.18147083e-01 5.01596835e-04 2.83248633e-01 5.86079014e-03
      7.89808109e-02 1.44986082e-02 1.91525251e-01 2.40163505e-01
      4.30697799e-02 1.39877453e-01 2.76256278e-02 2.83248633e-01
      3.85300256e-02 1.04524158e-01 2.97196452e-02 2.32538939e-01
      2.83248633e-01 1.03799321e-01 1.88444003e-01 8.20459146e-03
      2.83248633e-01 2.59546861e-02 2.59098232e-01 6.97507560e-02
      2.83248633e-01 2.39876866e-01 5.88219836e-02 9.17011052e-02
      2.14865990e-02 2.83248633e-01 5.19748740e-02 1.61073461e-01
      2.99404301e-02 2.09109008e-01 3.08588833e-01 3.35998088e-02
      9.17341560e-02 3.56019661e-02 3.08588833e-01 3.01091243e-02
      4.35928069e-02 1.81826670e-02 3.08588833e-01 2.49735177e-01
      7.24088587e-03 2.12062765e-02 3.31621361e-03 3.08588833e-01
      3.15593294e-04 1.31315384e-02 1.39961124e-03 2.44110480e-01
      2.86993861e-01 5.70480786e-02 7.19132945e-02 2.76830364e-02
      3.08588833e-01 3.87117304e-02 0. 0. 2.86993861e-01 2.38238379e-01
      3.58223543e-03 2.57141935e-03 1.84553594e-03 3.08588833e-01 0. 0.
      0. 2.38238379e-01 1.95134565e-01 2.07353178e-02 5.06930053e-02
      4.16363496e-03 2.96569705e-01 7.99338799e-04 9.26778093e-02
      1.76880937e-02 1.91017941e-01 2.96569705e-01 9.42514557e-03
      1.65825766e-02 1.82042038e-03 2.96569705e-01 6.25793543e-03
      2.96569705e-01 2.96569705e-01 2.96569705e-01 2.28723988e-01 0. 0.
      0. 2.96569705e-01 5.05206917e-05 1.64879411e-02 4.94757388e-03
      2.28723988e-01 1.86742797e-01 0. 0. 0. 2.34792724e-01
      1.43520941e-03 2.06228390e-01 1.27271980e-01 2.02023536e-01
      3.19043756e-01 3.72254546e-03 2.20847279e-02 4.21033241e-03
      3.19043756e-01 1.11807864e-02 3.19043756e-01 1.66364342e-01
      3.19043756e-01 1.87024638e-01 0. 0. 0. 3.19043756e-01
      1.38947926e-03 3.16841483e-01 9.38885435e-02 1.87024638e-01
      2.98919529e-01 0. 0. 0. 3.19043756e-01 4.31345892e-04
      1.58375204e-02 6.19777944e-03 2.93022960e-01 2.19521094e-02 0. 0.
      0. 4.59228121e-02 0. 3.23528331e-03 2.72884034e-03 2.19521094e-02
      1.93405285e-01 3.76362493e-03 1.71893016e-02 0. 3.09661716e-01
      8.02445505e-03 4.94227223e-02 9.49518569e-03 1.93405285e-01
      3.23183388e-01 3.51277404e-02 1.13064162e-01 8.05076025e-03
      3.23183388e-01 7.48346448e-02 1.47689849e-01 1.25582274e-02
      3.23183388e-01 8.45314935e-02 2.50908372e-04 1.14595355e-03 0.
      2.14875787e-01 2.80701788e-03 3.35886069e-02 1.40541755e-02
      8.45314935e-02 3.23183388e-01 5.43004647e-03 1.38682276e-02
      2.01252121e-02 3.23183388e-01 2.14088243e-02 2.84705997e-01
      1.04328349e-01 3.23183388e-01 2.89336711e-01 2.89896112e-02
      1.01115704e-01 1.78103335e-02 2.89336711e-01 2.76342351e-02
      7.64068216e-02 1.40107572e-02 2.85235256e-01 2.89336711e-01
      1.29697835e-02 7.78017342e-02 2.04115957e-02 2.89336711e-01
      5.33669628e-03 4.31784913e-02 1.65559798e-02 2.79132009e-01
      2.59158939e-01 5.36648044e-03 1.37802102e-02 2.77699605e-02
      2.89336711e-01 7.40410388e-03 1.50929868e-01 6.65171295e-02
      2.54753232e-01 2.66447484e-01 2.92521752e-02 8.20382461e-02
      1.20744295e-02 2.89336711e-01 2.50118930e-04 3.81541960e-02
      2.01960746e-02 2.60104775e-01 2.41628930e-01 5.94947301e-02
      1.79038420e-01 2.65549608e-02 2.63362616e-01 1.07890554e-02
      6.07798025e-02 4.13701981e-02 2.45294020e-01 2.63362616e-01
      1.44224897e-01 2.63362616e-01 3.12880836e-02 2.63362616e-01
      3.17748114e-02 1.01692304e-01 5.35713583e-02 2.63362616e-01
      2.63362616e-01 5.46035990e-02 1.41664147e-01 2.18478963e-03
      2.63362616e-01 1.06601103e-03 3.20527181e-02 1.93030573e-02
      2.63362616e-01 2.63362616e-01 5.01529649e-02 9.79511738e-02
      1.77002756e-03 2.63362616e-01 9.62468423e-03 3.33179496e-02
      1.61876716e-02 2.63362616e-01 2.73379475e-01 1.17851764e-01
      2.17156723e-01 1.00052375e-02 2.73379475e-01 6.52751774e-02
      2.73379475e-01 1.10668331e-01 2.73379475e-01 2.64737368e-01
      4.15626988e-02 4.78409752e-02 0. 2.73379475e-01 2.67040189e-02
      1.98290825e-01 3.90203781e-02 2.24227756e-01 2.73379475e-01
      2.50736643e-02 4.67702821e-02 5.49354590e-04 2.73379475e-01
      2.55083349e-02 7.50311539e-02 1.25592621e-02 2.72260964e-01
      1.87991694e-01 2.24441141e-02 3.62338349e-02 0. 2.73379475e-01
      8.55476782e-03 8.93400759e-02 2.85988837e-03 1.64883614e-01
      2.63982743e-01 5.55071533e-02 5.10390922e-02 0. 2.63982743e-01
      7.51652336e-03 9.60536599e-02 5.69199910e-04 2.63982743e-01
      2.63982743e-01 3.99431512e-02 2.00276300e-02 0. 2.63982743e-01
      3.65673844e-03 2.39001215e-01 2.76421681e-02 2.63982743e-01
      2.63982743e-01 7.10519701e-02 5.51074930e-02 0. 2.21557885e-01
      5.30174002e-03 1.70837805e-01 2.35741353e-03 2.63982743e-01
      2.63982743e-01 7.43856058e-02 2.50488613e-02 0. 2.28984505e-01
      7.42264092e-03 2.63982743e-01 1.04400463e-01 2.63982743e-01
      2.47764289e-01 1.14420215e-02 0. 0. 2.88999796e-01 8.00589658e-03
      2.88999796e-01 5.76434098e-02 2.38628700e-01 1.68018460e-01 0. 0.
      0. 2.88999796e-01 1.76471937e-03 2.78737918e-02 3.06948042e-03
      1.68018460e-01 2.88999796e-01 2.51724459e-02 0. 0. 2.88999796e-01
      1.72849465e-02 2.88999796e-01 2.14148745e-01 2.88999796e-01
      2.22226739e-01 0. 0. 0. 2.88999796e-01 3.88238276e-03
      6.44202679e-02 1.09525258e-02 2.22226739e-01 1.82470843e-01 0. 0.
      1.03232882e-03 3.28766644e-01 0. 1.76774740e-01 6.54392093e-02
      1.82470843e-01 0. 0. 0. 0. 1.28914053e-02 0. 0. 0. 0.
      3.63145292e-01 3.15945484e-02 1.08671553e-01 1.54849337e-02
      3.63145292e-01 0. 3.63145292e-01 1.68588579e-01 3.63145292e-01
      2.01859981e-01 1.89334620e-02 5.42478487e-02 0. 3.63145292e-01 0.
      1.88618600e-02 1.22115060e-04 2.01859981e-01 4.66494001e-02 0. 0.
      0. 1.44258603e-01 0. 2.74750218e-02 1.86396949e-02 4.66494001e-02
      3.69385093e-01 0. 0. 1.14533845e-02 3.69385093e-01 0.
      2.35738173e-01 1.30342588e-01 3.69385093e-01 1.01815194e-01 0. 0.
      0. 2.40721405e-01 0. 0. 0. 1.01815194e-01 3.69385093e-01 0. 0. 0.
      3.69385093e-01 0. 0. 0. 3.69385093e-01 3.08552980e-01 0. 0.
      1.39632318e-02 3.08552980e-01 0. 1.06262207e-01 6.73016608e-02
      3.08552980e-01 2.67165840e-01 4.02658358e-02 1.22411780e-01
      4.68082912e-03 3.08552980e-01 2.20977794e-03 1.19247548e-01
      5.13564236e-02 2.76733220e-01 3.08552980e-01 0. 0. 0.
      3.08552980e-01 0. 0. 0. 3.08552980e-01 1.27394453e-01
      1.73515663e-03 7.60439318e-03 0. 2.97117412e-01 1.71871646e-03
      9.85280126e-02 3.71651091e-02 1.31743282e-01 2.48173386e-01
      6.26250207e-02 1.88674271e-01 6.49393490e-03 2.61567533e-01
      5.59899257e-03 1.42511889e-01 5.90259209e-02 2.61567533e-01
      2.61567533e-01 1.03738584e-01 2.61567533e-01 8.34934507e-03
      2.61567533e-01 4.35477169e-03 6.36107549e-02 2.82149836e-02
      2.61567533e-01 1.62982002e-01 2.12514400e-02 6.45527914e-02
      5.05083892e-03 2.61567533e-01 4.35477169e-03 1.42213494e-01
      5.79388626e-02 1.72638223e-01 2.61567533e-01 1.17931545e-01
      2.61567533e-01 6.49393490e-03 2.61567533e-01 3.38704535e-03
      6.85741082e-02 2.91062351e-02 2.61567533e-01 2.90726513e-01
      1.52554885e-01 2.90726513e-01 2.48927041e-03 2.90726513e-01 0. 0.
      0. 2.90726513e-01 1.81845680e-01 3.23093198e-02 8.81775767e-02 0.
      2.90726513e-01 7.52953871e-04 1.61759295e-02 0. 1.78644314e-01
      2.83275068e-01 2.40583777e-01 2.90726513e-01 1.93609926e-03
      2.90726513e-01 0. 0. 0. 2.83275068e-01 1.00248575e-01
      4.10634391e-02 1.10174373e-01 0. 2.36223146e-01 0. 0. 0.
      1.00248575e-01 3.06439072e-01 4.84413505e-02 2.85733789e-02 0.
      3.06439072e-01 4.39850613e-03 1.28522635e-01 3.28161032e-03
      3.06439072e-01 3.06439072e-01 5.79994731e-02 1.29878987e-02 0.
      3.06439072e-01 6.05106540e-03 3.06439072e-01 1.38441369e-01
      3.06439072e-01 1.24734864e-01 0. 0. 0. 2.57324427e-01 0. 0. 0.
      1.24734864e-01 2.30129093e-01 0. 0. 0. 3.06439072e-01 0. 0. 0.
      2.30129093e-01 2.99640864e-01 6.65850984e-03 0. 0. 2.99640864e-01
      4.52413084e-03 2.04495162e-01 8.71112347e-02 2.99640864e-01
      2.99640864e-01 0. 0. 0. 2.99640864e-01 1.02695159e-03
      1.81199815e-02 4.36093844e-03 2.99640864e-01 2.62328744e-01 0. 0.
      0. 2.99640864e-01 0. 0. 0. 2.62328744e-01 2.13630795e-01 0. 0. 0.
      2.99640864e-01 0. 0. 0. 2.13630795e-01</_>
    <_>
      0. 0. 0. 0. 0. 0. 0. 0. 0. 0. 0. 0. 0. 0. 0. 0. 0. 0. 0. 0. 0. 0.
      0. 0. 0. 0. 0. 0. 0. 0. 0. 0. 0. 0. 0. 0. 0. 0. 0. 0. 0. 0. 0. 0.
      0. 0. 0. 0. 0. 0. 0. 0. 0. 0. 2.28782251e-01 0. 0. 0.
      4.37689364e-01 0. 0. 0. 2.28782251e-01 4.82674599e-01 0. 0. 0.
      4.82674599e-01 0. 0. 0. 4.82674599e-01 0. 0. 0. 0. 0. 0. 0. 0. 0.
      0. 0. 0. 0. 0. 0. 0. 0. 0. 5.75688422e-01 0. 0. 0. 5.75688422e-01
      0. 0. 0. 5.75688422e-01 0. 0. 0. 0. 0. 0. 0. 0. 0. 0. 0. 0. 0. 0.
      0. 0. 0. 0. 0. 0. 0. 0. 0. 0. 0. 0. 0. 0. 0. 0. 0. 0. 0. 0. 0. 0.
      0. 0. 0. 0. 0. 0. 0. 0. 0. 0. 0. 0. 0. 0. 0. 0. 0. 0. 0. 0. 0. 0.
      0. 0. 0. 0. 0. 0. 0. 0. 0. 0. 0. 0. 0. 0. 0. 0. 0. 0. 0. 0. 0. 0.
      0. 0. 0. 0. 0. 0. 0. 0. 0. 0. 0. 0. 0. 0. 0. 0. 0. 0. 0. 0. 0. 0.
      0. 0. 0. 0. 0. 0. 0. 0. 0. 0. 0. 0. 0. 0. 0. 0. 0. 0. 0. 0. 0. 0.
      0. 0. 2.37686262e-01 0. 0. 0. 3.74491453e-01 0. 0. 0.
      2.37686262e-01 0. 0. 0. 0. 0. 0. 0. 0. 0. 4.97259229e-01 0. 0. 0.
      4.97259229e-01 0. 0. 0. 4.97259229e-01 0. 0. 0. 0. 0. 0. 0. 0. 0.
      0. 0. 0. 0. 0. 0. 0. 0. 0. 0. 0. 0. 0. 0. 0. 0. 0. 0. 0. 0. 0. 0.
      0. 0. 0. 0. 0. 1.54180691e-01 0. 0. 0. 3.41649771e-01 0. 0. 0.
      1.54180691e-01 3.81999522e-01 0. 0. 0. 3.81999522e-01 0. 0. 0.
      3.81999522e-01 7.52699301e-02 0. 0. 0. 1.55295357e-01 0. 0. 0.
      7.52699301e-02 3.26169729e-01 0. 0. 0. 3.81999522e-01 0. 0. 0.
      3.26169729e-01 3.53395015e-01 0. 0. 0. 3.53395015e-01 0. 0. 0.
      3.53395015e-01 0. 0. 0. 0. 0. 0. 0. 0. 0. 3.53395015e-01 0. 0. 0.
      3.53395015e-01 0. 0. 0. 3.53395015e-01 2.47237742e-01 0. 0. 0.
      3.53395015e-01 0. 0. 0. 2.47237742e-01 0. 0. 0. 0. 0. 0. 0. 0. 0.
      0. 0. 0. 0. 0. 0. 0. 0. 0. 4.72494423e-01 0. 0. 0. 3.19807351e-01
      0. 0. 0. 4.72494423e-01 4.72494423e-01 0. 0. 0. 0. 0. 0. 0.
      4.72494423e-01 0. 0. 0. 0. 0. 0. 0. 0. 0. 0. 0. 0. 0. 0. 0. 0. 0.
      0. 7.04615593e-01 0. 0. 0. 0. 0. 0. 0. 7.04615593e-01 0. 0. 0. 0.
      0. 0. 0. 0. 0. 0. 0. 0. 0. 0. 0. 0. 0. 0. 0. 0. 0. 0. 0. 0. 0. 0.
      0. 0. 0. 0. 0. 0. 0. 0. 0. 0. 0. 0. 0. 0. 0. 0. 0. 0. 0. 0. 0. 0.
      0. 4.00069766e-02 0. 0. 0. 0. 4.06548947e-01 0. 0. 0.
      4.06548947e-01 0. 0. 0. 4.06548947e-01 0. 0. 0. 0. 5.14375344e-02
      0. 0. 0. 0. 4.06548947e-01 0. 0. 0. 4.06548947e-01 0. 0. 0.
      4.06548947e-01 2.29300037e-02 0. 0. 0. 1.83345061e-02 0. 0. 0.
      2.29300037e-02 5.98321594e-02 0. 0. 0. 3.89067419e-02 0. 0. 0.
      5.98321594e-02 2.88756639e-01 0. 1.63349009e-03 9.01201926e-03
      4.17210817e-01 0. 0. 0. 2.88756639e-01 4.17210817e-01 0.
      1.04232103e-01 1.89485297e-01 4.17210817e-01 0. 2.75470316e-01
      3.73390270e-03 4.17210817e-01 5.02362736e-02 0. 0. 0.
      2.95556542e-02 0. 0. 0. 5.02362736e-02 0. 0. 0. 0. 1.13360502e-01
      0. 0. 0. 0. 4.23986107e-01 0. 2.70493776e-01 3.89753252e-01
      4.23986107e-01 0. 4.23986107e-01 1.06775016e-02 4.23986107e-01 0.
      0. 1.51997274e-02 1.03527382e-02 1.72194988e-01 0. 5.25158271e-02
      7.11833476e-04 0. 2.13221371e-01 0. 0. 0. 3.25427175e-01 0. 0. 0.
      2.13221371e-01 3.25427175e-01 0. 0. 0. 3.25427175e-01 0. 0. 0.
      3.25427175e-01 1.71170697e-01 0. 0. 0. 3.25427175e-01 0. 0. 0.
      1.71170697e-01 3.25427175e-01 0. 0. 0. 3.25427175e-01 0. 0. 0.
      3.25427175e-01 1.65821999e-01 0. 0. 0. 2.93083727e-01 0. 0. 0.
      1.65821999e-01 2.46151030e-01 0. 0. 0. 3.23968798e-01 0. 0. 0.
      2.46151030e-01 3.23968798e-01 0. 0. 0. 3.23968798e-01 0. 0. 0.
      3.23968798e-01 3.23968798e-01 0. 0. 0. 3.23968798e-01 0. 0. 0.
      3.23968798e-01 3.64081025e-01 0. 0. 0. 4.18424904e-01 0. 0. 0.
      3.64081025e-01 0. 0. 0. 0. 7.21402541e-02 0. 0. 0. 0.
      4.18424904e-01 0. 0. 0. 4.18424904e-01 0. 0. 0. 4.18424904e-01 0.
      0. 0. 0. 1.58708543e-01 0. 0. 0. 0. 1.19580671e-01 0. 0. 0.
      2.25476772e-01 0. 0. 0. 1.19580671e-01 1.84192970e-01 0. 0. 0.
      3.21707666e-01 0. 0. 0. 1.84192970e-01 3.10178310e-01 0. 0. 0.
      3.71845096e-01 0. 0. 0. 3.10178310e-01 3.71845096e-01 0. 0. 0.
      3.71845096e-01 0. 0. 0. 3.71845096e-01 4.99809012e-02 0. 0. 0.
      8.94974843e-02 0. 0. 0. 4.99809012e-02 1.51685506e-01 0. 0. 0.
      2.01838002e-01 0. 0. 0. 1.51685506e-01 2.45972767e-01 0. 0. 0.
      4.40124094e-01 0. 0. 0. 2.45972767e-01 4.40124094e-01 0. 0. 0.
      4.40124094e-01 0. 0. 0. 4.40124094e-01 1.65189743e-01 0.
      1.38850592e-03 7.66043365e-03 3.45398039e-01 0. 0. 0.
      1.65189743e-01 3.45398039e-01 0. 1.32565066e-01 1.91012412e-01
      3.45398039e-01 0. 1.42023027e-01 1.92507193e-03 3.45398039e-01
      6.16213828e-02 0. 3.20424471e-04 1.76779239e-03 1.34418756e-01 0.
      0. 0. 6.16213828e-02 3.45398039e-01 0. 5.55961318e-02
      6.11104704e-02 3.45398039e-01 0. 9.46820248e-03 1.28338143e-04
      3.45398039e-01 3.34440172e-01 0. 2.74619609e-01 3.21939200e-01
      3.34440172e-01 0. 3.13598871e-01 4.25072201e-03 3.34440172e-01 0.
      0. 1.64483897e-02 1.12032183e-02 6.33402020e-02 0. 2.09065918e-02
      2.83381465e-04 0. 3.34440172e-01 0. 1.18585125e-01 1.11898862e-01
      3.34440172e-01 0. 2.09065918e-02 2.83381465e-04 3.34440172e-01
      4.78367694e-02 0. 7.47654028e-03 5.09237126e-03 1.07737727e-01 0.
      1.39377289e-03 1.88921003e-05 4.78367694e-02 4.62277457e-02 0. 0.
      0. 0. 0. 0. 0. 4.62277457e-02 3.32065612e-01 0. 0. 0.
      3.32065612e-01 0. 0. 0. 3.32065612e-01 3.32065612e-01 0. 0. 0.
      3.32065612e-01 0. 0. 0. 3.32065612e-01 3.32065612e-01 0. 0. 0.
      3.32065612e-01 0. 0. 0. 3.32065612e-01 2.91909188e-01 0. 0. 0.
      2.91909188e-01 0. 0. 0. 2.91909188e-01 2.91909188e-01 0. 0. 0.
      2.91909188e-01 0. 0. 0. 2.91909188e-01 2.69233435e-01 0. 0. 0.
      2.91909188e-01 0. 0. 0. 2.69233435e-01 2.91909188e-01 0. 0. 0.
      2.91909188e-01 0. 0. 0. 2.91909188e-01 1.75621122e-01 0. 0. 0.
      3.10880929e-01 0. 0. 0. 1.75621122e-01 1.59306247e-02 0. 0. 0.
      3.00796889e-02 0. 0. 0. 1.59306247e-02 3.77709568e-01 0. 0. 0.
      3.77709568e-01 0. 0. 0. 3.77709568e-01 3.64570737e-01 0. 0. 0.
      3.77709568e-01 0. 0. 0. 3.64570737e-01 3.20961446e-01 0. 0. 0.
      4.41056877e-01 0. 0. 0. 3.20961446e-01 4.41056877e-01 0. 0. 0.
      4.41056877e-01 0. 0. 0. 4.41056877e-01 6.55680057e-03 0. 0. 0.
      9.86740142e-02 0. 0. 0. 6.55680057e-03 2.84128003e-02 0. 0. 0. 0.
      0. 0. 0. 2.84128003e-02 8.78465772e-02 0. 0. 0. 1.84965819e-01
      1.19960250e-03 4.66444995e-03 0. 8.78465772e-02 3.08951586e-01 0.
      0. 0. 3.21064770e-01 5.19827707e-03 2.02126149e-02 0.
      3.08951586e-01 1.87957853e-01 0. 0. 0. 3.21064770e-01
      1.79940369e-02 1.08188398e-01 9.11535472e-02 1.87957853e-01
      3.21064770e-01 0. 0. 0. 3.21064770e-01 7.79741555e-02
      3.21064770e-01 2.00537816e-01 3.21064770e-01 3.37540582e-02
      4.74802516e-02 7.06791580e-02 5.30072721e-04 8.23742896e-02 0. 0.
      0. 3.37540582e-02 2.23393381e-01 1.04456559e-01 2.12562621e-01
      2.29698187e-03 3.49194437e-01 0. 0. 0. 2.23393381e-01
      1.11829475e-01 1.04456559e-01 2.12562621e-01 2.29698187e-03
      2.83873945e-01 0. 0. 0. 1.11829475e-01 3.49194437e-01
      2.29804426e-01 3.49194437e-01 9.95358825e-03 3.49194437e-01 0. 0.
      0. 3.49194437e-01 9.20391232e-02 1.78917553e-02 4.92891893e-02
      6.48667396e-04 1.59456208e-01 0. 0. 0. 9.20391232e-02
      1.92781836e-01 0. 0. 0. 3.47181410e-01 0. 0. 0. 1.92781836e-01
      3.47181410e-01 3.93618606e-02 1.78272784e-01 2.81089218e-03
      3.47181410e-01 0. 0. 0. 3.47181410e-01 3.47181410e-01 0. 0. 0.
      3.47181410e-01 0. 0. 0. 3.47181410e-01 2.01669976e-01 0. 0. 0.
      3.07697415e-01 0. 0. 0. 2.01669976e-01 2.81213701e-01 0. 0. 0.
      3.07697415e-01 0. 0. 0. 2.81213701e-01 3.07697415e-01 0. 0. 0.
      3.07697415e-01 0. 0. 0. 3.07697415e-01 3.07697415e-01 0. 0. 0.
      3.07697415e-01 0. 0. 0. 3.07697415e-01 2.78688461e-01 0. 0. 0.
      3.16849202e-01 0. 0. 0. 2.78688461e-01 2.66732275e-01 0. 0. 0.
      3.16849202e-01 0. 0. 0. 2.66732275e-01 3.16849202e-01 0. 0. 0.
      3.16849202e-01 0. 0. 0. 3.16849202e-01 2.20053330e-01 0. 0. 0.
      3.16849202e-01 0. 0. 0. 2.20053330e-01 3.19703907e-01 0. 0. 0.
      3.19703907e-01 0. 0. 0. 3.19703907e-01 1.72892720e-01 0. 0. 0.
      3.19703907e-01 0. 0. 0. 1.72892720e-01 2.69055724e-01 0. 0. 0.
      3.19703907e-01 0. 0. 0. 2.69055724e-01 2.99145728e-01 0. 0. 0.
      3.19703907e-01 0. 0. 0. 2.99145728e-01 0. 0. 0. 0. 3.77857894e-01
      0. 0. 0. 0. 0. 0. 0. 0. 0. 0. 0. 0. 0. 5.31453252e-01 0. 0. 0.
      5.31453252e-01 0. 0. 0. 5.31453252e-01 0. 0. 0. 0. 6.77367821e-02
      0. 0. 0. 0. 1.72486305e-01 0. 0. 0. 3.57383192e-01 1.23889111e-02
      9.15593132e-02 1.03472590e-01 1.72486305e-01 3.57383192e-01 0. 0.
      0. 3.57383192e-01 5.36852814e-02 3.04197758e-01 2.27639690e-01
      3.57383192e-01 2.66973935e-02 0. 0. 0. 4.47911732e-02 0.
      2.89247627e-03 6.89817220e-03 2.66973935e-02 2.37078384e-01
      2.56732963e-02 1.21798337e-01 1.28957462e-02 3.57383192e-01 0.
      6.36344869e-03 1.51759787e-02 2.37078384e-01 1.57551989e-01
      6.81316033e-02 1.87692672e-01 2.47011823e-03 3.12937677e-01 0. 0.
      0. 1.57551989e-01 4.41726178e-01 1.49889529e-01 4.41726178e-01
      1.07038459e-02 4.41726178e-01 0. 0. 0. 4.41726178e-01 0. 0. 0. 0.
      0. 0. 0. 0. 0. 2.18011681e-02 0. 0. 0. 6.41534850e-02 0. 0. 0.
      2.18011681e-02 2.84401685e-01 6.91515580e-03 4.74863090e-02
      8.14175059e-04 3.45345348e-01 0. 0. 0. 2.84401685e-01
      3.45345348e-01 0. 0. 0. 3.45345348e-01 0. 0. 0. 3.45345348e-01
      8.59194323e-02 0. 0. 0. 1.56488910e-01 0. 0. 0. 8.59194323e-02
      3.12099278e-01 0. 4.57253121e-02 2.14941264e-03 3.45345348e-01 0.
      0. 0. 3.12099278e-01 3.02110136e-01 0. 0. 0. 3.02110136e-01 0. 0.
      0. 3.02110136e-01 1.94333866e-01 0. 0. 0. 3.02110136e-01 0. 0. 0.
      1.94333866e-01 3.02110136e-01 4.71390411e-02 1.96762964e-01
      7.39853550e-03 3.02110136e-01 0. 0. 0. 3.02110136e-01
      2.41501048e-01 6.06073402e-02 1.73035800e-01 5.75441634e-03
      3.02110136e-01 0. 0. 0. 2.41501048e-01 3.28141928e-01 0. 0. 0.
      3.88128012e-01 0. 0. 0. 3.28141928e-01 1.55280098e-01 0. 0. 0.
      3.88128012e-01 0. 0. 0. 1.55280098e-01 2.13657349e-01
      1.00589925e-02 8.40136223e-03 0. 3.88128012e-01 0. 0. 0.
      2.13657349e-01 1.38744786e-01 0. 0. 0. 3.88128012e-01 0. 0. 0.
      1.38744786e-01 2.05162004e-01 0. 0. 0. 3.30922097e-01 0. 0. 0.
      2.05162004e-01 3.30922097e-01 0. 0. 0. 3.30922097e-01 0. 0. 0.
      3.30922097e-01 1.34972572e-01 0. 0. 0. 3.30922097e-01 0. 0. 0.
      1.34972572e-01 3.30922097e-01 0. 0. 0. 3.30922097e-01 0. 0. 0.
      3.30922097e-01 2.31484309e-01 0. 0. 0. 3.30331892e-01 0. 0. 0.
      2.31484309e-01 1.45578951e-01 0. 0. 0. 2.99481332e-01 0. 0. 0.
      1.45578951e-01 3.25467557e-01 0. 0. 0. 3.30331892e-01 0. 0. 0.
      3.25467557e-01 3.30331892e-01 0. 0. 0. 3.30331892e-01 0. 0. 0.
      3.30331892e-01 9.69372690e-02 0. 0. 0. 2.17398778e-01 0. 0. 0.
      9.69372690e-02 2.08293691e-01 9.29160193e-02 2.90828317e-01
      2.83079352e-02 3.37538451e-01 0. 0. 0. 2.08293691e-01
      2.75491148e-01 0. 0. 0. 3.37538451e-01 0. 0. 0. 2.75491148e-01
      3.37538451e-01 7.22680092e-02 1.51470363e-01 1.28672430e-02
      3.37538451e-01 0. 0. 0. 3.37538451e-01 0. 0. 0. 0. 0. 0. 0. 0. 0.
      0. 0. 0. 0. 0. 0. 0. 0. 0. 0. 0. 0. 0. 0. 0. 0. 0. 0. 0. 0. 0. 0.
      0. 0. 0. 0. 0. 0. 0. 0. 0. 0. 0. 0. 0. 0. 4.08135951e-01 0.
      4.08135951e-01 1.96501855e-02 4.08135951e-01 0. 0. 0.
      4.08135951e-01 0. 0. 0. 0. 0. 0. 0. 0. 0. 2.84502596e-01 0.
      2.78684180e-02 1.31001254e-03 4.08135951e-01 0. 0. 0.
      2.84502596e-01 2.91997254e-01 1.32742643e-01 2.91997254e-01
      1.26365405e-02 2.91997254e-01 0. 0. 0. 2.91997254e-01
      2.91997254e-01 1.70669094e-01 2.91997254e-01 9.82841942e-03
      2.91997254e-01 0. 0. 0. 2.91997254e-01 1.82956442e-01
      3.06329150e-02 4.35063690e-02 8.42435984e-04 2.91997254e-01 0. 0.
      0. 1.82956442e-01 1.42299458e-01 3.93851772e-02 4.68337759e-02
      6.55228039e-04 2.62096226e-01 0. 0. 0. 1.42299458e-01
      4.05780375e-01 1.16544053e-01 9.73386467e-02 0. 4.05780375e-01 0.
      0. 0. 4.05780375e-01 3.86141419e-01 0. 0. 0. 4.05780375e-01 0. 0.
      0. 3.86141419e-01 0. 2.68947836e-02 2.24627648e-02 0.
      1.21736646e-01 0. 0. 0. 0. 0. 0. 0. 0. 0. 0. 0. 0. 0.
      1.44668430e-01 0. 0. 0. 3.69256586e-01 0. 0. 0. 1.44668430e-01
      3.69256586e-01 0. 0. 0. 3.69256586e-01 0. 0. 0. 3.69256586e-01 0.
      0. 0. 0. 0. 0. 0. 0. 0. 3.69256586e-01 0. 0. 0. 3.69256586e-01 0.
      0. 0. 3.69256586e-01 1.96436241e-01 0. 0. 0. 2.90964276e-01 0.
      5.91520406e-02 1.75914168e-02 1.96436241e-01 2.90964276e-01 0. 0.
      0. 2.90964276e-01 0. 1.12378776e-01 2.55095214e-02 2.90964276e-01
      2.20758274e-01 0. 0. 0. 2.90964276e-01 0. 1.71564475e-01
      6.94815144e-02 2.20758274e-01 2.90964276e-01 0. 0. 0.
      2.90964276e-01 0. 2.90964276e-01 9.56957415e-02 2.90964276e-01
      3.39923531e-01 0. 0. 0. 3.54045689e-01 0. 5.73164150e-02
      1.01775844e-02 3.39923531e-01 3.54045689e-01 0. 0. 0.
      3.54045689e-01 0. 0. 0. 3.54045689e-01 1.44791305e-01 0. 0. 0.
      3.54045689e-01 0. 1.44152775e-01 3.58058773e-02 1.44791305e-01
      1.64101154e-01 0. 0. 0. 1.31858245e-01 0. 0. 0. 1.64101154e-01</_>
    <_>
      0. 0. 0. 0. 0. 0. 0. 0. 0. 0. 0. 0. 0. 0. 0. 0. 0. 0. 0. 0. 0. 0.
      0. 0. 0. 0. 0. 0. 0. 0. 0. 0. 0. 0. 0. 0. 0. 0. 0. 0. 0. 0. 0. 0.
      0. 0. 0. 0. 0. 0. 0. 0. 0. 0. 0. 0. 0. 0. 0. 0. 0. 0. 0. 0. 0. 0.
      0. 0. 0. 0. 0. 0. 0. 0. 0. 0. 0. 0. 0. 0. 0. 0. 0. 0. 0. 0. 0. 0.
      0. 0. 0. 0. 0. 0. 0. 0. 0. 0. 0. 0. 0. 0. 0. 0. 0. 0. 0. 0. 0. 0.
      0. 0. 0. 0. 0. 0. 0. 0. 0. 0. 0. 0. 0. 0. 0. 0. 0. 0. 0. 0. 0. 0.
      0. 0. 0. 0. 0. 0. 0. 0. 0. 0. 0. 0. 0. 0. 0. 0. 0. 0. 0. 0. 0. 0.
      0. 0. 0. 0. 0. 0. 0. 0. 0. 0. 0. 0. 0. 0. 0. 0. 0. 0. 0. 0. 0. 0.
      0. 0. 0. 0. 0. 0. 0. 0. 0. 0. 0. 0. 0. 4.83420521e-01
      2.39345044e-01 4.83420521e-01 0. 4.83420521e-01 0. 0. 0.
      4.83420521e-01 0. 0. 0. 0. 0. 0. 0. 0. 0. 3.93949561e-02 0. 0. 0.
      0. 0. 0. 0. 3.93949561e-02 4.02517855e-01 2.06243396e-01
      4.02517855e-01 0. 4.02517855e-01 0. 0. 0. 4.02517855e-01
      2.02075168e-01 7.52343610e-02 2.31710568e-01 0. 4.02517855e-01 0.
      0. 0. 2.02075168e-01 3.22346799e-02 0. 0. 0. 0. 0. 0. 0.
      3.22346799e-02 1.10145174e-02 0. 0. 0. 0. 0. 0. 0. 1.10145174e-02
      0. 0. 0. 0. 0. 0. 0. 0. 0. 0. 0. 0. 0. 0. 0. 0. 0. 0. 0. 0. 0. 0.
      0. 0. 0. 0. 0. 0. 0. 0. 0. 0. 0. 0. 0. 0. 0. 0. 0. 0. 0. 0. 0. 0.
      0. 0. 0. 0. 0. 0. 0. 0. 0. 0. 0. 0. 0. 0. 0. 0. 0. 0. 0. 0. 0. 0.
      0. 0. 0. 0. 0. 0. 0. 0. 0. 0. 0. 0. 0. 0. 0. 0. 0. 0. 0. 0. 0. 0.
      0. 0. 0. 0. 0. 0. 0. 0. 0. 0. 0. 0. 0. 0. 0. 0. 0. 0. 0. 0. 0. 0.
      0. 0. 0. 0. 0. 0. 0. 0. 0. 0. 0. 0. 0. 0. 0. 0. 0. 0. 0. 0. 0. 0.
      0. 0. 0. 0. 0. 0. 0. 0. 0. 0. 0. 0. 0. 0. 0. 0. 0. 0. 0. 0. 0. 0.
      0. 0. 0. 0. 0. 0. 0. 0. 0. 0. 0. 0. 0. 0. 0. 0. 0. 0. 0. 0. 0. 0.
      0. 0. 0. 0. 0. 0. 0. 0. 0. 0. 0. 0. 0. 0. 0. 0. 0. 0. 0. 0. 0. 0.
      0. 0. 0. 0. 0. 0. 0. 0. 0. 0. 0. 0. 0. 0. 0. 0. 0. 0.
      3.26884259e-03 0. 0. 0. 0. 0. 0. 0. 3.26884259e-03 4.90326397e-02
      0. 0. 0. 0. 0. 0. 0. 4.90326397e-02 7.48071298e-02 0. 0. 0.
      2.76371419e-01 0. 0. 0. 7.48071298e-02 5.48367500e-01 0. 0. 0.
      5.48367500e-01 0. 0. 0. 5.48367500e-01 0. 0. 0. 0. 0. 0. 0. 0. 0.
      0. 0. 0. 0. 0. 0. 0. 0. 0. 0. 0. 0. 0. 0. 0. 0. 0. 0. 0. 0. 0. 0.
      0. 0. 0. 0. 0. 0. 0. 0. 0. 0. 0. 0. 0. 0. 0. 0. 0. 0. 0. 0. 0. 0.
      0. 0. 0. 0. 0. 0. 0. 0. 0. 0. 0. 0. 0. 0. 0. 0. 0. 0. 0. 0. 0. 0.
      0. 0. 0. 0. 0. 0. 0. 0. 0. 0. 0. 0. 0. 0. 0. 0. 0. 0. 0. 0. 0. 0.
      0. 0. 0. 0. 0. 0. 0. 0. 0. 0. 0. 0. 0. 0. 0. 0. 0. 0. 0. 0. 0. 0.
      0. 0. 0. 0. 0. 0. 0. 0. 0. 0. 0. 0. 0. 0. 0. 0. 0. 0. 0. 0. 0. 0.
      0. 0. 0. 0. 0. 0. 0. 1.15759373e-02 0. 0. 0. 0. 1.54500470e-01 0.
      0. 0. 2.64914185e-01 0. 0. 0. 1.54500470e-01 0. 0. 0. 0.
      1.05172478e-01 0. 0. 0. 0. 5.37128270e-01 0. 0. 0. 5.37128270e-01
      0. 0. 0. 5.37128270e-01 1.50503084e-01 0. 0. 0. 2.49186218e-01 0.
      0. 0. 1.50503084e-01 1.00335395e-02 0. 0. 0. 3.38293053e-02 0. 0.
      0. 1.00335395e-02 5.12094378e-01 0. 0. 0. 5.12094378e-01 0. 0. 0.
      5.12094378e-01 4.97762039e-02 0. 0. 0. 3.07354093e-01 0. 0. 0.
      4.97762039e-02 7.06575066e-02 0. 0. 0. 2.70336837e-01 0. 0. 0.
      7.06575066e-02 5.32319725e-01 0. 0. 0. 5.32319725e-01 0. 0. 0.
      5.32319725e-01 9.59240180e-03 0. 0. 0. 1.80224571e-02 0. 0. 0.
      9.59240180e-03 1.43886030e-01 0. 0. 0. 1.40030518e-01 0. 0. 0.
      1.43886030e-01 0. 0. 0. 0. 0. 0. 0. 0. 0. 0. 0. 0. 0. 0. 0. 0. 0.
      0. 0. 0. 0. 0. 0. 0. 0. 0. 0. 0. 0. 0. 0. 0. 0. 0. 0. 0. 0. 0. 0.
      0. 0. 0. 0. 0. 0. 0. 0. 0. 0. 0. 0. 0. 0. 0. 0. 0. 0. 0. 0. 0. 0.
      0. 0. 0. 0. 0. 0. 0. 0. 0. 0. 0. 0. 0. 0. 0. 0. 0. 0. 0. 0. 0. 0.
      0. 0. 0. 0. 0. 0. 0. 0. 0. 0. 0. 0. 0. 0. 0. 0. 0. 0. 0. 0. 0. 0.
      0. 0. 0. 0. 0. 0. 0. 0. 0. 0. 0. 0. 0. 0. 0. 0. 0. 0. 0. 0. 0. 0.
      0. 0. 0. 0. 0. 0. 0. 0. 0. 0. 0. 0. 0. 0. 0. 0. 0. 0. 0. 0. 0.
      1.09593555e-01 0. 0. 0. 0. 5.65773487e-01 0. 0. 0. 5.65773487e-01
      0. 0. 0. 5.65773487e-01 0. 0. 0. 0. 3.17432079e-03 0. 0. 0. 0.
      9.15247053e-02 0. 0. 0. 7.26440102e-02 0. 0. 0. 9.15247053e-02
      5.37358463e-01 0. 0. 0. 5.37358463e-01 0. 0. 0. 5.37358463e-01
      5.55271208e-02 0. 0. 0. 3.18849355e-01 0. 0. 0. 5.55271208e-02
      8.87600780e-02 0. 0. 0. 6.80271536e-02 0. 0. 0. 8.87600780e-02
      5.91733865e-03 0. 0. 0. 9.23530757e-03 0. 0. 0. 5.91733865e-03 0.
      0. 0. 0. 0. 0. 0. 0. 0. 0. 0. 0. 0. 0. 0. 0. 0. 0. 0. 0. 0. 0. 0.
      0. 0. 0. 0. 0. 0. 0. 0. 0. 0. 0. 0. 0. 0. 0. 0. 0. 0. 0. 0. 0. 0.
      0. 0. 0. 0. 0. 0. 0. 0. 0. 0. 0. 0. 0. 0. 0. 0. 0. 0. 0. 0. 0. 0.
      0. 0. 0. 0. 0. 0. 0. 0. 0. 0. 0. 0. 0. 0. 0. 0. 0. 0. 0. 0. 0. 0.
      0. 0. 0. 0. 0. 0. 0. 0. 0. 0. 0. 0. 0. 0. 0. 0. 0. 0. 0. 0. 0. 0.
      0. 0. 0. 0. 0. 0. 0. 0. 0. 0. 0. 0. 0. 0. 0. 0. 0. 0. 0. 0. 0. 0.
      0. 0. 0. 0. 0. 0. 0. 0. 0. 0. 0. 0. 0. 0. 0. 1.87213421e-02 0. 0.
      0. 0. 2.38686517e-01 0. 0. 0. 4.28436011e-01 0. 0. 0.
      2.38686517e-01 0. 0. 0. 0. 8.11258107e-02 0. 0. 0. 0.
      4.79852587e-01 0. 0. 0. 4.79852587e-01 0. 0. 0. 4.79852587e-01
      1.21682599e-01 0. 0. 0. 2.03154176e-01 0. 0. 0. 1.21682599e-01
      7.08899274e-02 0. 0. 0. 9.48398113e-02 0. 0. 0. 7.08899274e-02
      3.88627321e-01 0. 0. 0. 3.88627321e-01 0. 0. 0. 3.88627321e-01
      3.88627321e-01 0. 0. 0. 3.88627321e-01 0. 0. 0. 3.88627321e-01
      1.22745737e-01 0. 0. 0. 1.53344467e-01 0. 0. 0. 1.22745737e-01 0.
      0. 0. 0. 0. 0. 0. 0. 0. 5.59988201e-01 0. 0. 0. 5.59988201e-01 0.
      0. 0. 5.59988201e-01 0. 0. 0. 0. 0. 0. 0. 0. 0. 0. 0. 0. 0. 0. 0.
      0. 0. 0. 0. 0. 0. 0. 0. 0. 0. 0. 0. 0. 0. 0. 0. 0. 0. 0. 0. 0. 0.
      0. 0. 0. 0. 0. 0. 0. 0. 0. 0. 0. 0. 0. 0. 0. 0. 0. 0. 0. 0. 0. 0.
      0. 0. 0. 0. 0. 0. 0. 0. 0. 0. 0. 0. 0. 0. 0. 0. 0. 0. 0. 0. 0. 0.
      0. 0. 0. 0. 0. 0. 0. 0. 0. 0. 0. 0. 0. 0. 0. 0. 0. 0. 0. 0. 0. 0.
      0. 0. 0. 0. 0. 0. 0. 0. 0. 0. 0. 0. 0. 0. 0. 0. 0. 0. 0. 0. 0. 0.
      0. 0. 0. 0. 0. 0. 0. 0. 0. 0. 0. 0. 0. 0. 0. 0. 0. 0. 0. 0. 0. 0.
      0. 0. 0. 0. 0. 0. 0. 0. 0. 0. 9.15276334e-02 0. 0. 0. 0.
      5.73265016e-01 0. 0. 0. 5.73265016e-01 0. 0. 0. 5.73265016e-01 0.
      0. 0. 0. 0. 0. 0. 0. 0. 0. 0. 0. 0. 0. 0. 0. 0. 0. 4.07057375e-01
      0. 0. 0. 4.07057375e-01 0. 0. 0. 4.07057375e-01 4.07057375e-01 0.
      0. 0. 4.07057375e-01 0. 0. 0. 4.07057375e-01 6.66889083e-03 0. 0.
      0. 0. 0. 0. 0. 6.66889083e-03 2.88985260e-02 0. 0. 0. 0. 0. 0. 0.
      2.88985260e-02 5.74484587e-01 0. 0. 0. 5.74484587e-01 0. 0. 0.
      5.74484587e-01 0. 0. 0. 0. 0. 0. 0. 0. 0. 4.56396118e-02 0. 0. 0.
      0. 0. 0. 0. 4.56396118e-02 0. 0. 0. 0. 0. 0. 0. 0. 0. 0. 0. 0. 0.
      0. 0. 0. 0. 0. 0. 0. 0. 0. 0. 0. 0. 0. 0. 0. 0. 0. 0.
      8.84044841e-02 0. 0. 0. 0. 5.73427856e-01 0. 0. 0. 5.73427856e-01
      0. 0. 0. 5.73427856e-01 0. 0. 0. 0. 0. 0. 0. 0. 0. 0. 0. 0. 0. 0.
      0. 0. 0. 0. 0. 0. 0. 0. 0. 0. 0. 0. 0. 0. 0. 0. 0. 0. 0. 0. 0. 0.
      0. 0. 0. 0. 0. 0. 0. 0. 0. 0. 0. 0. 0. 0. 0. 0. 0. 0. 0. 0. 0. 0.
      0. 0. 0. 0. 0. 0. 0. 0. 0. 0. 0. 0. 0. 0. 0. 0. 0. 0. 0. 0. 0. 0.
      0. 0. 0. 0. 0. 0. 0. 0. 0. 0. 0. 0. 0. 0. 0. 0. 0. 0. 0. 0. 0. 0.
      0. 0. 0. 0. 0. 0. 0. 0. 0. 0. 0. 0. 0. 0. 0. 0. 0. 0. 0. 0. 0. 0.
      0. 0. 0. 0. 0. 0. 0. 0. 0. 0. 0. 0. 0. 0. 0. 0. 0. 0. 0. 0.
      7.95617551e-02 0. 0. 0. 1.49733454e-01 0. 0. 0. 7.95617551e-02
      1.75035849e-01 0. 0. 0. 3.17741901e-01 0. 0. 0. 1.75035849e-01
      3.12282860e-01 0. 0. 0. 3.88510674e-01 0. 0. 0. 3.12282860e-01
      3.88510674e-01 0. 0. 0. 3.88510674e-01 0. 0. 0. 3.88510674e-01
      2.03974888e-01 0. 0. 0. 4.40833837e-01 0. 0. 0. 2.03974888e-01 0.
      0. 0. 0. 0. 0. 0. 0. 0. 4.89070326e-01 0. 0. 0. 4.89070326e-01 0.
      0. 0. 4.89070326e-01 0. 0. 0. 0. 0. 0. 0. 0. 0. 0. 0. 0. 0.
      4.63632308e-02 0. 0. 0. 0. 4.06711817e-01 0. 0. 0. 4.06711817e-01
      0. 0. 0. 4.06711817e-01 0. 0. 0. 0. 3.60602923e-02 0. 0. 0. 0.
      4.06711817e-01 0. 0. 0. 4.06711817e-01 0. 0. 0. 4.06711817e-01</_>
    <_>
      0. 0. 0. 0. 0. 0. 0. 0. 0. 0. 0. 0. 0. 0. 0. 0. 0. 0. 0. 0. 0. 0.
      0. 0. 0. 0. 0. 0. 0. 0. 0. 0. 0. 0. 0. 0. 0. 0. 0. 0. 0. 0. 0. 0.
      0. 0. 0. 0. 0. 0. 0. 0. 0. 0. 0. 0. 0. 0. 0. 0. 0. 0. 0. 0. 0. 0.
      0. 0. 0. 0. 0. 0. 0. 0. 0. 0. 0. 0. 0. 0. 0. 0. 0. 0. 0.
      6.69623196e-01 0. 6.69623196e-01 3.10684085e-01 0. 0. 0. 0. 0. 0.
      0. 0. 0. 0. 0. 0. 0. 0. 0. 0. 0. 0. 0. 4.66754921e-02
      6.41140249e-03 2.30317153e-02 1.14042230e-03 2.00626582e-01
      2.16256734e-03 3.72807890e-01 2.25849941e-01 4.59123105e-02
      3.02964091e-01 1.06579892e-01 3.72807890e-01 1.19552966e-02
      3.72807890e-01 5.87270455e-03 3.72807890e-01 3.72807890e-01
      2.99656987e-01 1.03673404e-02 3.70507012e-04 1.36234215e-03 0. 0.
      0. 1.25415558e-02 4.86558629e-03 1.03673404e-02 6.88587129e-02
      5.55760553e-03 2.04351321e-02 0. 1.44868819e-02 0. 3.69550288e-02
      1.41415941e-02 6.88587129e-02 3.61298531e-01 1.76830828e-01
      4.54645604e-01 1.67124253e-02 4.54645604e-01 4.48356802e-03
      4.54645604e-01 2.39583716e-01 3.58287066e-01 0. 3.22045106e-03
      1.01678884e-02 0. 1.02820441e-01 0. 0. 0. 0. 8.25835168e-02
      8.34367145e-03 3.06794047e-02 0. 3.58584598e-02 0. 2.72248499e-02
      1.03119835e-02 8.25835168e-02 0. 0. 0. 0. 2.39056419e-03 0. 0. 0.
      0. 0. 0. 0. 0. 0. 0. 0. 0. 0. 0. 0. 0. 0. 0. 0. 0. 0. 0. 0. 0. 0.
      0. 0. 0. 0. 0. 0. 0. 0. 0. 0. 0. 0. 0. 0. 0. 0. 0. 0. 0. 0. 0. 0.
      0. 0. 0. 0. 0. 0. 0. 0. 0. 0. 0. 0. 0. 0. 0. 0. 0. 0. 0. 0. 0. 0.
      0. 0. 0. 0. 0. 0. 0. 0. 0. 0. 0. 0. 0. 0. 0. 0. 0. 0. 0. 0. 0. 0.
      0. 0. 0. 0. 0. 0. 0. 0. 0. 0. 0. 0. 0. 0. 0. 0. 0. 0. 0. 0. 0. 0.
      0. 0. 0. 0. 0. 0. 0. 0. 0. 0. 0. 0. 0. 0. 0. 0. 0. 0. 0. 0. 0. 0.
      0. 0. 0. 0. 0. 0. 0. 0. 0. 0. 0. 0. 0. 7.94987157e-02 0. 0. 0.
      1.49614811e-01 0. 0. 0. 7.94987157e-02 1.74897179e-01 0. 0. 0.
      3.17490160e-01 0. 0. 0. 1.74897179e-01 3.12035471e-01 0. 0. 0.
      3.88709933e-01 0. 0. 0. 3.12035471e-01 3.88709933e-01 0. 0. 0.
      3.88709933e-01 0. 0. 0. 3.88709933e-01 2.03179568e-01 0. 0. 0.
      4.39114988e-01 0. 0. 0. 2.03179568e-01 0. 0. 0. 0. 0. 0. 0. 0. 0.
      4.89803404e-01 0. 0. 0. 4.89803404e-01 0. 0. 0. 4.89803404e-01 0.
      0. 0. 0. 0. 0. 0. 0. 0. 0. 0. 0. 0. 0. 0. 0. 0. 0. 0. 0. 0. 0. 0.
      0. 0. 0. 0. 0. 0. 0. 0. 0. 0. 0. 0. 0. 0. 0. 0. 0. 0. 0. 0. 0. 0.
      0. 0. 0. 0. 0. 0. 0. 0. 0. 9.13133174e-02 4.18948289e-03
      4.23593856e-02 0. 5.52559309e-02 0. 1.72922015e-02 9.17443447e-03
      9.13133174e-02 0. 0. 0. 0. 0. 0. 0. 0. 0. 4.21128124e-01
      1.88213751e-01 4.21128124e-01 0. 4.21128124e-01 0. 4.21128124e-01
      2.27375522e-01 4.21128124e-01 5.45720682e-02 1.78431068e-03
      1.80409625e-02 0. 3.27937901e-02 0. 1.21424841e-02 6.44223578e-03
      5.45720682e-02 5.76106608e-02 8.11050355e-04 8.20043776e-03 0.
      4.78539579e-02 0. 9.44415387e-03 5.01062768e-03 5.76106608e-02
      3.21745902e-01 1.14799812e-01 3.21745902e-01 0. 3.21745902e-01 0.
      3.21745902e-01 1.34862110e-01 3.21745902e-01 3.21745902e-01
      8.06375369e-02 2.21539587e-01 0. 3.21745902e-01 0. 2.37592965e-01
      9.25360471e-02 3.21745902e-01 0. 0. 0. 0. 0. 0. 0. 0. 0. 0. 0. 0.
      0. 0. 0. 0. 0. 0. 0. 0. 0. 0. 0. 0. 0. 0. 0. 0. 0. 0. 0. 0. 0. 0.
      0. 0. 0. 0. 0. 0. 0. 0. 0. 0. 0. 0. 0. 0. 0. 0. 0. 0. 0. 0. 0. 0.
      0. 0. 0. 0. 0. 0. 0. 0. 0. 0. 0. 0. 0. 0. 0. 0. 3.70937824e-01 0.
      0. 0. 4.24432099e-01 0. 0. 0. 3.70937824e-01 4.24432099e-01 0. 0.
      0. 4.24432099e-01 0. 0. 0. 4.24432099e-01 0. 0. 0. 0. 0. 0. 0. 0.
      0. 0. 0. 0. 0. 0. 0. 0. 0. 0. 5.75688422e-01 0. 0. 0.
      5.75688422e-01 0. 0. 0. 5.75688422e-01 0. 0. 0. 0. 0. 0. 0. 0. 0.
      0. 0. 0. 0. 0. 0. 0. 0. 0. 0. 0. 0. 0. 0. 0. 0. 0. 0. 0. 0. 0. 0.
      0. 0. 0. 0. 0. 0. 0. 0. 0. 0. 0. 0. 0. 0. 0. 0. 0. 0. 0. 0. 0. 0.
      0. 0. 0. 0. 0. 0. 0. 0. 0. 0. 0. 0. 0. 0. 0. 0. 0. 0. 0.
      4.19896364e-01 2.07064554e-01 4.19896364e-01 0. 4.19896364e-01 0.
      4.19896364e-01 2.19401255e-01 4.19896364e-01 0. 0. 0. 0. 0. 0. 0.
      0. 0. 9.56742540e-02 1.05859395e-02 1.52334934e-02 0.
      5.26165888e-02 0. 4.18408550e-02 7.57894339e-03 9.56742540e-02
      2.85324842e-01 1.09664612e-01 2.85324842e-01 0. 2.85324842e-01 0.
      2.85324842e-01 1.01851210e-01 2.85324842e-01 2.85324842e-01
      7.97759369e-02 1.82100236e-01 0. 2.85324842e-01 0. 1.91264033e-01
      6.62214458e-02 2.85324842e-01 9.38613340e-02 6.17273012e-03
      8.88274889e-03 0. 1.37001991e-01 0. 1.47979371e-02 2.68045999e-03
      9.38613340e-02 2.49714345e-01 4.80101211e-03 6.90880511e-03 0.
      2.85324842e-01 0. 6.72633480e-03 1.21839088e-03 2.49714345e-01 0.
      0. 0. 0. 0. 0. 0. 0. 0. 3.84822190e-02 0. 0. 0. 0. 0. 0. 0.
      3.84822190e-02 0. 0. 0. 0. 7.69644380e-02 0. 0. 0. 0.
      4.47647423e-01 0. 0. 0. 4.47647423e-01 0. 4.47647423e-01
      4.30221200e-01 4.47647423e-01 3.09181195e-02 0. 0. 0. 0. 0. 0. 0.
      3.09181195e-02 2.06120801e-03 0. 0. 0. 0. 0. 0. 0. 2.06120801e-03
      4.16915655e-01 0. 0. 0. 4.16915655e-01 0. 4.16915655e-01
      4.16915655e-01 4.16915655e-01 6.75142035e-02 0. 0. 0.
      2.37690195e-01 0. 2.30163947e-01 7.89494589e-02 6.75142035e-02 0.
      0. 0. 0. 0. 0. 0. 0. 0. 0. 0. 0. 0. 0. 0. 0. 0. 0. 0. 0. 0. 0. 0.
      0. 0. 0. 0. 0. 0. 0. 0. 0. 0. 0. 0. 0. 0. 0. 0. 0. 0. 0. 0. 0. 0.
      0. 0. 0. 0. 0. 0. 0. 0. 0. 3.60393018e-01 0. 0. 0. 0. 0. 0. 0.
      3.60393018e-01 6.05881214e-01 0. 0. 0. 0. 0. 0. 0. 6.05881214e-01
      0. 0. 0. 0. 0. 0. 0. 0. 0. 0. 0. 0. 0. 0. 0. 0. 0. 0.
      7.04615593e-01 0. 0. 0. 0. 0. 0. 0. 7.04615593e-01 0. 0. 0. 0. 0.
      0. 0. 0. 0. 0. 0. 0. 0. 0. 0. 0. 0. 0. 0. 0. 0. 0. 0. 0. 0. 0. 0.
      0. 0. 0. 0. 0. 0. 0. 0. 0. 4.98753130e-01 4.98753130e-01
      4.98753130e-01 0. 0. 0. 0. 0. 4.98753130e-01 6.30135015e-02 0. 0.
      0. 1.37480289e-01 0. 0. 0. 6.30135015e-02 2.73058474e-01 0. 0. 0.
      3.63511890e-01 0. 0. 0. 2.73058474e-01 2.44885936e-01
      1.42324716e-01 1.91095755e-01 0. 0. 0. 0. 0. 2.07215250e-01
      3.63511890e-01 3.63511890e-01 3.63511890e-01 0. 0. 0. 0.
      4.30745119e-03 3.63511890e-01 0. 0. 0. 0. 6.11939915e-02 0. 0. 0.
      0. 4.21310574e-01 0. 0. 0. 4.21310574e-01 0. 4.21310574e-01
      4.21310574e-01 4.21310574e-01 0. 0. 0. 0. 4.07959940e-03 0. 0. 0.
      0. 1.17610738e-01 0. 0. 0. 1.33625969e-01 0. 2.31080443e-01
      7.48224109e-02 1.17610738e-01 3.34067345e-01 0. 0. 0.
      3.34067345e-01 0. 3.34067345e-01 3.34051818e-01 3.34067345e-01
      6.93033263e-02 0. 0. 0. 2.29710206e-01 0. 1.48193493e-01
      5.05239405e-02 6.93033263e-02 1.14855103e-01 0. 0. 0.
      1.45841464e-01 0. 1.49882376e-01 4.88350652e-02 1.14855103e-01
      2.76152492e-01 0. 0. 0. 3.34067345e-01 0. 1.21352687e-01
      2.50742752e-02 2.75792718e-01 0. 0. 0. 0. 0. 0. 0. 0. 0. 0. 0. 0.
      0. 1.48482183e-02 0. 0. 0. 0. 3.44378352e-01 2.41185669e-02
      1.24618307e-01 0. 3.44378352e-01 0. 2.23009467e-01 5.13672270e-02
      3.44378352e-01 3.44378352e-01 5.00529222e-02 2.71971494e-01
      1.36686033e-02 3.44378352e-01 2.17306451e-03 3.44378352e-01
      1.44965619e-01 3.44378352e-01 1.85134076e-02 2.94835418e-02
      8.92639607e-02 0. 3.81694213e-02 7.41473341e-04 1.87045000e-02
      1.05734887e-02 1.85707584e-02 8.02247599e-02 5.84236346e-02
      1.61542535e-01 0. 9.90507454e-02 1.11221001e-02 1.78268671e-01
      7.82105625e-02 8.10850263e-02 2.19440714e-01 9.89767537e-02
      3.03479403e-01 3.87147442e-02 3.01977187e-01 9.73185431e-03
      2.09128305e-01 9.89779755e-02 2.10777819e-01 2.50564635e-01
      1.44143894e-01 3.03479403e-01 7.49247074e-02 3.03479403e-01
      6.86059669e-02 3.03479403e-01 3.03479403e-01 3.03479403e-01
      7.27968961e-02 3.01935691e-02 7.82993883e-02 0. 1.47898808e-01
      1.66394301e-02 2.76688129e-01 1.13297887e-01 7.40839019e-02 0. 0.
      0. 0. 1.03006251e-02 0. 5.13911992e-03 1.92762632e-03 0.
      2.21299320e-01 5.85388988e-02 1.85752466e-01 4.43591289e-02
      4.25625414e-01 9.06695649e-02 4.25625414e-01 4.25625414e-01
      4.25625414e-01 1.13339862e-02 0. 0. 0. 1.79307178e-01
      2.01481787e-04 1.08116813e-01 2.04949789e-02 1.13339862e-02 0. 0.
      0. 0. 0. 0. 0. 0. 0. 1.81593478e-01 1.03308931e-01 3.52307886e-01
      0. 3.70572329e-01 5.35227405e-03 2.93341637e-01 8.62869844e-02
      1.84098974e-01 0. 0. 0. 0. 0. 0. 0. 0. 0. 1.68708682e-01
      8.93702582e-02 3.70572329e-01 0. 3.70572329e-01 1.17750047e-02
      3.70572329e-01 2.92691618e-01 1.71930060e-01 1.52833968e-01
      8.40934440e-02 1.86391413e-01 1.09034358e-03 9.70114768e-02
      4.11337754e-03 9.39781219e-02 2.74121575e-02 1.29211351e-01
      2.71047324e-01 1.91524372e-01 2.50380397e-01 2.61475262e-03
      2.79219728e-02 9.00499895e-03 5.92817105e-02 1.99514832e-02
      2.71047324e-01 1.54947415e-01 7.74900317e-02 2.16802120e-01
      2.74684699e-03 2.71047324e-01 3.96767855e-02 2.71047324e-01
      1.09941825e-01 1.47230595e-01 2.71047324e-01 1.81912228e-01
      2.71047324e-01 7.07156491e-03 2.21364602e-01 5.55312932e-02
      2.71047324e-01 8.32811594e-02 2.71047324e-01 0. 0. 0. 0. 0. 0. 0.
      0. 0. 0. 0. 0. 0. 0. 0. 0. 0. 0. 0. 0. 0. 0. 0. 0. 0. 0. 0. 0. 0.
      0. 0. 0. 0. 0. 0. 0. 0. 0. 0. 0. 2.14515831e-02 0. 0. 0. 0.
      3.48077923e-01 0. 0. 0. 3.48077923e-01 0. 3.45873177e-01
      7.39437789e-02 3.48077923e-01 0. 0. 0. 0. 1.66845676e-02 0. 0. 0.
      0. 3.48077923e-01 0. 0. 0. 3.48077923e-01 0. 3.48077923e-01
      1.50267124e-01 3.48077923e-01 2.44571045e-01 1.45040732e-02
      9.91666019e-02 0. 2.44571045e-01 0. 1.85699150e-01 4.18654792e-02
      2.44571045e-01 2.44571045e-01 2.86883209e-02 2.19670326e-01
      7.35464133e-03 2.44571045e-01 1.02574173e-02 2.44571045e-01
      1.05685651e-01 2.44571045e-01 1.97241813e-01 7.85902794e-03
      7.15824291e-02 0. 2.44571045e-01 0. 2.06459045e-01 5.91202937e-02
      2.01126024e-01 2.44571045e-01 1.64569635e-02 1.64238378e-01
      3.34301894e-03 2.44571045e-01 1.98245868e-02 2.44571045e-01
      1.21556602e-01 2.44571045e-01 2.42031172e-01 7.71028176e-02
      2.42031172e-01 3.26985456e-02 2.42031172e-01 2.27931179e-02
      1.83952555e-01 9.10835341e-02 2.42031172e-01 2.42031172e-01
      9.58568230e-02 2.42031172e-01 4.91027050e-02 2.42031172e-01
      3.60504463e-02 2.42031172e-01 1.27247483e-01 2.42031172e-01
      2.42031172e-01 4.14701737e-02 1.55109495e-01 8.55381880e-03
      2.42031172e-01 3.23794223e-02 1.62320912e-01 8.67866129e-02
      2.42031172e-01 1.86726779e-01 5.87416962e-02 1.86238900e-01
      6.90860953e-03 1.88886195e-01 1.39740109e-02 2.90552843e-02
      2.31542606e-02 2.11633191e-01 2.73713082e-01 4.21127975e-02
      1.65138006e-01 3.28460559e-02 3.24270308e-01 4.13908139e-02
      3.24270308e-01 2.30886847e-01 3.24270308e-01 6.18286058e-02 0. 0.
      0. 2.05605999e-01 1.41259792e-04 6.63101673e-02 1.21989232e-02
      6.18286058e-02 2.24866897e-01 3.15313376e-02 1.24949582e-01
      3.26090958e-03 3.24270308e-01 6.45241328e-03 3.92092913e-02
      2.42381766e-02 2.34677553e-01 2.56930768e-01 0. 0. 0.
      3.24270308e-01 9.41731923e-06 4.82127164e-03 1.60709058e-03
      2.56930768e-01 4.17427793e-02 0. 0. 0. 6.46067411e-02 0. 0. 0.
      4.17427793e-02 5.88161424e-02 8.90494091e-04 1.27707180e-02 0.
      1.84462443e-01 7.57273170e-04 1.15197547e-01 2.91592535e-02
      5.89418001e-02 2.36772731e-01 6.76638708e-02 2.48274118e-01
      8.13497137e-03 3.36808890e-01 1.76230911e-03 9.31516364e-02
      3.44250053e-02 2.44834125e-01 3.36808890e-01 1.06102467e-01
      3.36808890e-01 1.29368380e-02 3.36808890e-01 1.45080434e-02
      3.36808890e-01 2.22033188e-01 3.36808890e-01 1.05881780e-01
      2.08124686e-02 6.49535060e-02 7.21994613e-04 2.57732004e-01
      2.40319036e-02 1.89583004e-01 4.72906120e-02 1.14908390e-01
      2.76947021e-01 7.39939660e-02 2.08704546e-01 2.25451076e-03
      2.37790287e-01 3.13903354e-02 1.93705037e-01 5.30795641e-02
      2.76947021e-01 2.76947021e-01 1.33604733e-02 4.49714251e-02
      7.19915901e-04 2.76947021e-01 3.69961420e-03 1.34690747e-01
      5.04821315e-02 2.76947021e-01 2.76947021e-01 1.72049385e-02
      4.99898307e-02 0. 2.76947021e-01 1.24008581e-03 2.63012618e-01
      8.71918127e-02 2.76947021e-01 0. 0. 0. 0. 0. 0. 0. 0. 0. 0. 0. 0.
      0. 0. 0. 0. 0. 0. 0. 0. 0. 0. 0. 0. 0. 0. 0. 0. 0. 0. 0. 0. 0. 0.
      0. 0. 0. 0. 0. 0. 0. 0. 0. 0. 0. 4.42429394e-01 0. 0. 0.
      4.42429394e-01 0. 4.42429394e-01 4.42429394e-01 4.42429394e-01 0.
      0. 0. 0. 0. 0. 0. 0. 0. 0. 0. 0. 0. 1.29852414e-01 0. 0. 0. 0.
      2.22835392e-01 1.34659931e-03 1.39406612e-02 0. 2.82253265e-01 0.
      2.14828461e-01 9.02997553e-02 2.22835392e-01 2.82253265e-01
      5.83526352e-03 6.04095347e-02 0. 2.82253265e-01 2.52104495e-02
      2.82253265e-01 1.52595609e-01 2.82253265e-01 8.06175321e-02 0. 0.
      0. 1.95587322e-01 0. 5.98075762e-02 1.27076199e-02 8.06175321e-02
      2.82253265e-01 0. 0. 0. 2.82253265e-01 0. 2.82253265e-01
      2.09210709e-01 2.82253265e-01 3.03536862e-01 3.94197516e-02
      1.17753744e-01 0. 3.03536862e-01 6.32752031e-02 3.03536862e-01
      1.73819199e-01 3.03536862e-01 2.40399435e-01 5.84658943e-02
      1.42461747e-01 0. 2.23678321e-01 1.46019701e-02 3.18382084e-02
      1.59569811e-02 2.84877658e-01 2.39914119e-01 0. 0. 0.
      3.03536862e-01 0. 3.03536862e-01 2.36222133e-01 2.39914119e-01
      8.67462810e-03 0. 0. 0. 7.59476274e-02 0. 5.73577769e-02
      1.48813482e-02 8.67462810e-03 1.88988015e-01 6.61722338e-03
      1.68410763e-02 0. 3.48232955e-01 0. 0. 0. 1.88988015e-01
      3.48232955e-01 6.75069029e-03 3.49147990e-02 4.86671837e-04
      3.48232955e-01 0. 0. 0. 3.48232955e-01 2.36748941e-02 0. 0. 0.
      2.45840326e-02 0. 0. 0. 2.36748941e-02 2.79619366e-01
      1.36520565e-01 3.48232955e-01 7.30007794e-03 3.48232955e-01
      1.95526890e-03 0. 0. 3.11915278e-01 5.75937480e-02 4.44702581e-02
      1.52778134e-01 1.23943221e-02 2.67068207e-01 4.35231347e-03
      5.85957915e-02 2.26702821e-02 6.12266138e-02 2.47948900e-01
      7.78132454e-02 2.59048641e-01 2.16592271e-02 2.67068207e-01
      1.82938520e-02 2.67068207e-01 1.15751915e-01 2.67068207e-01
      1.32582188e-01 9.51927379e-02 2.67068207e-01 1.45345526e-02
      2.67068207e-01 7.27379462e-03 7.07172155e-02 1.83183458e-02
      1.51402727e-01 2.67068207e-01 1.36297360e-01 2.67068207e-01
      2.38766633e-02 2.67068207e-01 1.57757401e-02 1.48301661e-01
      4.66672778e-02 2.67068207e-01 2.68937230e-01 4.99869175e-02
      1.50597826e-01 7.49741821e-03 2.68937230e-01 1.45968134e-02
      2.57218421e-01 1.02822080e-01 2.68937230e-01 2.68937230e-01
      2.24623326e-02 6.32212460e-02 2.10288010e-04 2.68937230e-01
      1.36206415e-03 2.21121326e-01 7.45442584e-02 2.68937230e-01
      2.68937230e-01 9.51026976e-02 2.68937230e-01 1.02297598e-02
      2.68937230e-01 1.02086533e-02 1.19962513e-01 4.44935635e-02
      2.68937230e-01 1.22837007e-01 2.09683627e-02 6.07541613e-02
      4.62633587e-04 2.23313108e-01 1.16160826e-03 3.98714244e-02
      1.46591533e-02 1.28004983e-01</_>
    <_>
      0. 0. 0. 0. 0. 0. 0. 0. 0. 0. 0. 0. 0. 0. 0. 0. 0. 0. 0. 0. 0. 0.
      0. 0. 0. 0. 0. 0. 0. 0. 0. 0. 0. 0. 0. 0. 0. 0. 0. 0. 0. 0. 0. 0.
      0. 0. 0. 0. 0. 0. 0. 0. 0. 0. 0. 0. 0. 0. 0. 0. 0. 0. 0. 0. 0. 0.
      0. 0. 0. 0. 0. 0. 0. 0. 0. 0. 0. 0. 0. 0. 0. 0. 0. 0. 0. 0. 0. 0.
      0. 0. 0. 0. 0. 0. 0. 0. 0. 0. 0. 0. 0. 0. 0. 0. 0. 0. 0. 0. 0. 0.
      0. 0. 0. 0. 0. 0. 0. 0. 0. 0. 0. 0. 0. 0. 0. 0. 0. 0. 0. 0. 0. 0.
      0. 0. 0. 0. 0. 0. 0. 0. 0. 0. 0. 0. 0. 0. 0. 0. 0. 0. 0. 0. 0. 0.
      0. 0. 0. 0. 0. 0. 0. 0. 0. 0. 0. 0. 0. 0. 0. 0. 0. 0. 0. 0. 0. 0.
      0. 0. 0. 0. 0. 0. 0. 0. 0. 0. 0. 0. 0. 0. 0. 0. 0. 0. 0. 0. 0. 0.
      0. 0. 0. 0. 0. 0. 0. 0. 0. 0. 0. 0. 0. 0. 0. 0. 0. 0. 0. 0. 0. 0.
      0. 0. 0. 0. 0. 0. 0. 0. 0. 0. 0. 0. 0. 0. 0. 0. 0. 0. 0. 0. 0. 0.
      0. 0. 0. 0. 0. 0. 0. 0. 0. 0. 0. 0. 0. 0. 0. 0. 0. 0. 0. 0. 0. 0.
      0. 0. 0. 0. 0. 0. 0. 0. 0. 0. 0. 0. 0. 0. 0. 0. 0. 0. 0. 0. 0. 0.
      0. 0. 0. 0. 0. 0. 0. 0. 0. 0. 0. 0. 0. 0. 0. 0. 0. 0. 0. 0. 0. 0.
      0. 0. 0. 0. 0. 0. 0. 0. 0. 0. 0. 0. 0. 0. 0. 0. 0. 0. 0. 0. 0. 0.
      0. 0. 0. 0. 0. 0. 0. 0. 0. 0. 0. 0. 2.62820274e-01 0. 0. 0.
      3.88723433e-01 8.88249720e-04 6.00427687e-02 3.23048495e-02
      2.62820274e-01 4.12975788e-01 0. 0. 0. 4.12975788e-01
      1.33237457e-02 4.12975788e-01 1.39987662e-01 4.12975788e-01 0. 0.
      0. 0. 0. 0. 0. 0. 0. 0. 0. 0. 0. 0. 0. 0. 0. 0. 4.92508858e-01 0.
      0. 0. 4.92508858e-01 2.16219388e-02 4.92508858e-01 1.37787804e-01
      4.92508858e-01 0. 0. 0. 0. 7.32677206e-02 0. 0. 0. 0. 0. 0. 0. 0.
      0. 0. 0. 0. 0. 0. 0. 0. 0. 0. 0. 0. 0. 0. 1.25258133e-01 0. 0. 0.
      3.20591688e-01 0. 0. 0. 1.25258133e-01 4.54032630e-01
      1.91635385e-01 4.54032630e-01 0. 4.54032630e-01 0. 0. 0.
      4.54032630e-01 0. 0. 0. 0. 0. 0. 0. 0. 0. 0. 0. 0. 0. 0. 0. 0. 0.
      0. 4.50979233e-01 2.41392434e-01 4.50979233e-01 0. 4.50979233e-01
      0. 0. 0. 4.50979233e-01 1.13280185e-01 2.53681056e-02
      8.83467793e-02 0. 2.99303114e-01 0. 0. 0. 1.13280185e-01 0. 0. 0.
      0. 0. 0. 0. 0. 0. 0. 0. 0. 0. 0. 0. 0. 0. 0. 0. 0. 0. 0. 0. 0. 0.
      0. 0. 0. 0. 0. 0. 0. 0. 0. 0. 0. 0. 0. 0. 0. 0. 0. 0. 0. 0. 0. 0.
      0. 0. 0. 0. 0. 0. 0. 0. 0. 0. 0. 0. 0. 0. 0. 0. 0. 0. 0. 0. 0. 0.
      0. 0. 0. 0. 0. 0. 0. 0. 0. 0. 0. 0. 0. 0. 0. 0. 2.57458873e-02 0.
      0. 0. 0. 0. 0. 0. 0. 0. 0. 0. 0. 0. 4.87498850e-01 0. 0. 0.
      4.87498850e-01 0. 4.87498850e-01 2.09398165e-01 4.87498850e-01
      7.01887012e-02 0. 0. 0. 1.22099042e-01 2.51803285e-04
      2.31674407e-02 1.87071189e-02 7.01887012e-02 3.12847584e-01 0. 0.
      0. 3.12847584e-01 3.77704948e-03 1.92764804e-01 7.33663365e-02
      3.12847584e-01 1.44464761e-01 0. 0. 0. 3.12847584e-01
      2.42995452e-02 1.93265349e-01 1.00495145e-01 1.44464761e-01
      3.12847584e-01 0. 0. 0. 3.12847584e-01 3.78452539e-02
      3.12847584e-01 2.33384833e-01 3.12847584e-01 1.58861607e-01
      7.75901088e-03 9.92356520e-03 0. 2.10599035e-01 1.80959050e-03
      8.39537978e-02 2.21521184e-02 1.55798107e-01 6.77205473e-02
      1.60324499e-02 2.62235645e-02 0. 7.29677007e-02 0. 3.44360657e-02
      1.09517993e-02 6.37817606e-02 2.93374509e-01 6.77919313e-02
      1.22148521e-01 0. 2.93374509e-01 2.19651032e-02 2.93374509e-01
      1.09034441e-01 2.93374509e-01 2.93374509e-01 1.76175714e-01
      2.93374509e-01 1.33478278e-02 2.93374509e-01 1.38587784e-02
      2.93374509e-01 2.03381509e-01 2.93374509e-01 9.81558487e-02
      6.16919156e-03 1.26013951e-02 0. 1.75826028e-01 0. 4.80349846e-02
      1.25351064e-02 9.72153991e-02 2.73250699e-01 5.28478287e-02
      1.42532334e-01 0. 2.94365615e-01 0. 2.59388215e-03 5.24530478e-04
      2.73250699e-01 2.94365615e-01 1.06342576e-01 2.94365615e-01
      2.35492475e-02 2.94365615e-01 0. 2.94365615e-01 1.49112776e-01
      2.94365615e-01 2.47824103e-01 2.93326173e-02 8.64059180e-02
      1.56994979e-03 2.94365615e-01 0. 1.12401554e-02 2.27296515e-03
      2.47824103e-01 3.41031641e-01 1.69175431e-01 3.41031641e-01 0.
      3.41031641e-01 0. 0. 0. 3.41031641e-01 5.29555269e-02
      2.05824673e-02 7.86970332e-02 0. 1.82100698e-01 0. 0. 0.
      5.29555269e-02 3.31384927e-01 9.52241868e-02 3.17983687e-01 0.
      3.41031641e-01 0. 0. 0. 3.31384927e-01 2.30033901e-02
      1.35848029e-02 5.62639013e-02 0. 8.27730447e-02 0. 0. 0.
      2.30033901e-02 0. 0. 0. 0. 0. 0. 0. 0. 0. 0. 0. 0. 0. 0. 0. 0. 0.
      0. 0. 0. 0. 0. 0. 0. 0. 0. 0. 0. 0. 0. 0. 0. 0. 0. 0. 0. 0. 0. 0.
      0. 0. 0. 0. 0. 0. 0. 0. 0. 0. 0. 0. 0. 0. 0. 0. 0. 0. 0. 0. 0. 0.
      0. 0. 0. 0. 0. 0. 0. 0. 0. 0. 0. 0. 0. 0. 0. 7.26973079e-03 0. 0.
      0. 0. 3.63275081e-01 0. 0. 0. 3.63275081e-01 0. 3.56395036e-01
      1.33999079e-01 3.63275081e-01 0. 0. 0. 0. 3.15021686e-02 0. 0. 0.
      0. 3.63275081e-01 0. 0. 0. 3.63275081e-01 0. 2.22192734e-01
      9.57602188e-02 3.63275081e-01 1.95332527e-01 0. 0. 0.
      2.89116889e-01 2.10588034e-02 2.78786808e-01 1.03056729e-01
      1.95332527e-01 2.86912382e-01 0. 0. 0. 2.89116889e-01
      3.14582773e-02 2.89116889e-01 1.42658100e-01 2.86912382e-01
      2.34567180e-01 0. 0. 0. 2.89116889e-01 1.40392035e-03
      1.07993864e-01 3.96157242e-02 2.34567180e-01 2.23866746e-01 0. 0.
      0. 2.89116889e-01 2.09721853e-03 6.47382885e-02 1.96988005e-02
      2.23866746e-01 2.67906308e-01 4.44779620e-02 1.01624392e-01 0.
      2.79013723e-01 2.19827387e-02 2.79013723e-01 1.00063078e-01
      2.41782561e-01 2.79013723e-01 1.54911324e-01 2.79013723e-01
      2.28813719e-02 2.79013723e-01 1.44095095e-02 2.79013723e-01
      2.23238438e-01 2.79013723e-01 1.41353369e-01 1.81347691e-03
      8.63417517e-03 0. 2.59581059e-01 4.65923129e-03 3.81171331e-02
      1.56439263e-02 1.41609550e-01 1.96940258e-01 2.17821952e-02
      6.00482300e-02 5.28031588e-03 1.57991916e-01 7.98680726e-03
      7.14746118e-02 4.60211188e-02 2.00783029e-01 3.20084304e-01
      1.54199094e-01 3.20084304e-01 4.82562706e-02 3.20084304e-01 0.
      3.20084304e-01 1.69727787e-01 3.20084304e-01 1.49617419e-01
      4.42974921e-03 7.55976280e-03 3.21708457e-03 3.20084304e-01 0.
      5.13933972e-03 1.03926857e-03 1.49617419e-01 2.72265494e-01
      3.64903919e-02 8.00860077e-02 1.11360606e-02 3.02091092e-01
      3.30635044e-03 3.97033729e-02 3.26073468e-02 2.77181000e-01
      6.15748577e-02 2.01352220e-03 3.43625573e-03 7.42404140e-04
      1.48132086e-01 0. 0. 0. 6.15748577e-02 7.00021803e-01 0. 0. 0. 0.
      0. 0. 0. 7.00021803e-01 8.04708600e-02 0. 0. 0. 0. 0. 0. 0.
      8.04708600e-02 0. 0. 0. 0. 0. 0. 0. 0. 0. 0. 0. 0. 0. 0. 0. 0. 0.
      0. 0. 0. 0. 0. 0. 0. 0. 0. 0. 0. 0. 0. 0. 0. 0. 0. 0. 0. 0. 0. 0.
      0. 0. 0. 0. 0. 0. 0. 0. 0. 0. 0. 0. 0. 0. 0. 0. 0. 0. 0. 0. 0. 0.
      0. 0. 0. 0. 0. 0. 0. 0. 0. 0. 0. 0. 0. 0. 0. 0. 0. 0. 0. 0. 0. 0.
      0. 0. 0. 0. 0. 0. 0. 0. 0. 0. 0. 6.24992847e-02 0. 0. 0. 0.
      5.62587380e-01 0. 0. 0. 5.62587380e-01 0. 0. 0. 5.62587380e-01 0.
      0. 0. 0. 0. 0. 0. 0. 0. 9.29496363e-02 0. 0. 0. 1.53892472e-01 0.
      0. 0. 9.29496363e-02 3.15973818e-01 0. 0. 0. 3.47012281e-01 0. 0.
      0. 3.15973818e-01 3.47012281e-01 0. 0. 0. 3.47012281e-01 0. 0. 0.
      3.47012281e-01 5.01321107e-02 0. 0. 0. 9.13995728e-02 0. 0. 0.
      5.01321107e-02 3.01152855e-01 0. 0. 0. 3.47012281e-01 0. 0. 0.
      3.01152855e-01 2.88642764e-01 0. 0. 0. 2.88642764e-01
      2.08158791e-02 5.56720160e-02 6.10452034e-02 2.88642764e-01
      2.31183708e-01 0. 0. 0. 2.88642764e-01 4.57949266e-02
      1.10785544e-01 7.84866959e-02 2.31183708e-01 2.88642764e-01 0. 0.
      0. 2.88642764e-01 1.61901265e-02 4.97965030e-02 7.84866959e-02
      2.88642764e-01 2.88642764e-01 0. 0. 0. 2.88642764e-01
      3.56182791e-02 9.45186019e-02 1.00911461e-01 2.88642764e-01
      2.65012562e-01 0. 0. 0. 3.68906826e-01 9.60055515e-02
      2.18689829e-01 9.97993648e-02 2.65012562e-01 2.03262884e-02 0. 0.
      0. 0. 0. 0. 0. 2.03262884e-02 3.68906826e-01 0. 0. 0.
      3.68906826e-01 7.46709928e-02 1.80712104e-01 1.28313467e-01
      3.68906826e-01 1.70962155e-01 0. 0. 0. 3.61248434e-01 0. 0. 0.
      1.70962155e-01 0. 0. 0. 0. 0. 0. 0. 0. 0. 0. 0. 0. 0. 0. 0. 0. 0.
      0. 5.75688422e-01 0. 0. 0. 5.75688422e-01 0. 0. 0. 5.75688422e-01
      0. 0. 0. 0. 0. 0. 0. 0. 0. 0. 0. 0. 0. 0. 0. 0. 0. 0. 0. 0. 0. 0.
      0. 0. 0. 0. 0. 0. 0. 0. 0. 0. 0. 0. 0. 0. 0. 0. 0. 0. 0. 0. 0. 0.
      0. 0. 0. 0. 0. 0. 0. 0. 0. 0. 0. 0. 0. 0. 0. 0. 0. 0. 0. 0. 0. 0.
      0. 0. 0. 0. 0. 0. 0. 0. 0. 0. 0. 0. 0. 0. 0. 0. 0. 0. 0. 0. 0. 0.
      0. 0. 1.39683172e-01 0. 0. 0. 3.08275431e-01 0. 0. 0.
      1.39683172e-01 0. 0. 0. 0. 0. 0. 0. 0. 0. 5.35597742e-01 0. 0. 0.
      5.35597742e-01 0. 0. 0. 5.35597742e-01 1.27196550e-01 0. 0. 0.
